0.000513,0.000284,0.000383,0.000535,0.000443,0.000611,0.000538,0.000476,0.000612,0.000403,0.000491,0.009350,0.009073,0.004063,0.000677,0.000587,0.000598,0.000459,0.008286,0.000457,0.000528,0.000441,0.006700,0.000461,0.010089,0.000524,0.000545,0.007197,0.008324,0.009371,0.000618,0.000642,0.000537,0.006918,0.000514,0.000485,0.003906,0.000520,0.000470,0.000525,0.000563,0.000520,0.000540,0.000481,0.000336,0.000562,0.000480,0.000527,0.006877,0.000491,0.000611,0.000640,0.000620,0.007185,0.000573,0.000576,0.000628,0.000828,0.000322,0.000548,0.000474,0.007008,0.000192,0.000521,0.000479,0.000211,0.000303,-0.000414,-0.000359,-0.000677,0.000409,-0.000698,-0.000616,-0.000143,-0.000765,-0.200071,0.231084,-0.148735,0.000843,-0.000729,-0.000568,-0.000207,-0.217924,0.000089,0.000563,0.000218,-0.057505,0.000202,0.162120,-0.000473,0.000848,0.108456,0.153369,-0.057486,-0.000868,0.000542,-0.000445,-0.013991,0.000101,-0.000310,0.132466,0.000487,0.000426,0.000274,-0.000583,0.000395,-0.000586,0.000564,0.000051,-0.000452,0.000373,0.000325,-0.103969,0.000367,-0.000641,0.000778,0.000869,0.018392,-0.000618,0.000423,-0.000943,0.001056,-0.000573,-0.000459,-0.000445,-0.092691,0.000373,-0.000475,0.001076,0.000717,0.000693,0.001066,0.000851,0.001110,0.001090,0.001256,0.001180,0.000855,0.001082,-0.020838,-0.028674,0.010357,0.001305,0.001145,0.001220,0.000940,-0.014253,0.000952,0.001170,0.001220,-0.012331,0.001041,-0.017964,0.001107,0.001015,-0.004181,-0.012830,-0.013397,0.001295,0.001238,0.001079,-0.003355,0.000834,0.000986,0.009839,0.000866,0.001092,0.000940,0.001102,0.001049,0.001219,0.001058,0.000748,0.001125,0.000981,0.001033,-0.001143,0.001025,0.001205,0.001251,0.001261,-0.010303,0.001085,0.001163,0.001386,0.001239,0.000783,0.001163,0.000985,-0.013801,0.000901,0.001247,0.003431,-0.005977,-0.002322,0.002662,-0.000060,0.004098,0.002211,0.003526,0.004081,-0.000974,0.003084,0.008870,0.007489,0.004500,0.005981,0.004783,0.003549,0.000631,0.007333,0.001678,0.003359,0.000222,0.006349,-0.000342,0.009732,0.002321,0.007889,0.007397,0.007711,0.008776,0.007341,0.004388,0.002745,0.007522,0.000431,0.002024,0.004594,0.002329,0.002147,0.001622,0.003379,0.002832,0.003226,0.002020,-0.003581,0.002146,0.001335,0.001843,0.006444,0.001185,0.003898,0.006534,0.006186,0.007075,0.004336,0.003825,0.005798,0.006504,0.004584,0.003102,0.001460,0.006699,-0.011587,0.003767
0.006178,0.006277,0.006398,0.006249,0.006356,0.006224,0.006236,0.006134,0.006212,0.006480,0.006235,0.067720,0.068679,0.070991,0.006156,0.006225,0.006202,0.006319,0.068131,0.006345,0.006076,0.006148,0.063330,0.006337,0.064457,0.006187,0.006242,0.066535,0.068607,0.067164,0.005982,0.006209,0.006225,0.070620,0.006464,0.006127,0.069388,0.006270,0.006181,0.006295,0.006142,0.006185,0.006164,0.006290,0.006248,0.006300,0.006265,0.006318,0.071206,0.006281,0.006144,0.006122,0.006118,0.067343,0.006197,0.006177,0.006142,0.006200,0.004022,0.006169,0.006152,0.061524,0.006657,0.006180,0.016083,-0.017023,0.016555,-0.015785,-0.016848,-0.016003,0.016229,-0.015228,-0.016052,-0.016813,-0.015387,0.014831,0.011334,-0.007161,0.016154,-0.016444,-0.016017,-0.016234,0.029362,0.016593,0.015637,0.015897,0.050876,0.016913,-0.013680,-0.017103,0.017895,0.025101,-0.061862,0.030944,-0.014676,0.015580,-0.016354,-0.015263,-0.014954,-0.016394,0.018912,0.016871,0.016332,0.018677,-0.015691,0.016812,-0.015658,0.015795,0.013907,-0.016010,0.017091,0.016120,0.021886,0.016582,-0.015653,0.016125,0.015185,-0.037902,-0.016653,0.016443,-0.016231,0.015740,0.063178,-0.015653,-0.015679,0.025807,-0.021711,-0.015737,0.012071,0.012363,0.012097,0.012050,0.012056,0.011996,0.011871,0.011798,0.011843,0.012190,0.011976,-0.047905,-0.049461,-0.048491,0.011734,0.011939,0.011907,0.011796,-0.050905,0.011960,0.011785,0.011785,-0.044094,0.012106,-0.045335,0.011905,0.012026,-0.047768,-0.049561,-0.047819,0.011753,0.011947,0.011884,-0.051189,0.012164,0.011828,-0.046377,0.011648,0.011932,0.011781,0.011910,0.011864,0.011795,0.012015,0.012275,0.012078,0.011996,0.011896,-0.051191,0.011984,0.011798,0.011631,0.011897,-0.048861,0.011902,0.011788,0.011746,0.011914,0.006739,0.011815,0.011873,-0.041847,0.012620,0.011868,0.028144,0.026173,0.027070,0.028032,0.028308,0.028340,0.028437,0.028067,0.028278,0.026970,0.028706,0.070094,0.072473,0.072813,0.027832,0.028458,0.027908,0.028476,0.070752,0.026832,0.027866,0.027575,0.065676,0.028981,0.066687,0.029042,0.026871,0.068472,0.071996,0.069693,0.025227,0.026763,0.028482,0.073257,0.028501,0.028430,0.070691,0.028296,0.028742,0.028659,0.028215,0.028310,0.027956,0.028288,0.026906,0.028709,0.028322,0.028386,0.074087,0.028696,0.027824,0.026606,0.028027,0.069818,0.028592,0.028167,0.027848,0.027944,0.029293,0.028225,0.027917,0.063567,0.020175,0.028133
-0.002609,-0.002684,-0.002870,-0.003164,-0.002465,-0.002585,-0.002828,-0.002410,-0.002508,-0.002944,-0.002814,-0.027406,-0.029612,-0.027079,-0.002282,-0.002977,-0.002862,-0.002682,-0.026156,-0.003060,-0.002608,-0.002984,-0.027931,-0.002644,-0.025665,-0.002396,-0.002391,-0.031784,-0.029428,-0.031289,-0.002976,-0.002901,-0.002550,-0.025447,-0.002820,-0.002635,-0.024768,-0.001786,-0.002577,-0.002807,-0.002575,-0.002817,-0.002020,-0.002824,-0.002801,-0.003017,-0.002677,-0.003030,-0.025329,-0.002253,-0.002706,-0.003024,-0.002903,-0.022476,-0.002889,-0.002786,-0.002568,-0.002681,-0.001879,-0.002774,-0.002444,-0.030096,-0.002473,-0.002711,-0.006788,0.005893,-0.006767,0.007195,0.006163,0.006663,-0.006240,0.005615,0.006096,0.006390,0.006713,0.239818,-0.157425,-0.083680,-0.005830,0.006200,0.006415,0.006161,0.302402,-0.006456,-0.006057,-0.006230,0.258624,-0.006091,-0.238034,0.005587,-0.006322,0.143286,-0.350469,0.126078,0.006705,-0.006967,0.006432,-0.299447,0.006365,0.006215,0.099069,-0.005308,-0.006415,-0.006303,0.006301,-0.006790,0.006216,-0.006527,-0.006115,0.006527,-0.006175,-0.006669,0.322164,-0.005632,0.006031,-0.005783,-0.006602,-0.359051,0.006133,-0.006168,0.006278,-0.006047,0.000510,0.006097,0.006570,0.248537,0.005684,0.006221,-0.005668,-0.005209,-0.004937,-0.005875,-0.004701,-0.005401,-0.005133,-0.004570,-0.005236,-0.005275,-0.005504,0.036987,0.040466,0.017332,-0.005067,-0.005607,-0.005010,-0.005047,0.034792,-0.005518,-0.004965,-0.005359,0.041144,-0.004896,0.030997,-0.004559,-0.004858,0.021875,0.030918,0.031629,-0.005954,-0.006185,-0.005214,0.009991,-0.005286,-0.005034,0.017885,-0.004263,-0.005167,-0.004925,-0.004971,-0.005378,-0.005042,-0.005187,-0.005418,-0.005342,-0.005075,-0.005075,-0.002167,-0.004665,-0.005230,-0.004720,-0.005508,-0.010719,-0.004790,-0.005075,-0.005355,-0.005271,-0.002974,-0.004978,-0.004701,0.026630,-0.004661,-0.005169,-0.017092,-0.014465,-0.010616,-0.025895,-0.004476,-0.015302,-0.014618,-0.005207,-0.014682,-0.019091,-0.019016,-0.027718,-0.029867,-0.028068,-0.008580,-0.014793,-0.012877,-0.011179,-0.025913,-0.024123,-0.013274,-0.017340,-0.027537,-0.007773,-0.025808,-0.004056,-0.010541,-0.032145,-0.030122,-0.032049,-0.029894,-0.030781,-0.013526,-0.026512,-0.017180,-0.014387,-0.025361,0.003268,-0.014469,-0.013529,-0.014804,-0.019304,-0.013020,-0.017347,-0.017410,-0.018321,-0.013095,-0.012709,-0.027544,-0.004091,-0.013146,-0.010242,-0.020118,-0.024396,-0.008740,-0.014796,-0.014643,-0.011140,-0.012328,-0.014369,-0.013006,-0.029795,-0.000987,-0.016047
-0.002524,-0.002790,-0.002748,-0.002632,-0.002701,-0.002633,-0.002637,-0.002520,-0.002590,-0.002593,-0.002695,-0.026226,-0.021532,-0.031138,-0.002545,-0.002500,-0.002666,-0.002700,-0.022241,-0.002534,-0.002509,-0.002611,-0.021790,-0.002736,-0.024237,-0.002579,-0.002385,-0.026400,-0.027158,-0.029345,-0.002607,-0.002589,-0.002591,-0.030026,-0.002768,-0.002654,-0.029293,-0.002534,-0.002722,-0.002661,-0.002450,-0.002602,-0.002374,-0.002653,-0.002847,-0.002648,-0.002675,-0.002701,-0.025918,-0.002698,-0.002519,-0.002300,-0.002445,-0.023909,-0.002506,-0.002433,-0.002584,-0.002496,-0.001821,-0.002688,-0.002468,-0.024048,-0.002721,-0.002645,-0.006285,0.007805,-0.007682,0.006552,0.007395,0.006542,-0.006957,0.006623,0.006798,0.007591,0.006652,-0.273697,0.424952,-0.007060,-0.006225,0.006553,0.006687,0.007230,-0.270426,-0.007118,-0.006530,-0.007482,0.048508,-0.007867,0.207060,0.006921,-0.006541,0.180998,-0.115002,0.181628,0.006638,-0.006579,0.006560,0.057189,0.007955,0.007291,0.047870,-0.006613,-0.006750,-0.014220,0.006399,-0.007263,0.006411,-0.007096,-0.007748,0.007044,-0.007549,-0.006744,-0.251821,-0.007137,0.006625,-0.006184,-0.006850,-0.118292,0.006747,-0.006815,0.006494,-0.006083,-0.062755,0.006821,0.006773,0.110835,0.008650,0.006941,-0.004670,-0.004900,-0.004933,-0.004940,-0.004812,-0.004882,-0.004829,-0.004682,-0.004816,-0.004535,-0.004988,0.009534,-0.028698,0.020688,-0.004609,-0.004632,-0.004816,-0.004909,0.005207,-0.004521,-0.004779,-0.004514,0.011377,-0.004818,0.011629,-0.004572,-0.004246,0.014746,0.005220,0.035508,-0.004869,-0.004954,-0.004699,0.019754,-0.004694,-0.004626,0.020569,-0.004372,-0.005016,-0.004554,-0.004787,-0.004824,-0.004762,-0.005087,-0.005253,-0.005129,-0.004885,-0.004896,0.025317,-0.004893,-0.004700,-0.004114,-0.004515,-0.001923,-0.004518,-0.004509,-0.004796,-0.004361,-0.002587,-0.004878,-0.004837,0.003752,-0.004863,-0.004976,-0.007627,-0.020390,-0.020845,-0.014175,-0.015565,-0.013325,-0.011439,-0.006330,-0.011301,-0.009510,-0.015659,-0.027271,-0.023870,-0.031005,-0.009313,-0.007569,-0.012019,-0.013734,-0.023785,-0.008391,-0.009935,-0.009405,-0.022816,-0.013229,-0.025037,-0.010006,-0.007175,-0.026643,-0.027468,-0.029516,-0.014120,-0.014111,-0.010096,-0.030404,-0.015647,-0.011233,-0.029329,-0.005633,-0.015518,-0.013791,-0.011516,-0.012925,-0.009871,-0.016158,-0.023121,-0.015330,-0.012843,-0.012134,-0.027094,-0.013680,-0.010614,-0.000148,-0.009249,-0.026110,-0.008529,-0.005736,-0.011353,-0.003179,-0.009827,-0.012152,-0.012097,-0.025027,-0.021241,-0.014315
0.002872,0.003088,0.002887,0.002746,0.002910,0.002657,0.002813,0.002765,0.002649,0.002854,0.002842,0.029468,0.027795,0.032898,0.002779,0.002773,0.002764,0.003023,0.025779,0.002711,0.002722,0.002903,0.020859,0.002942,0.026366,0.003158,0.002412,0.027694,0.028358,0.028118,0.002305,0.002704,0.002870,0.031147,0.002864,0.002864,0.032468,0.003035,0.002923,0.002825,0.002753,0.002792,0.002784,0.002966,0.002928,0.002823,0.002670,0.002963,0.031082,0.002929,0.002731,0.002438,0.002549,0.032788,0.002817,0.002835,0.002556,0.002363,0.001776,0.002825,0.002875,0.024382,0.003079,0.002725,0.007127,-0.007989,0.007794,-0.006801,-0.007630,-0.006653,0.007057,-0.006791,-0.006556,-0.007731,-0.007046,0.014581,0.043084,0.241164,0.006631,-0.006824,-0.006918,-0.007575,0.358234,0.007249,0.006752,0.007765,0.388221,0.007855,0.026899,-0.008080,0.006191,-0.204189,-0.478941,0.044373,-0.005175,0.006148,-0.007401,0.200992,-0.008661,-0.007281,-0.217012,0.007764,0.007360,0.007656,-0.006761,0.007014,-0.006660,0.007334,0.007696,-0.007035,0.007065,0.007450,0.108842,0.007513,-0.006720,0.006585,0.006310,-0.218232,-0.007349,0.007145,-0.006151,0.006474,0.032419,-0.006828,-0.007309,0.374863,-0.009406,-0.006618,0.005211,0.005513,0.004960,0.005055,0.005089,0.004849,0.005025,0.005025,0.004748,0.005008,0.005327,-0.020546,-0.015368,-0.026369,0.004697,0.004968,0.005157,0.005459,-0.008691,0.004767,0.005132,0.005145,0.002365,0.005157,-0.019049,0.005425,0.004335,-0.018438,-0.005118,-0.016813,0.004296,0.004605,0.005168,-0.011761,0.005082,0.005083,-0.026924,0.005479,0.005311,0.004862,0.005101,0.005002,0.005126,0.005362,0.005287,0.005108,0.004690,0.005415,-0.029407,0.005289,0.005050,0.004258,0.004652,-0.035963,0.005050,0.005050,0.004590,0.004909,0.002666,0.005208,0.005337,-0.003269,0.005454,0.005030,0.014314,0.027379,0.010427,0.010766,0.014170,0.008012,0.012048,0.009720,0.007531,0.016378,0.011715,0.030531,0.028996,0.033226,0.006044,0.009654,0.012132,0.016186,0.027252,0.010849,0.011422,0.016361,0.022825,0.016690,0.027423,0.018155,0.002077,0.028393,0.029690,0.029249,-0.003021,0.003246,0.013055,0.032246,0.016878,0.013080,0.032974,0.017033,0.015218,0.013249,0.011622,0.010798,0.011141,0.014429,0.017977,0.011281,0.009420,0.015197,0.032383,0.016215,0.011209,0.001171,0.005852,0.033758,0.011711,0.013275,0.004319,0.005552,0.011952,0.012138,0.013987,0.025303,0.044184,0.010404
0.001188,0.001447,0.002076,0.001560,0.001916,0.001959,0.001763,0.001710,0.001641,0.001303,0.001444,0.018621,0.006321,0.018925,0.001658,0.001620,0.001664,0.001677,0.015420,0.001378,0.001058,0.001601,0.013371,0.001926,0.019031,0.001368,0.001704,0.014730,0.019841,0.020126,0.001805,0.001288,0.001372,0.024614,0.001556,0.001691,0.016807,0.001802,0.001903,0.001710,0.001619,0.001732,0.001699,0.001884,0.001785,0.001924,0.001848,0.001649,0.020243,0.002076,0.001657,0.001826,0.001629,0.019435,0.001686,0.001441,0.001487,0.001525,0.001339,0.001772,0.001009,0.014513,0.001503,0.001922,0.003770,-0.004708,0.005176,-0.003968,-0.005276,-0.004549,0.004354,-0.004894,-0.004787,-0.004524,-0.004120,0.136756,-0.357764,-0.039296,0.004734,-0.004071,-0.004497,-0.004535,0.218366,0.003889,0.004122,0.004405,-0.047059,0.005445,-0.149169,-0.004706,0.004333,-0.111810,0.173846,-0.224227,-0.003638,0.003848,-0.004257,-0.001331,-0.004636,-0.004255,0.021171,0.004671,0.004524,0.004680,-0.004346,0.004375,-0.004145,0.004431,0.004831,-0.004785,0.005076,0.004840,0.281619,0.005005,-0.004330,0.004472,0.003951,0.104245,-0.004308,0.004090,-0.004686,0.004331,0.011981,-0.004269,-0.004358,-0.174656,-0.005845,-0.004701,0.002060,0.002521,0.003780,0.002856,0.003297,0.003516,0.003150,0.003053,0.003350,0.002126,0.003195,-0.003591,0.044836,-0.004496,0.003438,0.002995,0.002920,0.002946,0.003588,0.002265,0.002601,0.002673,-0.007123,0.002919,-0.006455,0.003342,0.002909,-0.010883,-0.006498,-0.040009,0.003283,0.002537,0.003053,-0.016182,0.002649,0.002844,-0.005787,0.003261,0.003428,0.003014,0.002973,0.002803,0.003114,0.003237,0.003183,0.003433,0.003031,0.002780,-0.030562,0.003584,0.003182,0.002739,0.002647,-0.007251,0.002954,0.002472,0.002691,0.002826,0.001590,0.003167,0.002621,-0.009095,0.002490,0.003293,-0.002789,0.004299,0.018438,0.000924,0.014763,0.010290,0.005158,0.007126,0.008926,-0.006714,0.007195,0.019640,0.008535,0.019818,0.011263,0.002076,0.009025,0.007591,0.016251,-0.007629,0.005340,-0.004328,0.014079,0.007406,0.020432,0.007071,0.009266,0.014961,0.020469,0.019310,0.007226,0.001965,0.004047,0.024755,0.004151,0.004524,0.017651,0.007294,0.010745,0.006057,0.006161,0.003916,0.006184,0.009007,0.013058,0.008265,0.007610,0.006644,0.019452,0.012902,0.007095,-0.001237,0.002929,0.020080,0.006415,-0.003587,0.010842,0.001924,0.006273,0.007690,0.005804,0.014807,0.003118,0.010946
0.000299,0.000857,0.000973,0.000621,0.000946,0.000705,0.000708,0.000871,0.000712,0.000650,0.000568,0.005793,-0.003459,0.008867,0.000686,0.000422,0.000625,0.000778,0.010665,0.000527,0.000558,0.000674,0.013698,0.001015,0.007410,0.000582,0.000446,0.007562,0.013557,0.004136,0.000475,0.000564,0.000685,0.016727,0.000530,0.000658,0.008313,0.000667,0.000689,0.000545,0.000532,0.000661,0.000700,0.000678,0.000997,0.000813,0.000953,0.000689,0.010827,0.000945,0.000645,0.000675,0.000490,0.014827,0.000553,0.000478,0.000737,0.000516,0.000837,0.000741,0.000568,0.010271,0.001204,0.000762,0.001324,-0.001672,0.000835,-0.001202,-0.001978,-0.001285,0.001832,-0.002146,-0.001573,-0.001452,-0.000856,0.316303,-0.226155,-0.047527,0.001253,-0.000503,-0.001514,-0.001271,-0.058611,0.000472,0.001614,0.001302,-0.275929,0.002257,-0.328161,-0.001289,0.000292,0.135001,0.138092,0.181074,0.000352,0.000950,-0.001184,-0.308152,-0.000804,-0.000927,0.043401,0.002082,0.000813,0.000120,-0.001883,0.000263,-0.001705,0.000939,0.001793,-0.001620,0.001911,0.002013,-0.055681,0.002072,-0.001051,0.001375,-0.000211,0.127623,-0.000459,0.000532,-0.001599,0.001501,0.000331,-0.001422,-0.002100,-0.142295,-0.002966,-0.001189,0.000664,0.001340,0.001624,0.001007,0.001439,0.001245,0.001128,0.001468,0.001259,0.000826,0.000999,0.012730,0.038642,-0.008286,0.001201,0.000863,0.000934,0.001211,-0.010434,0.000571,0.000827,0.001014,-0.022527,0.001515,0.007683,0.001047,0.000593,-0.007118,-0.015038,-0.006681,0.001042,0.000806,0.001058,-0.018684,0.000737,0.001084,-0.006760,0.001017,0.001109,0.000716,0.000880,0.000919,0.001219,0.001046,0.001679,0.001333,0.001434,0.001148,-0.028049,0.001465,0.001132,0.001039,0.000543,0.000092,0.000728,0.000684,0.001028,0.001213,0.001033,0.001129,0.001035,-0.017339,0.002033,0.001251,-0.006590,-0.001717,0.014036,-0.003606,0.010149,0.003207,0.001392,0.005938,0.004371,-0.004956,-0.000551,0.006833,-0.001203,0.009694,0.003960,-0.002874,0.001373,0.003130,0.011411,-0.006321,0.001172,-0.003144,0.013089,0.005974,0.007843,-0.000022,0.001529,0.008024,0.013197,0.004114,-0.001193,-0.001938,0.000184,0.016178,-0.001280,0.000989,0.009321,0.004077,0.000577,0.001524,0.000989,-0.000713,0.002252,0.000686,0.005618,0.003229,0.007049,0.000835,0.010504,0.006193,0.000549,0.001914,-0.003519,0.015058,-0.000094,-0.006430,0.004364,-0.000256,0.002643,0.002061,0.003772,0.008784,-0.000853,0.002861
-0.003159,-0.003426,-0.004007,-0.003494,-0.003782,-0.003475,-0.003323,-0.002915,-0.003170,-0.003353,-0.003118,-0.030354,-0.025713,-0.037887,-0.003169,-0.003039,-0.003379,-0.003543,-0.030615,-0.003633,-0.003324,-0.003489,-0.032033,-0.003843,-0.028768,-0.003527,-0.002963,-0.034243,-0.036446,-0.036044,-0.003170,-0.003201,-0.002921,-0.039432,-0.003362,-0.003406,-0.035240,-0.003210,-0.003133,-0.003333,-0.003619,-0.003257,-0.003241,-0.003620,-0.003558,-0.003965,-0.003645,-0.003183,-0.034943,-0.003429,-0.003061,-0.003102,-0.003252,-0.035036,-0.003398,-0.003283,-0.003057,-0.002576,-0.002332,-0.003312,-0.003389,-0.031866,-0.003466,-0.003128,-0.007939,0.008307,-0.009112,0.008339,0.008898,0.008305,-0.008099,0.007896,0.008115,0.008228,0.008366,-0.197843,0.489366,-0.090324,-0.007840,0.007772,0.008344,0.008260,-0.207522,-0.007885,-0.007716,-0.008049,0.214536,-0.008746,0.142031,0.008407,-0.007091,0.293933,-0.357493,0.245096,0.007368,-0.008262,0.008219,-0.112810,0.008951,0.008593,0.151173,-0.008157,-0.008315,-0.011415,0.008058,-0.008093,0.007747,-0.008838,-0.008664,0.008813,-0.008271,-0.008597,-0.161834,-0.008865,0.007771,-0.007204,-0.007409,-0.404527,0.007502,-0.007454,0.008005,-0.007629,-0.036203,0.007843,0.008180,0.276943,0.008875,0.008201,-0.005828,-0.006622,-0.006758,-0.006245,-0.006567,-0.006308,-0.006167,-0.005896,-0.006198,-0.006031,-0.006417,0.013260,-0.026088,0.019324,-0.006029,-0.006040,-0.006278,-0.006377,0.017004,-0.005796,-0.005889,-0.006056,0.035829,-0.006499,0.015690,-0.006004,-0.005489,0.019843,0.038150,0.044260,-0.006062,-0.006272,-0.006178,0.017765,-0.006456,-0.006177,0.020941,-0.005810,-0.006476,-0.006182,-0.005990,-0.006345,-0.005875,-0.006304,-0.007016,-0.006346,-0.006392,-0.006331,0.034062,-0.006405,-0.006081,-0.005337,-0.005864,0.011929,-0.005903,-0.005677,-0.006164,-0.005817,-0.003399,-0.006025,-0.005954,0.034349,-0.006619,-0.006406,-0.008051,-0.027428,-0.028284,-0.016268,-0.021146,-0.015872,-0.014074,-0.010798,-0.014654,-0.012634,-0.017633,-0.031686,-0.028353,-0.039152,-0.011900,-0.008545,-0.014531,-0.017689,-0.032292,-0.009597,-0.013431,-0.012459,-0.032944,-0.018370,-0.029918,-0.011279,-0.007909,-0.035804,-0.037259,-0.036414,-0.017076,-0.017966,-0.012726,-0.040918,-0.017605,-0.014125,-0.036303,-0.008478,-0.018400,-0.014705,-0.014171,-0.015456,-0.013327,-0.019279,-0.032008,-0.019327,-0.017939,-0.015111,-0.036064,-0.017375,-0.012673,-0.001143,-0.010155,-0.037203,-0.009444,-0.005079,-0.014778,-0.005231,-0.016691,-0.015244,-0.016505,-0.032564,-0.030550,-0.017916
0.000801,0.000605,0.000614,0.000802,0.000602,0.000700,0.000651,0.000567,0.000634,0.000749,0.000645,0.006910,0.011015,0.004713,0.000682,0.000779,0.000549,0.000656,0.007167,0.000824,0.000637,0.000769,0.005104,0.000561,0.006030,0.000706,0.000771,0.006764,0.004884,0.004727,0.000698,0.000504,0.000726,0.002945,0.000704,0.000735,0.005312,0.000685,0.000677,0.000669,0.000699,0.000736,0.000631,0.000629,0.000562,0.000653,0.000593,0.000649,0.006294,0.000551,0.000676,0.000656,0.000803,0.005309,0.000772,0.000835,0.000664,0.000711,0.000479,0.000684,0.000586,0.005052,0.000304,0.000631,0.002411,0.000272,0.002368,-0.002464,-0.002052,-0.002185,0.002146,-0.001782,-0.001997,-0.002425,-0.002416,-0.318272,0.309015,0.055826,0.002181,-0.002591,-0.002075,-0.002116,-0.166271,0.002529,0.001983,0.002497,0.060840,0.002134,0.302929,-0.002552,0.002048,-0.100817,0.040888,-0.084684,-0.002776,0.002784,-0.002407,0.310044,-0.004038,-0.002294,-0.062288,0.002120,0.002125,0.002466,-0.002201,0.002459,-0.001923,0.002261,0.001971,-0.002114,0.001948,0.002139,-0.190871,0.001810,-0.002086,0.002377,0.002972,0.052075,-0.002557,0.002469,-0.002066,0.002346,0.001050,-0.002023,-0.002086,0.037925,-0.001118,-0.002019,0.001475,0.000906,0.000985,0.001430,0.000907,0.001191,0.001150,0.000869,0.001033,0.001179,0.001379,-0.020737,-0.037701,-0.019187,0.001138,0.001300,0.001029,0.001062,-0.009641,0.001441,0.001072,0.001262,0.000692,0.000858,-0.015533,0.001097,0.001258,-0.007827,-0.003476,-0.007632,0.001400,0.001452,0.001296,-0.004088,0.001158,0.001234,-0.017387,0.001027,0.001120,0.001176,0.001221,0.001344,0.001140,0.001216,0.000900,0.001125,0.000900,0.001039,0.003661,0.000902,0.001148,0.001095,0.001418,0.001671,0.001324,0.001350,0.001075,0.001381,0.000483,0.001141,0.001089,-0.003297,0.000317,0.001085,0.008973,0.003747,-0.004419,0.007750,-0.002770,0.003045,0.003928,0.001232,0.002931,0.008641,0.004770,0.007151,0.009938,0.004803,0.002180,0.006721,0.003046,0.001705,0.007511,0.010438,0.003429,0.006869,0.005052,0.000289,0.006251,0.002996,0.003731,0.006802,0.004989,0.005529,0.007729,0.008042,0.004562,0.002845,0.005398,0.004193,0.005599,0.000516,0.003213,0.003503,0.004355,0.005591,0.003481,0.003881,0.000152,0.002929,0.000781,0.003286,0.007293,-0.000892,0.004660,0.005237,0.007844,0.004971,0.004224,0.008775,0.002892,0.005947,0.003336,0.003523,0.002309,0.004966,-0.001477,0.003107
-0.000868,-0.000938,-0.000928,-0.001133,-0.000945,-0.001170,-0.000923,-0.000932,-0.001093,-0.000833,-0.001065,-0.008628,-0.004961,-0.010382,-0.001141,-0.000963,-0.000960,-0.000822,-0.013283,-0.000703,-0.001006,-0.000743,-0.016346,-0.000856,-0.008977,-0.000816,-0.001096,-0.012945,-0.014078,-0.012331,-0.001367,-0.001108,-0.000897,-0.012809,-0.000736,-0.000861,-0.009462,-0.000957,-0.000928,-0.000756,-0.001099,-0.001023,-0.001037,-0.001022,-0.001237,-0.001097,-0.001052,-0.000788,-0.009236,-0.000890,-0.001070,-0.000968,-0.001049,-0.006564,-0.000927,-0.000814,-0.001172,-0.001011,-0.000908,-0.001040,-0.000763,-0.013664,-0.000704,-0.001129,-0.002782,0.003493,-0.002665,0.003275,0.002942,0.003157,-0.002542,0.002765,0.003157,0.002714,0.003132,-0.014910,0.129384,0.186525,-0.003167,0.002793,0.002632,0.002622,0.050326,-0.002456,-0.002687,-0.002810,0.150998,-0.002659,0.051147,0.002732,-0.002951,-0.077117,-0.244310,0.121885,0.003605,-0.003246,0.002658,0.137718,0.002973,0.002762,-0.163145,-0.002500,-0.002925,-0.002122,0.002962,-0.003136,0.002909,-0.002819,-0.003806,0.002998,-0.003313,-0.002745,-0.125295,-0.002786,0.002845,-0.002794,-0.003071,-0.063676,0.002596,-0.002571,0.003463,-0.002947,-0.007838,0.002970,0.002665,0.230356,0.003697,0.003022,-0.001571,-0.001607,-0.001673,-0.002043,-0.001665,-0.001998,-0.001540,-0.001787,-0.001921,-0.001348,-0.001983,0.016508,-0.005390,-0.006955,-0.002105,-0.001673,-0.001693,-0.001635,0.009489,-0.001220,-0.001827,-0.001418,0.020902,-0.001462,0.011640,-0.001435,-0.001836,0.000603,0.014046,0.035264,-0.002456,-0.002254,-0.001574,0.002986,-0.001367,-0.001620,-0.006639,-0.001142,-0.001722,-0.001124,-0.001916,-0.001821,-0.001869,-0.001696,-0.002252,-0.001970,-0.001798,-0.001457,0.012355,-0.001564,-0.001774,-0.001600,-0.001805,-0.009453,-0.001616,-0.001211,-0.002261,-0.001984,-0.001247,-0.001847,-0.001769,0.016873,-0.001395,-0.001890,-0.001162,0.004387,-0.011825,-0.007230,-0.006022,-0.009797,-0.004822,-0.004597,-0.009159,0.001395,-0.007614,-0.009682,-0.006760,-0.011200,-0.009608,-0.005263,-0.006382,-0.002433,-0.014155,-0.002908,-0.005383,0.000506,-0.015919,-0.001670,-0.010129,0.000459,-0.012274,-0.013046,-0.014712,-0.012390,-0.020559,-0.014049,-0.003468,-0.013013,-0.002468,-0.003991,-0.010175,0.001517,-0.005124,-0.004551,-0.005997,-0.006873,-0.005861,-0.005899,-0.006022,-0.007760,-0.007384,-0.002596,-0.009558,-0.002619,-0.005756,-0.007983,-0.009391,-0.007881,-0.004335,-0.000722,-0.012296,-0.006998,-0.005514,-0.006190,-0.003304,-0.013970,0.017154,-0.008703
-0.002059,-0.002458,-0.002321,-0.002125,-0.002140,-0.001807,-0.002032,-0.002019,-0.001993,-0.002514,-0.001951,-0.020011,-0.023818,-0.020841,-0.001578,-0.001905,-0.001435,-0.001953,-0.023339,-0.002309,-0.001608,-0.002320,-0.023729,-0.002150,-0.017659,-0.002044,-0.002080,-0.024291,-0.024172,-0.018775,-0.002124,-0.002156,-0.002025,-0.021626,-0.002512,-0.002307,-0.020694,-0.002097,-0.001875,-0.002331,-0.002219,-0.002528,-0.002782,-0.001218,-0.002213,-0.001898,-0.002056,-0.002461,-0.023521,-0.001946,-0.002019,-0.002399,-0.002343,-0.025353,-0.002223,-0.002445,-0.001906,-0.001705,-0.001257,-0.002018,-0.002080,-0.025007,-0.002539,-0.001919,-0.005867,0.005320,-0.005379,0.005967,0.005311,0.004754,-0.005518,0.004835,0.005208,0.006115,0.005266,-0.155672,-0.250422,-0.272353,-0.004302,0.004998,0.004824,0.005267,0.359258,-0.006193,-0.004946,-0.005900,0.207188,-0.005611,0.117303,0.004766,-0.004269,-0.126165,0.165131,-0.434346,0.004608,-0.005740,0.005187,0.051255,0.005219,0.005015,0.212943,-0.004770,-0.004667,-0.005227,0.004847,-0.005529,0.004889,-0.005803,-0.005313,0.005793,-0.005360,-0.005324,0.563626,-0.005337,0.004719,-0.005244,-0.004942,-0.124083,0.004685,-0.005608,0.004427,-0.005113,0.000417,0.005025,0.005725,-0.105022,0.005113,0.004793,-0.004309,-0.004243,-0.004186,-0.004128,-0.003845,-0.003853,-0.004102,-0.004445,-0.004117,-0.005344,-0.004807,0.001810,0.026889,0.015284,-0.003151,-0.004109,-0.003323,-0.003753,0.018585,-0.004729,-0.003221,-0.004700,0.035163,-0.004012,0.005849,-0.003356,-0.003303,0.015023,0.011750,-0.016775,-0.004148,-0.004339,-0.004616,0.009377,-0.004170,-0.004424,0.014371,-0.003432,-0.003913,-0.004409,-0.003490,-0.004560,-0.003145,-0.002385,-0.004416,-0.003344,-0.004393,-0.004587,-0.007767,-0.003471,-0.004079,-0.004547,-0.004389,0.006992,-0.004119,-0.004503,-0.003859,-0.005117,-0.002412,-0.003539,-0.003247,0.012661,-0.003892,-0.004095,-0.013053,-0.019350,-0.010696,-0.014769,-0.007246,-0.005163,-0.011577,-0.006618,-0.007749,-0.022961,-0.009590,-0.020791,-0.023992,-0.022603,0.000452,-0.008221,-0.007249,-0.012421,-0.023881,-0.021408,-0.010716,-0.020074,-0.023181,-0.012489,-0.018466,-0.005380,0.001153,-0.025648,-0.023192,-0.020893,-0.005982,-0.014785,-0.011502,-0.022380,-0.013409,-0.012100,-0.021776,-0.004774,-0.006648,-0.010759,-0.009227,-0.012322,-0.009411,-0.009946,-0.014782,-0.012420,-0.011999,-0.010652,-0.023343,-0.005026,-0.008103,-0.009196,-0.006118,-0.027788,-0.004188,-0.012097,-0.002397,-0.005890,-0.007424,-0.009188,-0.014030,-0.026321,-0.020819,-0.007035
0.005796,0.005618,0.006045,0.005466,0.005866,0.005698,0.005804,0.006354,0.005956,0.006092,0.006171,0.065861,0.065043,0.061364,0.005291,0.005658,0.005142,0.005558,0.064674,0.006161,0.005124,0.006000,0.060491,0.005989,0.062228,0.005448,0.005935,0.065442,0.064325,0.060717,0.005874,0.005660,0.005993,0.067739,0.005937,0.006023,0.062302,0.005338,0.005910,0.006050,0.005525,0.005808,0.005615,0.004436,0.005830,0.005007,0.005742,0.005994,0.066833,0.005459,0.005682,0.006279,0.006248,0.067188,0.006034,0.006208,0.005756,0.006439,0.004027,0.005420,0.004951,0.057681,0.005490,0.005440,0.014224,-0.011970,0.013265,-0.013664,-0.014642,-0.013935,0.014009,-0.013291,-0.013781,-0.014072,-0.013711,0.000782,-0.006841,-0.015048,0.013576,-0.014029,-0.013952,-0.014318,0.013252,0.014111,0.013675,0.014075,0.014345,0.014778,-0.007568,-0.014158,0.012965,0.010412,0.001216,0.001185,-0.012884,0.013797,-0.013856,-0.008831,-0.013927,-0.013632,0.013369,0.013795,0.013475,0.008821,-0.013661,0.013915,-0.013648,0.014010,0.012756,-0.014207,0.014095,0.013987,0.015924,0.014029,-0.013776,0.014127,0.013564,-0.009370,-0.014160,0.014126,-0.013424,0.013743,-0.000325,-0.013592,-0.013639,0.012954,-0.010356,-0.013384,0.011320,0.010754,0.011295,0.010994,0.011540,0.011310,0.010965,0.010933,0.010827,0.011125,0.011066,-0.045080,-0.030664,-0.030689,0.011252,0.011317,0.011333,0.010896,-0.045684,0.011452,0.010977,0.011367,-0.039043,0.011676,-0.044226,0.011350,0.010933,-0.045407,-0.039718,-0.028433,0.011138,0.011180,0.010943,-0.041198,0.011120,0.011245,-0.029696,0.010840,0.011705,0.011091,0.011399,0.011058,0.011064,0.011138,0.011275,0.011989,0.011446,0.011483,-0.041270,0.011077,0.011155,0.011353,0.011516,-0.043672,0.011551,0.011643,0.010755,0.011235,0.006281,0.011517,0.010821,-0.040239,0.009572,0.011444,0.026265,0.015625,0.022866,0.026242,0.026093,0.026563,0.027097,0.026451,0.026965,0.021211,0.026721,0.067942,0.067963,0.062979,0.025552,0.026742,0.027103,0.027154,0.067263,0.026379,0.026841,0.022924,0.062463,0.023918,0.064289,0.026591,0.021311,0.067161,0.065853,0.062991,0.022177,0.026602,0.027354,0.069760,0.026448,0.027267,0.064263,0.025686,0.026626,0.026178,0.026695,0.026848,0.026833,0.026663,0.020008,0.027526,0.026712,0.027118,0.069546,0.026730,0.026476,0.022398,0.026255,0.069645,0.025992,0.026588,0.026145,0.025745,0.018002,0.026740,0.027360,0.059319,0.012563,0.026869
0.001664,0.001423,0.001415,0.001750,0.001338,0.001569,0.001551,0.001494,0.001444,0.001618,0.001414,0.016870,0.021751,0.014405,0.001165,0.001587,0.001137,0.001500,0.013625,0.001740,0.001408,0.001670,0.011861,0.001458,0.015067,0.001328,0.001476,0.018672,0.014187,0.017787,0.001837,0.001781,0.001452,0.013029,0.001566,0.001436,0.014183,0.001032,0.001493,0.001580,0.001521,0.001628,0.001252,0.001518,0.001438,0.001523,0.001499,0.001465,0.012449,0.001298,0.001537,0.001449,0.001639,0.011972,0.001500,0.001731,0.001432,0.001498,0.000843,0.001631,0.001081,0.014683,0.001110,0.001419,0.003144,-0.002056,0.002318,-0.003191,-0.002256,-0.002781,0.002698,-0.002633,-0.002717,-0.002687,-0.003555,-0.246897,0.199885,0.020801,0.002640,-0.003088,-0.002632,-0.002502,-0.219540,0.003091,0.002681,0.002521,-0.088683,0.002032,0.222972,-0.002615,0.003250,-0.038537,0.167104,-0.071856,-0.003629,0.003342,-0.002749,0.194131,-0.002743,-0.002845,-0.024057,0.001828,0.002872,0.003086,-0.002743,0.003276,-0.002599,0.003263,0.002273,-0.003154,0.002247,0.002634,-0.224899,0.002070,-0.002723,0.002789,0.003398,0.171007,-0.002797,0.003250,-0.002655,0.002758,-0.000241,-0.002792,-0.003046,-0.093875,-0.001353,-0.002685,0.003394,0.002882,0.002657,0.003496,0.002469,0.003124,0.003020,0.002516,0.003098,0.003303,0.003151,-0.020300,-0.033838,-0.010275,0.002758,0.003138,0.002723,0.002563,-0.017845,0.003488,0.003018,0.003400,-0.020297,0.002985,-0.017299,0.002743,0.003020,-0.011455,-0.012511,-0.010037,0.003333,0.003470,0.002939,-0.003258,0.003178,0.003072,-0.009486,0.002349,0.002969,0.003102,0.003162,0.003137,0.002939,0.003075,0.002936,0.003128,0.002991,0.002979,0.006729,0.002734,0.002919,0.003113,0.003314,-0.002101,0.002776,0.003192,0.003016,0.002921,0.001810,0.002976,0.002475,-0.010817,0.002294,0.002894,0.012454,0.007946,0.000053,0.014090,-0.000426,0.007552,0.008174,0.003789,0.007446,0.012869,0.009911,0.016881,0.020774,0.014851,0.004776,0.010208,0.007690,0.005864,0.013554,0.015670,0.008063,0.011395,0.011446,0.003646,0.015052,0.003820,0.006416,0.018898,0.014587,0.018562,0.015578,0.016385,0.008228,0.013918,0.009152,0.008218,0.014263,-0.000082,0.006947,0.007423,0.008356,0.010648,0.007774,0.008574,0.006281,0.008971,0.005916,0.007503,0.013143,0.001513,0.007726,0.007490,0.012117,0.012516,0.006163,0.011372,0.007239,0.008432,0.007084,0.008146,0.007212,0.015394,0.000166,0.007959
0.002782,0.003199,0.002909,0.002861,0.002855,0.002603,0.002751,0.002684,0.002620,0.003171,0.002711,0.026392,0.026068,0.034380,0.002457,0.002675,0.002578,0.002938,0.029913,0.003043,0.002764,0.003154,0.030225,0.003179,0.023986,0.002618,0.002212,0.033615,0.029323,0.023675,0.002399,0.002924,0.002735,0.033540,0.002935,0.002837,0.033889,0.002547,0.002661,0.002809,0.002634,0.002806,0.002735,0.002790,0.003059,0.002835,0.002967,0.002791,0.028502,0.002733,0.002585,0.002561,0.002532,0.032180,0.002543,0.002675,0.002517,0.002175,0.001792,0.002701,0.002766,0.027786,0.003322,0.002604,0.006783,-0.007399,0.007467,-0.006679,-0.007408,-0.006323,0.006588,-0.006532,-0.006656,-0.007856,-0.006375,0.254215,-0.031392,0.285472,0.006218,-0.006564,-0.006400,-0.007440,-0.183420,0.007471,0.006555,0.007576,-0.263277,0.007474,-0.207958,-0.007222,0.006044,0.003949,-0.064004,0.315572,-0.005501,0.006335,-0.006909,-0.023247,-0.007368,-0.007143,-0.259708,0.006803,0.006610,0.007005,-0.006019,0.007193,-0.006496,0.006871,0.007242,-0.006852,0.007284,0.006566,-0.398373,0.006821,-0.006396,0.006925,0.006051,0.266884,-0.006673,0.007138,-0.006128,0.006494,0.007691,-0.006643,-0.006647,0.050999,-0.007833,-0.006289,0.005356,0.006067,0.005376,0.005527,0.005190,0.005066,0.005305,0.005220,0.005170,0.006024,0.005104,-0.007440,-0.014488,-0.028185,0.004678,0.005118,0.005084,0.005609,-0.026609,0.005693,0.005349,0.006015,-0.039702,0.005834,-0.010625,0.005171,0.004123,-0.015053,-0.021928,0.010878,0.004687,0.005389,0.005263,-0.014038,0.005448,0.005300,-0.027420,0.004896,0.005167,0.005214,0.005157,0.005341,0.005200,0.005233,0.005896,0.005492,0.005591,0.005385,-0.012782,0.005309,0.004938,0.005056,0.004818,-0.010089,0.004863,0.005277,0.004849,0.004900,0.003005,0.005096,0.005498,-0.020519,0.006193,0.005142,0.013476,0.026027,0.017198,0.016000,0.013666,0.008165,0.013506,0.009997,0.010153,0.025552,0.011125,0.027647,0.027443,0.034527,0.002404,0.008597,0.008857,0.015794,0.030708,0.022343,0.012974,0.023272,0.030229,0.018567,0.025264,0.008734,-0.000845,0.034657,0.030126,0.025477,0.005131,0.015347,0.012766,0.034754,0.017220,0.013953,0.034143,0.009270,0.009663,0.013199,0.010495,0.013703,0.011981,0.012624,0.021258,0.015258,0.016669,0.013106,0.029681,0.010328,0.008770,0.009869,0.006460,0.033861,0.006181,0.012532,0.005423,0.006328,0.012127,0.011322,0.017269,0.028835,0.035151,0.009864
0.003576,0.003562,0.003576,0.003661,0.003407,0.003384,0.003277,0.002861,0.003109,0.003611,0.003451,0.031603,0.031218,0.038253,0.002929,0.003541,0.003166,0.003285,0.026616,0.003696,0.003112,0.003450,0.024797,0.003185,0.028399,0.003211,0.003170,0.033087,0.033467,0.039517,0.003337,0.003536,0.003299,0.030943,0.003614,0.003412,0.035518,0.002841,0.003403,0.003383,0.003235,0.003389,0.003125,0.003434,0.003579,0.003358,0.003209,0.003292,0.032864,0.003097,0.003171,0.002862,0.003504,0.026926,0.003085,0.003457,0.003020,0.003008,0.002013,0.003228,0.003173,0.028965,0.003505,0.003253,0.009968,-0.013130,0.009609,-0.009683,-0.010188,-0.009531,0.009794,-0.007706,-0.009425,-0.010501,-0.009404,-0.315330,0.131485,0.183722,0.009625,-0.009968,-0.009314,-0.009765,-0.115739,0.011430,0.008853,0.009538,-0.032863,0.009330,0.328376,-0.010259,0.007846,-0.243729,0.133150,-0.082052,-0.009738,0.009429,-0.009765,0.439487,-0.009321,-0.011134,-0.218369,0.009031,0.009714,0.009761,-0.009261,0.010403,-0.008763,0.009274,0.010613,-0.009317,0.010028,0.009357,-0.271012,0.008886,-0.009084,0.009282,0.010080,0.294156,-0.009693,0.018592,-0.009051,0.008374,0.034703,-0.009243,-0.008847,-0.023713,-0.013863,-0.009048,0.006755,0.006667,0.006539,0.006939,0.006137,0.006442,0.006201,0.005309,0.005950,0.006600,0.006706,-0.027722,-0.030768,-0.032887,0.005563,0.006584,0.005975,0.006169,-0.018409,0.006778,0.005864,0.006440,-0.017134,0.005943,-0.024225,0.006186,0.006130,-0.019843,-0.024186,-0.040650,0.006775,0.006853,0.006137,-0.005768,0.006725,0.006436,-0.031966,0.005119,0.006601,0.006315,0.006279,0.006239,0.005833,0.006509,0.006696,0.006352,0.006077,0.006084,-0.012925,0.005942,0.005960,0.005615,0.006728,-0.002527,0.005915,0.006392,0.005785,0.005597,0.003293,0.006237,0.005978,-0.019378,0.006369,0.006089,0.021389,0.030126,0.011370,0.026912,0.007779,0.015669,0.016505,0.004621,0.012671,0.023641,0.023182,0.032422,0.032979,0.038842,0.007892,0.016553,0.014427,0.017169,0.028257,0.025149,0.013581,0.020967,0.025470,0.011644,0.029050,0.011651,0.007856,0.033935,0.034990,0.040215,0.025280,0.027423,0.016004,0.032308,0.023253,0.017025,0.034855,0.001968,0.020608,0.017747,0.016224,0.019832,0.012784,0.022255,0.024903,0.019121,0.012093,0.017459,0.034771,0.010149,0.014466,0.002367,0.019133,0.029300,0.012188,0.017433,0.011496,0.008296,0.012391,0.016121,0.015410,0.030181,0.024442,0.016481
-0.001939,-0.002333,-0.002142,-0.001959,-0.001935,-0.001745,-0.001883,-0.001552,-0.001686,-0.002110,-0.001720,-0.018308,-0.018367,-0.025767,-0.001585,-0.001756,-0.001793,-0.001823,-0.019735,-0.001879,-0.001801,-0.002104,-0.015499,-0.002095,-0.016099,-0.001557,-0.001462,-0.023439,-0.018698,-0.018121,-0.001628,-0.001875,-0.001886,-0.024332,-0.002073,-0.001911,-0.025262,-0.001353,-0.002426,-0.002061,-0.001816,-0.001856,-0.001801,-0.002355,-0.002211,-0.002001,-0.001984,-0.001796,-0.020534,-0.002000,-0.002056,-0.001482,-0.001639,-0.021444,-0.001737,-0.001830,-0.001471,-0.001918,-0.001066,-0.001850,-0.002139,-0.016952,-0.002311,-0.001864,-0.003762,0.004455,-0.004667,0.003963,0.004023,0.004107,-0.003714,0.003504,0.003508,0.004017,0.004045,-0.337698,0.445232,-0.258888,-0.003909,0.003736,0.003626,0.004020,-0.335431,-0.003992,-0.003703,-0.003986,0.051208,-0.003901,0.258100,0.004365,-0.003947,0.310489,0.014310,0.017836,0.003991,-0.003663,0.003964,-0.118490,0.004467,0.004089,0.285221,-0.003727,-0.004480,-0.004611,0.003628,-0.004392,0.003672,-0.004268,-0.004582,0.003931,-0.003941,-0.004001,-0.123878,-0.003884,0.003700,-0.003496,-0.003805,-0.212224,0.004152,-0.003745,0.003765,-0.003102,-0.001853,0.003956,0.004114,-0.004385,0.004276,0.003897,-0.003770,-0.004747,-0.004360,-0.003924,-0.004227,-0.003735,-0.003869,-0.003488,-0.003624,-0.004395,-0.003919,0.006588,-0.017848,0.028469,-0.003269,-0.003544,-0.004188,-0.004296,0.013536,-0.004048,-0.003909,-0.004339,0.015012,-0.004381,0.011998,-0.003951,-0.002899,0.015242,0.010786,0.003669,-0.003253,-0.003847,-0.003803,0.013213,-0.004216,-0.003922,0.029865,-0.003705,-0.003996,-0.003928,-0.003714,-0.003858,-0.003729,-0.003976,-0.004579,-0.004061,-0.004053,-0.004002,0.014312,-0.004079,-0.003621,-0.003087,-0.003299,0.004455,-0.003631,-0.003644,-0.003505,-0.003189,-0.001923,-0.003847,-0.003920,0.009664,-0.004767,-0.003771,-0.007740,-0.028350,-0.016687,-0.009435,-0.013120,-0.004437,-0.009367,-0.005842,-0.005271,-0.016898,-0.008686,-0.019174,-0.020507,-0.025893,0.000705,-0.003509,-0.006596,-0.014655,-0.020517,-0.011724,-0.008738,-0.016179,-0.016305,-0.015819,-0.016668,-0.009130,0.005748,-0.024235,-0.019427,-0.019573,0.002811,-0.005466,-0.009382,-0.025735,-0.014893,-0.010574,-0.025526,-0.008238,-0.010781,-0.010068,-0.007375,-0.008765,-0.007621,-0.012539,-0.023105,-0.011004,-0.010645,-0.011758,-0.021415,-0.011356,-0.005697,0.003072,-0.000108,-0.022988,-0.003912,-0.006130,-0.000517,0.001290,-0.007761,-0.008755,-0.013192,-0.017733,-0.041668,-0.007621
0.003732,0.003547,0.003527,0.003929,0.003308,0.003555,0.003687,0.003237,0.003658,0.003734,0.003713,0.037307,0.038969,0.037516,0.003329,0.003579,0.003620,0.003663,0.035870,0.003854,0.003468,0.003808,0.035435,0.003497,0.034720,0.003555,0.003283,0.040973,0.038778,0.041151,0.003945,0.004129,0.003468,0.035777,0.003734,0.003623,0.036283,0.003070,0.003142,0.003492,0.003565,0.003832,0.003501,0.003535,0.003633,0.003692,0.003666,0.003440,0.035120,0.003416,0.003292,0.003411,0.003597,0.032581,0.003539,0.003592,0.003488,0.003684,0.002335,0.003617,0.003312,0.037551,0.003342,0.003510,0.008386,-0.008660,0.007544,-0.009142,-0.008154,-0.009321,0.008024,-0.007553,-0.008192,-0.009129,-0.008578,-0.265939,0.213411,0.135018,0.009012,-0.009344,-0.008140,-0.007375,-0.330210,0.009421,0.008048,0.009022,-0.210430,0.008180,0.257746,-0.009309,0.009401,-0.042659,0.235973,0.027010,-0.009911,0.009243,-0.008971,0.272975,-0.009461,-0.009055,-0.126815,0.008003,0.009209,0.006486,-0.007619,0.009950,-0.008105,0.008577,0.008845,-0.008360,0.009030,0.007759,-0.423585,0.007891,-0.008408,0.009496,0.009775,0.326841,-0.009098,0.008674,-0.009393,0.008307,0.028188,-0.008672,-0.007850,-0.148155,-0.008757,-0.008811,0.007329,0.006658,0.006526,0.007583,0.006374,0.007043,0.007140,0.006417,0.006998,0.007102,0.007198,-0.034537,-0.045711,-0.030828,0.006663,0.007166,0.006829,0.006714,-0.038441,0.007389,0.006814,0.007151,-0.038546,0.006559,-0.030412,0.006669,0.006462,-0.030077,-0.035954,-0.035475,0.007435,0.007700,0.007039,-0.020490,0.006949,0.006863,-0.030366,0.006026,0.006773,0.006803,0.006873,0.007243,0.006661,0.007206,0.006806,0.007349,0.006652,0.006803,-0.004152,0.006383,0.006671,0.006711,0.007344,-0.000588,0.006461,0.007249,0.006910,0.006722,0.003742,0.006749,0.006833,-0.031587,0.006328,0.007007,0.022505,0.019027,0.012518,0.028807,0.008484,0.017885,0.017842,0.008995,0.016824,0.022779,0.022552,0.038180,0.038742,0.038075,0.011007,0.018718,0.016286,0.015641,0.035667,0.027488,0.017039,0.021364,0.035548,0.012134,0.035378,0.009389,0.014209,0.041932,0.039867,0.042450,0.030965,0.033131,0.017248,0.037307,0.021454,0.017998,0.036660,0.002676,0.017485,0.017577,0.018108,0.022251,0.016575,0.020318,0.019527,0.020870,0.016396,0.016422,0.036202,0.008403,0.016676,0.014296,0.023350,0.034870,0.012788,0.019760,0.016259,0.014604,0.016841,0.017677,0.017451,0.038801,0.003996,0.018482
-0.003210,-0.003703,-0.003405,-0.003186,-0.003419,-0.003139,-0.003233,-0.003104,-0.003081,-0.003402,-0.003259,-0.034141,-0.030873,-0.038334,-0.003035,-0.003148,-0.003090,-0.003433,-0.031727,-0.003171,-0.003048,-0.003373,-0.025590,-0.003506,-0.031097,-0.003392,-0.002853,-0.033493,-0.032296,-0.032160,-0.002738,-0.002992,-0.003292,-0.038222,-0.003385,-0.003256,-0.037464,-0.003367,-0.003309,-0.003304,-0.003163,-0.003159,-0.003071,-0.003316,-0.003541,-0.003297,-0.003228,-0.003351,-0.036073,-0.003424,-0.003151,-0.002903,-0.002968,-0.036751,-0.003182,-0.003193,-0.003002,-0.003098,-0.002255,-0.003206,-0.003094,-0.027866,-0.003858,-0.003166,-0.008318,0.009809,-0.008995,0.008117,0.009339,0.008213,-0.008630,0.008112,0.008233,0.009341,0.008077,-0.140827,0.147979,-0.295106,-0.008238,0.008178,0.008395,0.008957,-0.375153,-0.008606,-0.008220,-0.009303,-0.222128,-0.009659,0.061136,0.009548,-0.007538,0.301908,0.293880,-0.034455,0.006347,-0.007585,0.008811,-0.244177,0.009828,0.008692,0.278869,-0.009481,-0.008662,-0.012500,0.008160,-0.008376,0.008152,-0.008472,-0.009187,0.008538,-0.008850,-0.008830,-0.143172,-0.009208,0.008106,-0.008335,-0.007573,0.039778,0.008658,-0.008550,0.007907,-0.007622,-0.045479,0.008218,0.008577,-0.229763,0.010449,0.008071,-0.005966,-0.006783,-0.006075,-0.005984,-0.006163,-0.005754,-0.005930,-0.005820,-0.005717,-0.006190,-0.006064,0.023335,0.006082,0.031893,-0.005562,-0.005737,-0.005862,-0.006327,0.010887,-0.005694,-0.005783,-0.006067,0.012875,-0.006325,0.024043,-0.006188,-0.005215,0.015727,0.017868,0.025407,-0.005158,-0.005631,-0.005988,0.018117,-0.006176,-0.005911,0.030993,-0.006083,-0.006132,-0.005743,-0.005926,-0.005870,-0.005853,-0.006181,-0.006556,-0.006081,-0.005859,-0.006156,0.033225,-0.006237,-0.005858,-0.005070,-0.005452,0.026548,-0.005769,-0.005760,-0.005531,-0.005459,-0.003415,-0.005966,-0.006070,0.016841,-0.006981,-0.005917,-0.014047,-0.031350,-0.017310,-0.012145,-0.019158,-0.010854,-0.014147,-0.012072,-0.010410,-0.018031,-0.014330,-0.035666,-0.033142,-0.039025,-0.008314,-0.010673,-0.013542,-0.018885,-0.033379,-0.011147,-0.012999,-0.017598,-0.027373,-0.020831,-0.032604,-0.020086,-0.003096,-0.034454,-0.033592,-0.033209,0.002306,-0.003784,-0.014425,-0.039524,-0.019177,-0.015048,-0.037982,-0.019043,-0.017121,-0.015478,-0.013129,-0.012996,-0.012817,-0.016773,-0.023487,-0.014634,-0.013803,-0.016714,-0.037280,-0.019787,-0.012528,-0.002057,-0.006162,-0.037778,-0.012623,-0.012815,-0.007429,-0.006269,-0.015212,-0.013953,-0.016450,-0.028714,-0.051815,-0.013036
-0.003202,-0.003238,-0.003021,-0.003042,-0.002934,-0.002857,-0.002927,-0.002599,-0.002924,-0.003215,-0.002943,-0.027690,-0.028845,-0.032436,-0.002597,-0.002815,-0.002847,-0.003063,-0.028275,-0.003014,-0.002718,-0.003159,-0.030018,-0.003154,-0.025445,-0.002780,-0.002446,-0.031132,-0.030338,-0.023919,-0.002639,-0.003011,-0.002998,-0.031203,-0.003075,-0.003003,-0.032687,-0.002955,-0.002725,-0.002810,-0.002673,-0.002979,-0.002963,-0.003047,-0.003202,-0.003060,-0.003073,-0.002863,-0.027940,-0.002852,-0.002830,-0.002717,-0.002649,-0.030335,-0.002746,-0.002842,-0.002835,-0.002601,-0.002187,-0.002746,-0.002880,-0.029966,-0.003208,-0.002781,-0.007445,0.008834,-0.008169,0.007868,0.007923,0.007706,-0.008134,0.007404,0.007245,0.008980,0.007628,-0.222766,0.116311,-0.199258,-0.007411,0.007788,0.007197,0.007968,0.172636,-0.008347,-0.007569,-0.008837,0.309869,-0.008588,0.180330,0.008574,-0.007451,0.022109,-0.102998,-0.198769,0.006803,-0.007712,0.008147,-0.015532,0.008747,0.008429,0.183846,-0.007689,-0.007807,-0.008968,0.007378,-0.008500,0.007380,-0.007811,-0.008671,0.007953,-0.008590,-0.007632,0.347989,-0.007593,0.007153,-0.008210,-0.007472,-0.314020,0.007783,-0.007455,0.007551,-0.006830,-0.007459,0.007713,0.008035,0.078666,0.009293,0.007511,-0.005332,-0.005695,-0.005287,-0.005579,-0.005219,-0.005072,-0.005258,-0.005038,-0.005064,-0.005617,-0.005378,0.013654,0.007239,0.032039,-0.004633,-0.005016,-0.005120,-0.005470,0.019672,-0.005426,-0.005206,-0.005469,0.035803,-0.005408,0.014957,-0.004954,-0.004235,0.017977,0.027118,-0.006532,-0.004945,-0.005473,-0.005205,0.018443,-0.005218,-0.005224,0.031217,-0.004836,-0.005049,-0.004955,-0.005363,-0.005351,-0.005298,-0.005385,-0.005776,-0.005565,-0.005332,-0.005266,-0.002052,-0.005074,-0.004981,-0.004856,-0.004911,0.006428,-0.004774,-0.005119,-0.004857,-0.005267,-0.002848,-0.005349,-0.005594,0.025146,-0.005587,-0.005074,-0.014274,-0.022249,-0.017302,-0.018656,-0.012037,-0.009668,-0.013064,-0.008236,-0.010775,-0.023608,-0.013505,-0.028629,-0.029045,-0.032951,-0.002956,-0.009637,-0.009410,-0.014321,-0.029509,-0.022483,-0.012546,-0.021142,-0.030301,-0.016173,-0.026217,-0.007102,-0.001645,-0.031949,-0.030250,-0.025687,-0.011592,-0.019714,-0.012522,-0.032036,-0.017241,-0.013664,-0.033043,-0.005454,-0.010280,-0.012641,-0.011397,-0.014805,-0.011579,-0.013220,-0.020534,-0.015853,-0.015867,-0.012202,-0.030033,-0.008663,-0.009569,-0.009781,-0.009120,-0.032456,-0.006241,-0.012464,-0.007009,-0.006588,-0.010382,-0.011854,-0.016138,-0.030349,-0.021403,-0.010744
-0.006262,-0.006077,-0.006339,-0.006192,-0.006356,-0.006264,-0.006234,-0.006134,-0.006185,-0.006243,-0.006266,-0.068329,-0.068424,-0.068842,-0.006240,-0.006286,-0.006312,-0.006227,-0.067599,-0.006192,-0.006169,-0.006313,-0.063024,-0.006432,-0.065100,-0.006308,-0.006052,-0.067071,-0.067824,-0.065486,-0.006134,-0.006175,-0.006384,-0.071466,-0.006403,-0.006264,-0.067514,-0.006265,-0.006280,-0.006371,-0.006292,-0.006279,-0.006165,-0.006267,-0.006232,-0.006410,-0.006265,-0.006303,-0.070404,-0.006278,-0.006286,-0.006259,-0.006236,-0.067863,-0.006332,-0.006377,-0.006159,-0.006297,-0.003960,-0.006316,-0.006077,-0.062007,-0.005853,-0.006249,-0.014479,0.014248,-0.014920,0.014379,0.014568,0.014318,-0.014612,0.014737,0.014498,0.014538,0.014694,-0.039105,0.017948,0.007190,-0.014059,0.014280,0.014928,0.014431,-0.011117,-0.014383,-0.014790,-0.014378,-0.019680,-0.014992,0.022368,0.014370,-0.014461,-0.026253,0.044449,-0.045611,0.013553,-0.014366,0.014877,0.051183,0.015809,0.015777,-0.023745,-0.014636,-0.014337,-0.018340,0.014347,-0.014236,0.014597,-0.015239,-0.014243,0.015314,-0.014228,-0.015019,0.010223,-0.014542,0.014475,-0.014381,-0.014148,0.023390,0.014490,-0.014357,0.014152,-0.014818,-0.068201,0.014272,0.015010,-0.022093,0.014540,0.014454,-0.011942,-0.011496,-0.011758,-0.012000,-0.011822,-0.011947,-0.011974,-0.011881,-0.011951,-0.011653,-0.012025,0.048433,0.048831,0.048097,-0.011792,-0.012004,-0.011958,-0.011980,0.048244,-0.011715,-0.011797,-0.011609,0.043297,-0.011922,0.045443,-0.011838,-0.011502,0.048227,0.049109,0.047751,-0.011615,-0.012016,-0.011971,0.051741,-0.011623,-0.011677,0.046316,-0.011795,-0.011932,-0.011612,-0.011885,-0.011922,-0.011872,-0.011988,-0.011662,-0.012120,-0.011841,-0.012040,0.050736,-0.011962,-0.011856,-0.011528,-0.011760,0.049013,-0.011780,-0.011737,-0.011879,-0.011974,-0.006778,-0.011834,-0.011874,0.041979,-0.011336,-0.011889,-0.028984,-0.026593,-0.027804,-0.028653,-0.028950,-0.028823,-0.028414,-0.028181,-0.028328,-0.027438,-0.029128,-0.070710,-0.070936,-0.070658,-0.028266,-0.028800,-0.028134,-0.028621,-0.070184,-0.027406,-0.028040,-0.027820,-0.065426,-0.029315,-0.067348,-0.029548,-0.027160,-0.069013,-0.069782,-0.068393,-0.025550,-0.027334,-0.028206,-0.074159,-0.029102,-0.028385,-0.069292,-0.028577,-0.028042,-0.028982,-0.028163,-0.028207,-0.028079,-0.028286,-0.027378,-0.028708,-0.028882,-0.028567,-0.073285,-0.029157,-0.027827,-0.026814,-0.028581,-0.070269,-0.029012,-0.028699,-0.028237,-0.028225,-0.029488,-0.028297,-0.028147,-0.064164,-0.020408,-0.028314
-0.001407,-0.001181,-0.000862,-0.001308,-0.000874,-0.001003,-0.001222,-0.001182,-0.001106,-0.001454,-0.001214,-0.015373,-0.023812,-0.011028,-0.000938,-0.001169,-0.001066,-0.001226,-0.014393,-0.001488,-0.001142,-0.001287,-0.013741,-0.001118,-0.013676,-0.001136,-0.000845,-0.014764,-0.010758,-0.005038,-0.001048,-0.001229,-0.001283,-0.008235,-0.001188,-0.001171,-0.012848,-0.001172,-0.001026,-0.001139,-0.001209,-0.001272,-0.001204,-0.001152,-0.000959,-0.001221,-0.001069,-0.001213,-0.010434,-0.000981,-0.001148,-0.001259,-0.001014,-0.014136,-0.001183,-0.001374,-0.000956,-0.001302,-0.000716,-0.001171,-0.001178,-0.013731,-0.000729,-0.001048,-0.002892,0.002658,-0.002188,0.002614,0.001992,0.002050,-0.002240,0.002072,0.001904,0.002551,0.002813,-0.022903,-0.384380,-0.161842,-0.001943,0.002491,0.001945,0.002372,0.303870,-0.002751,-0.002400,-0.002257,0.053906,-0.001793,-0.024223,0.002487,-0.001976,-0.117439,0.219379,-0.360125,0.001884,-0.002381,0.002742,-0.045656,0.001815,0.002365,0.127219,-0.002644,-0.001813,-0.001838,0.002415,-0.002315,0.002217,-0.002297,-0.001298,0.002211,-0.001634,-0.002203,0.417341,-0.001551,0.002104,-0.002610,-0.001945,0.031047,0.002544,-0.002153,0.001703,-0.002716,0.000431,0.001963,0.002789,-0.182704,0.000714,0.001578,-0.002583,-0.001872,-0.001655,-0.002417,-0.001542,-0.001737,-0.002240,-0.002171,-0.001998,-0.002468,-0.002314,0.023729,0.055682,0.003664,-0.001738,-0.002126,-0.001997,-0.002219,0.016224,-0.002464,-0.002328,-0.002532,0.013879,-0.002005,0.021169,-0.001981,-0.001592,0.002543,-0.000118,-0.026404,-0.001881,-0.002329,-0.002413,0.002344,-0.001971,-0.002186,0.002756,-0.002229,-0.001793,-0.002024,-0.002186,-0.002357,-0.002369,-0.002135,-0.001633,-0.002256,-0.001940,-0.002288,-0.016698,-0.001705,-0.002174,-0.002350,-0.001964,0.011071,-0.002123,-0.002554,-0.001777,-0.002438,-0.000949,-0.002153,-0.002353,0.003562,-0.000943,-0.001947,-0.015188,-0.008143,0.006239,-0.010049,0.002387,-0.000127,-0.006905,-0.004702,-0.003225,-0.020073,-0.003264,-0.015602,-0.021786,-0.011450,0.002247,-0.009107,-0.002878,-0.005414,-0.013268,-0.020124,-0.007026,-0.017601,-0.012718,-0.006490,-0.014004,-0.004837,0.000899,-0.015037,-0.009855,-0.006561,0.000443,-0.007905,-0.008034,-0.009450,-0.007889,-0.007835,-0.013357,-0.005018,-0.000295,-0.005803,-0.005022,-0.007152,-0.006411,-0.002171,0.001336,-0.004164,-0.004975,-0.005586,-0.011849,0.000768,-0.004686,-0.012905,-0.005939,-0.014454,-0.004216,-0.015787,0.001309,-0.008636,-0.004301,-0.004346,-0.008352,-0.013886,-0.008864,-0.000365
-0.003042,-0.002189,-0.002800,-0.002999,-0.002819,-0.003104,-0.003027,-0.002920,-0.003075,-0.002717,-0.002953,-0.035257,-0.039176,-0.028106,-0.003228,-0.003179,-0.003161,-0.002699,-0.032622,-0.003060,-0.002744,-0.002798,-0.033241,-0.002801,-0.034800,-0.002868,-0.003345,-0.032083,-0.034912,-0.038697,-0.003408,-0.003290,-0.003020,-0.029641,-0.003006,-0.002935,-0.027363,-0.002782,-0.002902,-0.003078,-0.002995,-0.002959,-0.002815,-0.002840,-0.002442,-0.002966,-0.002914,-0.002964,-0.033678,-0.002868,-0.003074,-0.003351,-0.003358,-0.028899,-0.003162,-0.003139,-0.003186,-0.003088,-0.001839,-0.002938,-0.002769,-0.033817,-0.002245,-0.003045,-0.007391,0.006401,-0.006538,0.007370,0.006938,0.007638,-0.007322,0.006706,0.007618,0.007247,0.006489,0.266698,-0.224804,0.336883,-0.007643,0.007932,0.007353,0.006519,0.301394,-0.007455,-0.007077,-0.007347,0.069764,-0.007316,-0.207660,0.007523,-0.007790,-0.261778,-0.238364,0.146958,0.008141,-0.007523,0.007371,0.185900,0.007635,0.007259,-0.323397,-0.006928,-0.007477,-0.006806,0.006856,-0.007679,0.007264,-0.006525,-0.006751,0.006935,-0.007571,-0.006927,0.020499,-0.006997,0.007422,-0.008079,-0.008327,0.113514,0.007454,-0.007855,0.008020,-0.007251,-0.035399,0.007306,0.006331,0.184634,0.006836,0.007559,-0.005811,-0.004650,-0.005203,-0.005752,-0.005181,-0.005991,-0.005787,-0.005710,-0.006044,-0.005305,-0.005749,0.035905,0.048766,-0.001770,-0.006169,-0.006180,-0.006020,-0.005293,0.027641,-0.005765,-0.005623,-0.005218,0.027982,-0.005157,0.029822,-0.005513,-0.006504,0.021842,0.036623,0.040083,-0.006479,-0.006172,-0.005688,0.026508,-0.005515,-0.005503,-0.001904,-0.005361,-0.005673,-0.005634,-0.005764,-0.005782,-0.005604,-0.005556,-0.004788,-0.005767,-0.005507,-0.005549,0.013979,-0.005341,-0.005913,-0.006347,-0.006355,0.029610,-0.005912,-0.006087,-0.006194,-0.006355,-0.003059,-0.005659,-0.005339,0.031302,-0.004654,-0.005925,-0.016793,0.008787,-0.005493,-0.017072,-0.007612,-0.019649,-0.013159,-0.013832,-0.017688,-0.004794,-0.016247,-0.035304,-0.039317,-0.029887,-0.022869,-0.019846,-0.016320,-0.006833,-0.032882,-0.013595,-0.013968,-0.006745,-0.033802,-0.005096,-0.035085,-0.011661,-0.030540,-0.033397,-0.035563,-0.038659,-0.032510,-0.023874,-0.013360,-0.030883,-0.009095,-0.012134,-0.028522,-0.010002,-0.012599,-0.012840,-0.015692,-0.015549,-0.014964,-0.012042,-0.000007,-0.013440,-0.011722,-0.010501,-0.034592,-0.008472,-0.017042,-0.025180,-0.026674,-0.030186,-0.018333,-0.018287,-0.022961,-0.023327,-0.016440,-0.014384,-0.009364,-0.034566,0.034246,-0.016540
-0.003781,-0.003612,-0.003686,-0.003624,-0.003751,-0.003675,-0.003784,-0.003614,-0.003653,-0.003683,-0.003742,-0.042375,-0.043086,-0.042657,-0.003718,-0.003746,-0.003691,-0.003781,-0.038134,-0.003729,-0.003605,-0.003709,-0.030053,-0.003770,-0.039626,-0.003934,-0.003728,-0.038232,-0.038420,-0.041828,-0.003471,-0.003459,-0.003788,-0.040715,-0.003883,-0.003712,-0.041678,-0.003876,-0.003820,-0.003810,-0.003681,-0.003696,-0.003618,-0.003824,-0.003561,-0.003704,-0.003552,-0.003850,-0.043223,-0.003826,-0.003729,-0.003598,-0.003683,-0.040856,-0.003861,-0.003879,-0.003581,-0.003774,-0.002350,-0.003718,-0.003599,-0.033241,-0.003703,-0.003710,-0.009254,0.009391,-0.009406,0.008812,0.009509,0.009126,-0.009302,0.008720,0.009032,0.009317,0.008732,0.209894,-0.125934,-0.072946,-0.009115,0.009398,0.009366,0.009262,-0.261217,-0.009429,-0.008837,-0.009718,-0.338826,-0.009554,-0.206461,0.010265,-0.008317,0.170143,0.284930,0.143883,0.008167,-0.008633,0.009455,-0.255715,0.010447,0.009215,0.063345,-0.009746,-0.009482,-0.009020,0.008891,-0.008807,0.008879,-0.009090,-0.008709,0.008919,-0.009182,-0.009416,-0.218011,-0.009591,0.009135,-0.009362,-0.009398,0.219219,0.009689,-0.009713,0.008916,-0.008608,-0.047967,0.009017,0.008858,-0.260139,0.009514,0.009082,-0.007262,-0.007009,-0.006910,-0.006956,-0.006961,-0.006988,-0.007099,-0.006914,-0.006890,-0.006910,-0.007191,0.037396,0.038835,0.029494,-0.006977,-0.007118,-0.007228,-0.007198,0.022430,-0.007013,-0.006937,-0.006866,0.002716,-0.006984,0.032980,-0.007407,-0.006998,0.018721,0.017439,0.036215,-0.006528,-0.006733,-0.007179,0.014672,-0.007220,-0.007038,0.028336,-0.007264,-0.007333,-0.007109,-0.007093,-0.007013,-0.006975,-0.007274,-0.006764,-0.007062,-0.006660,-0.007314,0.040846,-0.007247,-0.007131,-0.006572,-0.006946,0.040468,-0.007258,-0.007215,-0.006810,-0.006872,-0.003729,-0.007057,-0.007014,0.009056,-0.006900,-0.007079,-0.020024,-0.024096,-0.010914,-0.015171,-0.016277,-0.014732,-0.016780,-0.014537,-0.013547,-0.016263,-0.017893,-0.043759,-0.044619,-0.043254,-0.014919,-0.017391,-0.018346,-0.018428,-0.039322,-0.013292,-0.015901,-0.016962,-0.032173,-0.017538,-0.040975,-0.024438,-0.012984,-0.039328,-0.039561,-0.042886,-0.006608,-0.007838,-0.018001,-0.042404,-0.020087,-0.017494,-0.042146,-0.021144,-0.021107,-0.017981,-0.017183,-0.016183,-0.015933,-0.019124,-0.017542,-0.015404,-0.011864,-0.019070,-0.044331,-0.020512,-0.017761,-0.007890,-0.014859,-0.041646,-0.019280,-0.019899,-0.012374,-0.013582,-0.016429,-0.017239,-0.016587,-0.034457,-0.032082,-0.016566
-0.006287,-0.006055,-0.006326,-0.006235,-0.006337,-0.006275,-0.006310,-0.006123,-0.006209,-0.006193,-0.006252,-0.068124,-0.067759,-0.069447,-0.006234,-0.006323,-0.006294,-0.006212,-0.067224,-0.006263,-0.006135,-0.006287,-0.062728,-0.006356,-0.064908,-0.006278,-0.006003,-0.066882,-0.067643,-0.065504,-0.006065,-0.006190,-0.006315,-0.071029,-0.006364,-0.006201,-0.068042,-0.006244,-0.006163,-0.006334,-0.006143,-0.006290,-0.006140,-0.006310,-0.006083,-0.006321,-0.006202,-0.006298,-0.070036,-0.006344,-0.006192,-0.006221,-0.006272,-0.067592,-0.006285,-0.006351,-0.006142,-0.006366,-0.003977,-0.006146,-0.006124,-0.061760,-0.006186,-0.006131,-0.015365,0.016020,-0.015619,0.015440,0.015972,0.015788,-0.015396,0.014687,0.015393,0.016267,0.014640,-0.012516,0.014264,0.004580,-0.015885,0.015861,0.015360,0.014957,-0.010281,-0.015870,-0.015178,-0.016312,-0.024540,-0.016317,0.013506,0.016864,-0.015549,-0.025426,0.035379,-0.041547,0.014730,-0.015319,0.015972,0.018983,0.017337,0.015847,-0.014610,-0.016162,-0.015985,-0.014857,0.014929,-0.015994,0.015271,-0.014906,-0.016109,0.015426,-0.016217,-0.015388,-0.000289,-0.015850,0.015366,-0.016224,-0.015794,0.020860,0.016121,-0.015802,0.015768,-0.014792,-0.054553,0.015393,0.014929,-0.019562,0.016913,0.015597,-0.011890,-0.011985,-0.011736,-0.011951,-0.011743,-0.011869,-0.011876,-0.011844,-0.011885,-0.011877,-0.011991,0.048216,0.049035,0.048127,-0.011741,-0.011944,-0.011914,-0.011991,0.048492,-0.011709,-0.011775,-0.011583,0.043252,-0.011907,0.045308,-0.011799,-0.011739,0.048034,0.048975,0.047685,-0.011604,-0.011984,-0.011868,0.051589,-0.011899,-0.011633,0.046339,-0.011776,-0.011949,-0.011603,-0.011871,-0.011823,-0.011865,-0.011971,-0.011906,-0.012115,-0.011758,-0.012012,0.050727,-0.011835,-0.011908,-0.011496,-0.011738,0.048835,-0.011757,-0.011724,-0.011861,-0.011907,-0.006766,-0.011899,-0.011854,0.041897,-0.012124,-0.011992,-0.029015,-0.026498,-0.027788,-0.028700,-0.028960,-0.028750,-0.028452,-0.028076,-0.028229,-0.027323,-0.029082,-0.070503,-0.071054,-0.071419,-0.028277,-0.028599,-0.028023,-0.028427,-0.069818,-0.027392,-0.027960,-0.027788,-0.065106,-0.029254,-0.067181,-0.029615,-0.027212,-0.068822,-0.069553,-0.068537,-0.025642,-0.027477,-0.028298,-0.073681,-0.029031,-0.028402,-0.069710,-0.028664,-0.027955,-0.028950,-0.027965,-0.028223,-0.027997,-0.028233,-0.027311,-0.028674,-0.028768,-0.028375,-0.072979,-0.029105,-0.027728,-0.026856,-0.028699,-0.069994,-0.028971,-0.028789,-0.028189,-0.028143,-0.029391,-0.028176,-0.028088,-0.063871,-0.020513,-0.028144
0.000098,0.000436,0.000124,0.000113,-0.000028,-0.000035,-0.000085,-0.000120,-0.000068,0.000034,0.000074,-0.002058,-0.004262,0.000843,-0.000437,0.000001,-0.000060,0.000091,-0.005514,-0.000039,-0.000012,-0.000065,-0.006798,0.000055,-0.003142,0.000005,-0.000388,-0.000910,-0.002446,0.002341,-0.000120,0.000004,-0.000061,-0.001137,0.000209,0.000016,-0.000529,-0.000171,0.000081,-0.000054,0.000006,0.000030,-0.000053,0.000114,0.000225,0.000027,-0.000080,0.000103,-0.002888,0.000070,-0.000040,-0.000304,-0.000149,-0.003684,-0.000109,-0.000079,-0.000186,-0.000229,-0.000244,0.000055,0.000023,-0.002660,0.000621,-0.000011,0.000017,-0.001080,-0.000247,0.000056,0.000359,0.000592,-0.000306,0.000712,0.000667,-0.000252,0.000143,-0.060488,0.008312,0.371040,-0.001134,0.000581,0.000513,0.000022,0.134968,-0.000101,-0.000339,0.000170,0.094233,-0.000135,0.106294,0.000327,-0.001282,-0.307222,-0.157709,-0.011020,0.000884,-0.000416,0.000302,0.381816,-0.000067,0.000262,-0.342781,-0.000565,-0.000095,-0.000616,0.000340,-0.000346,0.000426,-0.000034,0.000577,0.000176,-0.000438,-0.000065,-0.189053,-0.000289,0.000410,-0.001367,-0.000778,0.155907,0.000748,-0.000495,0.000923,-0.000536,-0.000126,0.000271,0.000189,0.143598,-0.001699,0.000385,0.000170,0.000829,-0.000111,0.000124,-0.000046,-0.000231,-0.000088,-0.000248,-0.000156,0.000397,0.000198,0.007263,0.013981,-0.005546,-0.000229,0.000025,0.000003,0.000084,0.015820,-0.000009,-0.000084,-0.000108,0.006544,-0.000232,0.003740,-0.000170,-0.000897,0.007401,0.005618,-0.002253,-0.000357,0.000150,0.000100,0.013383,0.000193,0.000115,-0.005554,-0.000170,0.000197,0.000044,0.000087,-0.000042,-0.000097,0.000306,0.000497,0.000179,-0.000083,0.000089,-0.000126,-0.000240,0.000022,-0.000779,-0.000238,0.007172,-0.000255,-0.000037,-0.000230,-0.000373,-0.000133,0.000039,0.000199,0.006811,0.001034,0.000019,0.002225,0.016191,0.000677,0.004253,-0.001254,-0.002027,0.001144,-0.005745,-0.002847,0.006557,0.002414,-0.002380,-0.003773,0.000632,-0.006971,-0.001933,-0.000832,0.003348,-0.005206,0.004129,-0.001430,0.005202,-0.007456,0.001508,-0.003518,0.000099,-0.009616,-0.000991,-0.003060,0.001708,-0.003713,0.001051,0.000371,-0.001361,0.005779,0.001450,-0.001031,-0.004842,0.003871,0.002074,-0.000087,0.001481,-0.002002,0.004393,0.009641,0.002536,-0.001497,0.002587,-0.002594,-0.000149,-0.000920,-0.011656,-0.002701,-0.002972,-0.002884,0.000102,-0.005567,-0.007251,-0.001683,0.000461,0.001734,-0.003056,0.024602,0.000307
0.002318,0.001452,0.002153,0.002243,0.002127,0.002434,0.002250,0.002125,0.002347,0.001971,0.002337,0.028032,0.031923,0.019741,0.002602,0.002478,0.002353,0.002039,0.023997,0.002264,0.001998,0.002034,0.022090,0.001945,0.027073,0.002209,0.002619,0.023008,0.026996,0.032055,0.002657,0.002455,0.002329,0.020649,0.002217,0.002240,0.019494,0.002210,0.002353,0.002330,0.002333,0.002291,0.001984,0.002211,0.001796,0.002229,0.002162,0.002254,0.025005,0.002119,0.002347,0.002535,0.002558,0.020299,0.002483,0.002462,0.002472,0.002567,0.001362,0.002293,0.001801,0.024674,0.000920,0.002315,0.004991,-0.003822,0.005371,-0.004869,-0.005098,-0.005337,0.005145,-0.004913,-0.005464,-0.005081,-0.005015,-0.456791,0.327038,-0.216935,0.005504,-0.005861,-0.005100,-0.005062,-0.204325,0.005634,0.004990,0.005137,0.057724,0.004983,0.377931,-0.005130,0.006388,0.077525,0.171508,-0.246696,-0.006765,0.005858,-0.004968,0.110733,-0.005429,-0.005324,0.204736,0.004447,0.005115,0.001827,-0.004953,0.005802,-0.004861,0.005249,0.004505,-0.005069,0.005416,0.004458,0.003977,0.004690,-0.005391,0.005928,0.006657,-0.069895,-0.005726,0.005746,-0.005550,0.005546,0.026847,-0.005141,-0.004265,-0.110405,-0.002790,-0.005339,0.004564,0.002809,0.003894,0.004454,0.003806,0.004609,0.004393,0.004167,0.004486,0.003629,0.004515,-0.041360,-0.049653,-0.004394,0.004760,0.004731,0.004601,0.003893,-0.015932,0.004290,0.004208,0.003919,-0.015150,0.003736,-0.033531,0.004377,0.004841,-0.016543,-0.029221,-0.042401,0.004930,0.004647,0.004370,-0.018089,0.003946,0.004137,-0.003720,0.004104,0.004399,0.004401,0.004373,0.004473,0.004327,0.004357,0.003153,0.004313,0.003958,0.004248,-0.009652,0.004171,0.004518,0.004639,0.004846,-0.026094,0.004618,0.004635,0.004677,0.004816,0.002124,0.004315,0.004028,-0.022653,0.002357,0.004515,0.014997,-0.003481,-0.000154,0.014400,0.002775,0.015146,0.010098,0.008360,0.012760,0.003958,0.014141,0.027683,0.031150,0.020260,0.017764,0.017001,0.013984,0.005174,0.024289,0.010337,0.010367,0.005072,0.022210,0.001608,0.026722,0.010506,0.023015,0.023588,0.026559,0.031953,0.025286,0.017853,0.010717,0.021559,0.008151,0.009478,0.020193,0.006222,0.012119,0.009860,0.013168,0.012811,0.011076,0.011232,0.000367,0.010240,0.005643,0.009037,0.025466,0.006059,0.014415,0.015094,0.022187,0.020695,0.015375,0.015321,0.017378,0.017862,0.012194,0.011577,0.006137,0.025296,-0.023041,0.013635
-0.001395,-0.001469,-0.001834,-0.001552,-0.001808,-0.001561,-0.001420,-0.001657,-0.001703,-0.001729,-0.001650,-0.013571,-0.012370,-0.015953,-0.001530,-0.001492,-0.001556,-0.001483,-0.017554,-0.001574,-0.001614,-0.001667,-0.021881,-0.001767,-0.012101,-0.001650,-0.001651,-0.015973,-0.019532,-0.012773,-0.001426,-0.001489,-0.001729,-0.019147,-0.001522,-0.001648,-0.019627,-0.001782,-0.001571,-0.001605,-0.001498,-0.001688,-0.001487,-0.001515,-0.001579,-0.001527,-0.001589,-0.001531,-0.018545,-0.001534,-0.001615,-0.001601,-0.001503,-0.023182,-0.001484,-0.001589,-0.001561,-0.001549,-0.001189,-0.001591,-0.002185,-0.017638,-0.001359,-0.001569,-0.003814,0.003848,-0.005246,0.004329,0.005208,0.004511,-0.004052,0.003848,0.004338,0.004779,0.004234,-0.225928,0.115149,0.051282,-0.003458,0.003955,0.004378,0.004289,0.059347,-0.004600,-0.003998,-0.004627,0.172523,-0.005136,0.219465,0.004553,-0.003513,-0.147004,-0.032927,-0.141201,0.003294,-0.003990,0.004230,0.243737,0.003467,0.003473,-0.053938,-0.004668,-0.004574,-0.002794,0.003886,-0.004072,0.003998,-0.004212,-0.004195,0.004628,-0.004460,-0.004538,0.032719,-0.004260,0.003869,-0.004739,-0.003707,-0.025241,0.004050,-0.004346,0.003994,-0.004122,-0.000461,0.003948,0.004292,0.061611,0.003824,0.004073,-0.002486,-0.002227,-0.002976,-0.002800,-0.003208,-0.002729,-0.002928,-0.002943,-0.002662,-0.002692,-0.002652,0.000356,-0.006450,0.006720,-0.002525,-0.002638,-0.002735,-0.002848,0.013201,-0.002524,-0.002264,-0.002762,0.024923,-0.002707,0.002452,-0.002615,-0.002445,0.009419,0.022491,0.002253,-0.002818,-0.002602,-0.002522,0.015704,-0.002404,-0.002776,0.004908,-0.002348,-0.002985,-0.002557,-0.003070,-0.002664,-0.003251,-0.002526,-0.002639,-0.002683,-0.002940,-0.002540,0.014679,-0.002319,-0.002569,-0.003207,-0.002606,0.014871,-0.003015,-0.002710,-0.002567,-0.003351,-0.001520,-0.002597,-0.002769,0.023228,-0.001944,-0.002492,-0.003594,-0.002904,-0.011082,-0.004618,-0.008934,-0.005934,-0.007192,-0.007700,-0.007535,-0.005503,-0.004545,-0.014113,-0.013817,-0.016946,-0.005526,-0.004234,-0.005555,-0.006554,-0.018325,-0.005176,-0.007032,-0.005437,-0.020643,-0.008363,-0.013026,-0.003515,-0.005452,-0.016703,-0.018403,-0.013423,-0.004484,-0.005968,-0.006629,-0.019623,-0.004920,-0.006977,-0.020220,-0.005559,-0.003795,-0.006719,-0.005953,-0.006671,-0.006692,-0.005338,-0.006432,-0.007434,-0.009269,-0.005282,-0.019322,-0.006304,-0.005453,-0.008752,-0.004144,-0.024224,-0.004214,-0.003936,-0.006390,-0.005695,-0.006003,-0.006831,-0.008338,-0.018331,-0.001523,-0.006154
-0.003421,-0.003373,-0.003414,-0.003316,-0.003689,-0.003122,-0.003163,-0.002817,-0.002918,-0.003362,-0.003095,-0.036865,-0.039017,-0.037623,-0.003234,-0.003342,-0.003528,-0.002789,-0.031418,-0.003677,-0.003203,-0.003543,-0.023162,-0.003758,-0.033545,-0.003875,-0.002964,-0.033842,-0.032015,-0.036156,-0.003059,-0.002957,-0.003385,-0.034669,-0.003522,-0.003568,-0.036301,-0.003303,-0.003307,-0.003340,-0.003635,-0.003417,-0.003260,-0.003610,-0.003231,-0.003830,-0.003416,-0.003405,-0.036123,-0.003252,-0.003365,-0.003242,-0.003535,-0.033387,-0.003728,-0.003882,-0.002896,-0.002824,-0.002366,-0.003424,-0.003170,-0.028576,-0.003470,-0.003567,-0.008577,0.008167,-0.008378,0.008173,0.008604,0.008062,-0.008608,0.007966,0.008053,0.008430,0.008251,0.263186,-0.166020,-0.203876,-0.007982,0.008466,0.008191,0.008694,-0.271496,-0.008502,-0.007989,-0.008366,-0.357514,-0.008815,-0.295725,0.008950,-0.007152,0.322367,0.278936,0.148478,0.006607,-0.007878,0.008565,-0.414851,0.008356,0.007809,0.202224,-0.008951,-0.008214,-0.009736,0.008185,-0.007986,0.008070,-0.008271,-0.007806,0.008357,-0.008057,-0.008508,-0.123204,-0.008782,0.008232,-0.007514,-0.007529,0.127325,0.008279,-0.008740,0.007854,-0.008052,-0.032170,0.007846,0.007953,-0.252438,0.008541,0.008063,-0.006551,-0.006491,-0.005938,-0.006280,-0.006116,-0.006194,-0.006348,-0.005937,-0.006088,-0.006309,-0.006284,0.037922,0.044029,0.034601,-0.006059,-0.006581,-0.006533,-0.006443,0.024779,-0.006233,-0.006084,-0.006392,0.005970,-0.006461,0.031638,-0.006570,-0.005893,0.021064,0.020212,0.036144,-0.005838,-0.005966,-0.006453,0.007566,-0.006665,-0.006061,0.033232,-0.006262,-0.006590,-0.006397,-0.006093,-0.006310,-0.006146,-0.006280,-0.006232,-0.006226,-0.005988,-0.006567,0.031380,-0.006479,-0.006157,-0.005779,-0.006142,0.033043,-0.006338,-0.006502,-0.005954,-0.006188,-0.003398,-0.006224,-0.005985,0.016565,-0.006638,-0.005911,-0.018411,-0.024906,-0.008342,-0.015212,-0.012601,-0.011990,-0.014592,-0.010648,-0.010835,-0.016808,-0.016400,-0.037311,-0.039548,-0.038118,-0.011231,-0.014877,-0.016131,-0.016322,-0.032857,-0.014291,-0.013412,-0.016448,-0.024803,-0.014336,-0.033920,-0.020326,-0.009470,-0.034983,-0.032695,-0.037344,-0.007573,-0.009416,-0.016312,-0.036410,-0.018697,-0.015643,-0.036643,-0.016583,-0.019433,-0.015018,-0.014853,-0.014949,-0.013217,-0.018221,-0.017579,-0.013907,-0.008896,-0.017510,-0.037681,-0.016475,-0.015214,-0.003911,-0.013575,-0.033977,-0.015874,-0.017913,-0.009194,-0.009966,-0.014127,-0.015022,-0.014838,-0.029638,-0.033911,-0.014699
0.003941,0.003877,0.004121,0.003933,0.004023,0.003747,0.003704,0.003361,0.003471,0.004109,0.003733,0.035789,0.039766,0.042796,0.003278,0.003864,0.003567,0.003663,0.036338,0.004145,0.003647,0.003815,0.034079,0.003709,0.032692,0.003639,0.003941,0.039121,0.039245,0.039269,0.003574,0.003708,0.003716,0.037303,0.003971,0.003846,0.041880,0.003465,0.003545,0.003748,0.003615,0.003663,0.003553,0.003745,0.003883,0.003691,0.003775,0.003648,0.038414,0.003645,0.003458,0.003610,0.003686,0.035992,0.003606,0.003838,0.003321,0.003530,0.002202,0.003558,0.003782,0.035449,0.003810,0.003491,0.010866,0.001913,0.010872,-0.010778,-0.012035,-0.011712,0.010639,-0.008858,-0.010641,-0.012600,-0.010314,-0.017184,0.121278,0.186928,0.008177,-0.012932,-0.010117,-0.010838,-0.089214,0.013311,0.009777,0.016405,-0.036263,0.010569,0.026260,-0.014335,0.024284,-0.063480,-0.122949,0.169878,-0.002293,0.010128,-0.011070,0.147587,-0.001322,-0.009641,-0.151333,0.010351,0.010278,0.013889,-0.010051,0.008589,-0.009459,0.010287,0.011446,-0.010361,0.010127,0.010348,-0.254161,0.010681,-0.009566,0.015100,0.008258,0.095622,-0.013158,0.008025,-0.009185,0.009692,0.014911,-0.007298,-0.010160,0.100994,-0.018886,-0.009338,0.007528,0.007240,0.007767,0.007445,0.007435,0.007201,0.007121,0.006398,0.006877,0.007569,0.007176,-0.022264,-0.034714,-0.032213,0.006619,0.007304,0.006714,0.007023,-0.029061,0.007724,0.006836,0.007232,-0.029692,0.007070,-0.020829,0.007293,0.007520,-0.027171,-0.021779,-0.015511,0.007075,0.007172,0.007203,-0.019044,0.007407,0.007321,-0.031279,0.006320,0.007068,0.007355,0.007044,0.007197,0.006683,0.006977,0.007214,0.007153,0.007151,0.006807,-0.016010,0.006994,0.006676,0.007153,0.007180,-0.024691,0.007192,0.007350,0.006389,0.006499,0.003523,0.006908,0.007067,-0.019269,0.007027,0.006692,0.020727,0.027730,0.013697,0.022008,0.013835,0.014279,0.017813,0.013621,0.015024,0.027832,0.017976,0.037244,0.041727,0.043831,0.009744,0.016594,0.014356,0.018599,0.037436,0.025618,0.017002,0.024807,0.035066,0.019058,0.034155,0.014908,0.008199,0.040581,0.042331,0.041916,0.013350,0.020395,0.017657,0.039296,0.021101,0.018245,0.042642,0.012474,0.016211,0.017553,0.016210,0.018747,0.016036,0.018026,0.021372,0.018424,0.017785,0.017797,0.040003,0.013917,0.014988,0.013408,0.015189,0.037837,0.013616,0.019282,0.011981,0.013892,0.017902,0.016285,0.018654,0.037594,0.033135,0.015095
-0.006261,-0.006084,-0.006319,-0.006237,-0.006317,-0.006246,-0.006343,-0.006116,-0.006215,-0.006204,-0.006252,-0.068206,-0.067738,-0.069488,-0.006239,-0.006326,-0.006238,-0.006259,-0.067365,-0.006274,-0.006093,-0.006292,-0.062812,-0.006344,-0.065039,-0.006268,-0.006064,-0.066862,-0.067843,-0.064395,-0.006048,-0.006215,-0.006318,-0.070053,-0.006329,-0.006190,-0.067956,-0.006242,-0.006149,-0.006350,-0.006148,-0.006288,-0.006096,-0.006319,-0.006085,-0.006329,-0.006201,-0.006300,-0.069898,-0.006327,-0.006266,-0.006244,-0.006268,-0.067612,-0.006279,-0.006342,-0.006137,-0.006459,-0.003949,-0.006151,-0.006099,-0.061845,-0.006338,-0.006175,-0.015549,0.015340,-0.015691,0.015464,0.016044,0.015753,-0.015378,0.014736,0.015400,0.016283,0.014656,-0.029359,0.000512,-0.010988,-0.015778,0.015794,0.015373,0.015058,-0.000387,-0.015903,-0.015107,-0.016241,-0.011460,-0.016360,0.025164,0.016649,-0.014792,-0.020598,0.034569,-0.003724,0.014379,-0.015346,0.015987,0.031873,0.016205,0.015772,0.014307,-0.016249,-0.015930,-0.015209,0.014896,-0.015834,0.015255,-0.014914,-0.015792,0.015427,-0.016198,-0.015586,-0.004365,-0.015905,0.015437,-0.016177,-0.015472,0.019086,0.016029,-0.015818,0.015727,-0.014708,-0.052590,0.015385,0.015004,-0.020143,0.016007,0.015561,-0.011896,-0.011934,-0.011740,-0.011959,-0.011746,-0.011876,-0.011884,-0.011853,-0.011894,-0.011897,-0.012001,0.048015,0.048922,0.047926,-0.011752,-0.011969,-0.011896,-0.012013,0.048470,-0.011710,-0.011758,-0.011598,0.043090,-0.011918,0.045186,-0.011839,-0.011754,0.047742,0.048800,0.047524,-0.011597,-0.012000,-0.011877,0.051372,-0.011924,-0.011643,0.046140,-0.011797,-0.011947,-0.011580,-0.011876,-0.011830,-0.011860,-0.011953,-0.011918,-0.012124,-0.011775,-0.012007,0.050515,-0.011841,-0.011903,-0.011495,-0.011760,0.048656,-0.011761,-0.011785,-0.011882,-0.011878,-0.006741,-0.011886,-0.011840,0.041899,-0.012125,-0.011990,-0.029095,-0.026419,-0.027819,-0.028770,-0.028984,-0.028643,-0.028431,-0.027902,-0.028144,-0.027289,-0.029041,-0.070606,-0.071379,-0.071480,-0.028265,-0.028373,-0.028010,-0.028198,-0.069879,-0.027484,-0.027978,-0.027816,-0.065189,-0.029210,-0.067276,-0.029625,-0.027264,-0.068777,-0.069856,-0.067514,-0.025852,-0.027683,-0.028266,-0.072255,-0.029000,-0.028331,-0.069665,-0.028725,-0.027848,-0.028957,-0.028074,-0.028247,-0.028014,-0.028377,-0.027280,-0.028684,-0.028721,-0.028198,-0.072875,-0.029042,-0.027784,-0.026958,-0.028845,-0.070146,-0.028934,-0.028967,-0.028111,-0.028012,-0.029270,-0.028231,-0.028161,-0.063980,-0.021488,-0.028182
-0.001662,-0.001432,-0.001171,-0.001498,-0.001269,-0.001419,-0.001496,-0.001658,-0.001507,-0.001685,-0.001337,-0.021449,-0.026976,-0.017190,-0.001529,-0.001632,-0.001387,-0.001354,-0.023669,-0.001591,-0.001556,-0.001523,-0.021493,-0.001521,-0.020777,-0.001495,-0.001450,-0.018495,-0.018714,-0.008163,-0.001413,-0.001466,-0.001554,-0.017169,-0.001313,-0.001471,-0.018433,-0.001577,-0.001276,-0.001381,-0.001548,-0.001482,-0.001521,-0.001222,-0.001333,-0.001436,-0.001539,-0.001356,-0.018331,-0.001372,-0.001487,-0.001907,-0.001587,-0.019463,-0.001549,-0.001654,-0.001459,-0.001735,-0.000921,-0.001440,-0.001530,-0.018155,-0.001788,-0.001332,-0.004353,-0.000173,-0.003237,0.004096,0.004432,0.003794,-0.003342,0.004163,0.003399,0.005818,0.003093,-0.054931,-0.233629,0.150270,-0.006410,0.003095,0.003257,0.003745,0.212769,-0.004670,-0.003906,-0.000751,-0.020152,-0.004930,0.090933,0.003299,0.002832,-0.339925,0.181783,-0.256123,0.007570,-0.003894,0.003973,0.306895,0.003636,0.003581,-0.181528,-0.004486,-0.002345,-0.004658,0.003537,-0.001836,0.003907,-0.002808,0.001952,0.003184,-0.008354,-0.003536,0.111655,-0.003335,0.003583,-0.002859,-0.010566,0.260697,0.002177,-0.001086,0.002287,-0.004254,-0.020953,0.003617,0.003573,-0.102709,-0.009433,0.003224,-0.003365,-0.003450,-0.002261,-0.003084,-0.002485,-0.002779,-0.003022,-0.003431,-0.003045,-0.003520,-0.002881,0.014774,0.049619,-0.003497,-0.003072,-0.003247,-0.002851,-0.002928,0.030371,-0.003222,-0.003097,-0.003215,0.018009,-0.003128,0.015685,-0.002906,-0.002807,0.008153,-0.000466,-0.019511,-0.002891,-0.003072,-0.003114,0.015163,-0.002752,-0.002915,-0.005089,-0.003274,-0.002600,-0.002590,-0.003045,-0.002948,-0.003155,-0.002730,-0.003028,-0.002968,-0.003086,-0.002814,0.011944,-0.002702,-0.003091,-0.003650,-0.003140,0.019050,-0.003026,-0.003330,-0.003090,-0.003628,-0.001841,-0.003046,-0.003029,0.002211,-0.004002,-0.002828,-0.011468,0.007161,0.003264,-0.004499,-0.003386,-0.004597,-0.007447,-0.012528,-0.007570,-0.011418,-0.002047,-0.022371,-0.026553,-0.018149,-0.008196,-0.010864,-0.004390,-0.004407,-0.024163,-0.013102,-0.008717,-0.010344,-0.021612,-0.006801,-0.021985,-0.007523,-0.011467,-0.018684,-0.018974,-0.010156,-0.003339,-0.005280,-0.008391,-0.017417,-0.002484,-0.007375,-0.019561,-0.012825,0.000387,-0.006135,-0.006301,-0.005947,-0.008320,-0.000474,0.008420,-0.004043,-0.008048,-0.004782,-0.019522,-0.003607,-0.006298,-0.023146,-0.008937,-0.019483,-0.009336,-0.014594,-0.006457,-0.016119,-0.007332,-0.005611,-0.007810,-0.018609,0.013950,-0.002518
0.001389,0.001360,0.001564,0.001589,0.001637,0.001619,0.001549,0.001495,0.001663,0.001532,0.001670,0.014823,0.013383,0.016782,0.001597,0.001406,0.001056,0.001482,0.017789,0.001422,0.001192,0.001530,0.017972,0.001543,0.013559,0.001378,0.001570,0.019139,0.017278,0.014001,0.001691,0.001443,0.001459,0.018802,0.001358,0.001428,0.016516,0.001574,0.001472,0.001381,0.001696,0.001533,0.001537,0.001299,0.001590,0.001625,0.001711,0.001389,0.012181,0.001448,0.001501,0.001735,0.001777,0.012549,0.001449,0.001409,0.001590,0.001984,0.001050,0.001590,0.001558,0.016509,0.001186,0.001399,0.003481,-0.003371,0.003634,-0.003646,-0.003510,-0.003698,0.003453,-0.003804,-0.003736,-0.003497,-0.003671,0.235234,-0.122953,-0.133295,0.003746,-0.003529,-0.003493,-0.003439,-0.105115,0.003423,0.003610,0.003502,-0.179978,0.003420,-0.234206,-0.003534,0.003705,0.234540,0.084572,0.158420,-0.003854,0.003741,-0.003442,-0.356716,-0.003518,-0.003529,0.134218,0.003398,0.003465,0.003200,-0.003644,0.003783,-0.003616,0.003478,0.003787,-0.003780,0.003879,0.003412,-0.039066,0.003315,-0.003505,0.003935,0.003647,0.008648,-0.003443,0.003363,-0.003890,0.003907,0.005089,-0.003621,-0.003721,-0.119495,-0.003586,-0.003760,0.003121,0.002605,0.002880,0.003142,0.003077,0.003128,0.002936,0.003127,0.003132,0.002967,0.002848,-0.009868,-0.006436,0.007400,0.003145,0.003050,0.002845,0.002797,-0.017677,0.002989,0.002979,0.003026,-0.029132,0.003140,-0.011206,0.002910,0.002989,-0.011927,-0.007433,-0.001251,0.003298,0.003278,0.002901,-0.016412,0.002665,0.002867,0.007860,0.002545,0.002760,0.002620,0.003074,0.003055,0.003167,0.002512,0.002983,0.003188,0.003352,0.002868,-0.001633,0.002932,0.002864,0.003519,0.002894,0.002054,0.002787,0.003254,0.003242,0.003101,0.001850,0.003032,0.003077,-0.006680,0.002822,0.003078,0.003656,0.002008,0.012258,0.007325,0.008305,0.008291,0.007025,0.008372,0.009515,0.007503,0.006192,0.016011,0.013824,0.017482,0.008045,0.005614,0.005458,0.005711,0.018969,0.008144,0.008461,0.006688,0.017701,0.007719,0.014990,0.001821,0.008625,0.019218,0.018156,0.014792,0.011920,0.011745,0.005993,0.019209,0.004702,0.006571,0.017196,0.004176,0.003527,0.006000,0.006551,0.007483,0.007842,0.005117,0.007527,0.008830,0.011109,0.004798,0.013461,0.005055,0.005271,0.012636,0.007157,0.014166,0.004690,0.004084,0.010095,0.008205,0.008268,0.006723,0.008296,0.017667,-0.002943,0.006924
-0.001041,-0.001043,-0.000971,-0.000839,-0.001116,-0.000826,-0.000977,-0.001170,-0.000896,-0.001274,-0.000986,-0.012701,-0.014617,-0.011573,-0.000867,-0.000932,-0.000992,-0.000965,-0.014644,-0.001242,-0.000956,-0.001264,-0.015710,-0.001168,-0.009979,-0.000902,-0.001090,-0.009426,-0.013587,-0.003329,-0.000696,-0.000771,-0.000981,-0.012767,-0.001096,-0.001170,-0.014276,-0.001128,-0.000865,-0.001176,-0.000887,-0.001036,-0.000750,-0.001112,-0.000988,-0.000851,-0.001199,-0.000977,-0.012462,-0.000854,-0.001038,-0.001159,-0.000882,-0.018110,-0.001147,-0.001124,-0.000776,-0.000847,-0.000777,-0.001039,-0.000874,-0.010522,-0.000896,-0.001007,-0.003243,0.002765,-0.002802,0.002746,0.002947,0.002584,-0.002947,0.002945,0.002562,0.002992,0.002678,-0.314684,-0.011803,-0.012669,-0.002527,0.002604,0.002625,0.002794,0.126347,-0.002570,-0.002874,-0.002831,0.108041,-0.003022,0.293187,0.003147,-0.002123,-0.229477,0.200565,-0.345561,0.001239,-0.002115,0.003100,0.300273,0.002331,0.002506,-0.011937,-0.003349,-0.002531,-0.002243,0.002803,-0.002284,0.002874,-0.002522,-0.002507,0.002796,-0.002608,-0.003069,0.123044,-0.003070,0.002381,-0.003133,-0.001780,0.114859,0.002480,-0.003005,0.002374,-0.002797,-0.000575,0.002716,0.003302,-0.126102,0.003205,0.002272,-0.001790,-0.001440,-0.001879,-0.001940,-0.002028,-0.001628,-0.001604,-0.002117,-0.001624,-0.002019,-0.001644,-0.001030,0.005363,0.008326,-0.001304,-0.001641,-0.001212,-0.001998,0.006610,-0.002248,-0.001808,-0.001944,0.016529,-0.001992,0.001649,-0.001618,-0.001692,0.005261,0.001945,-0.027502,-0.001708,-0.001629,-0.001803,0.018573,-0.001572,-0.002022,0.006501,-0.002148,-0.001371,-0.001750,-0.001796,-0.001962,-0.001756,-0.001488,-0.001676,-0.001810,-0.002141,-0.001818,0.003144,-0.001607,-0.001632,-0.002294,-0.001578,0.011934,-0.002103,-0.002002,-0.001520,-0.001804,-0.000928,-0.001722,-0.002053,0.002369,-0.001246,-0.001807,-0.004358,-0.000408,-0.002615,-0.001076,-0.004020,-0.000821,-0.004162,-0.007415,-0.003654,-0.008208,0.000668,-0.012378,-0.016414,-0.011982,-0.000858,-0.003359,-0.001488,-0.003940,-0.015382,-0.007080,-0.004603,-0.007612,-0.015770,-0.006569,-0.010801,-0.003166,-0.000792,-0.009787,-0.013765,-0.005274,0.004346,-0.000129,-0.004542,-0.012439,-0.001617,-0.004856,-0.014686,-0.007776,0.000921,-0.003348,-0.002422,-0.002291,-0.004215,0.000841,0.001640,-0.002491,-0.006046,-0.003214,-0.013315,-0.002481,-0.002453,-0.010766,-0.000424,-0.018262,-0.002372,-0.005766,-0.000815,-0.006071,-0.003013,-0.002454,-0.006356,-0.010959,-0.000356,-0.000172
-0.000457,-0.000514,-0.000212,-0.000375,-0.000241,-0.000286,-0.000280,-0.000108,-0.000294,-0.000327,-0.000339,-0.005078,-0.003565,-0.002270,-0.000243,-0.000353,-0.000350,-0.000441,0.001560,-0.000430,-0.000161,-0.000341,0.004577,-0.000262,-0.003456,-0.000496,-0.000155,-0.002590,0.001053,-0.003334,-0.000182,-0.000246,-0.000370,-0.002575,-0.000356,-0.000275,-0.002590,-0.000199,-0.000311,-0.000397,-0.000343,-0.000300,-0.000341,-0.000251,-0.000423,-0.000412,-0.000185,-0.000306,-0.000035,-0.000306,-0.000362,-0.000155,-0.000297,-0.000427,-0.000252,-0.000450,-0.000214,0.000036,-0.000315,-0.000380,-0.000160,0.001033,-0.000517,-0.000343,-0.000902,0.000381,-0.000790,0.000691,0.000740,0.000623,-0.000673,0.000617,0.000578,0.000411,0.001059,0.104026,0.046185,-0.191509,-0.000686,0.000665,0.000854,0.000931,-0.253730,-0.000403,-0.000682,-0.000380,-0.199810,-0.000682,-0.147890,0.000871,-0.000899,0.286758,0.090815,0.139486,0.000545,-0.000351,0.000667,-0.332515,0.000666,0.000603,0.188312,-0.000749,-0.000912,-0.000854,0.000845,-0.000584,0.000666,-0.001050,-0.000380,0.000770,-0.000201,-0.000931,-0.132807,-0.000870,0.000746,-0.000209,-0.000722,-0.031571,0.000897,-0.000770,0.000465,-0.000868,-0.000177,0.000652,0.000747,-0.094591,0.000152,0.000660,-0.000754,-0.001047,-0.000242,-0.000738,-0.000332,-0.000398,-0.000484,-0.000446,-0.000420,-0.000693,-0.000792,0.013846,-0.001530,0.014775,-0.000238,-0.000625,-0.000312,-0.000639,-0.010526,-0.000548,-0.000256,-0.000679,-0.012459,-0.000473,0.014036,-0.000619,-0.000161,0.001567,-0.009723,0.008648,-0.000354,-0.000588,-0.000512,0.003290,-0.000667,-0.000504,0.012808,-0.000403,-0.000833,-0.000514,-0.000674,-0.000526,-0.000675,-0.000709,-0.000795,-0.000565,-0.000309,-0.000845,-0.001976,-0.000504,-0.000600,0.000009,-0.000397,-0.002974,-0.000414,-0.000615,-0.000438,-0.000257,-0.000339,-0.000698,-0.000421,-0.012542,-0.000987,-0.000586,-0.003687,-0.012388,0.000957,-0.003723,0.000205,-0.000067,-0.001627,0.002274,0.001053,-0.005199,-0.003437,-0.005047,-0.003713,-0.002075,0.002188,-0.001163,-0.002328,-0.003223,0.000736,-0.003142,-0.000582,-0.004385,0.003806,-0.001425,-0.003699,-0.003247,0.004256,-0.003029,0.000975,-0.003555,0.001458,-0.000804,-0.001934,-0.002722,-0.005008,-0.002067,-0.002239,0.000260,-0.004682,-0.002498,-0.002225,-0.002153,-0.001417,-0.004585,-0.006473,-0.001675,0.001128,-0.003318,-0.001039,-0.001778,-0.002079,0.007093,-0.000245,-0.000760,-0.000766,-0.002337,0.002083,0.002598,-0.000821,-0.002588,-0.001783,0.000657,-0.018475,-0.001821
0.002054,0.001680,0.002387,0.002099,0.002341,0.002390,0.002149,0.001965,0.002217,0.001724,0.002098,0.026366,0.021614,0.021637,0.002259,0.002304,0.002337,0.002120,0.023760,0.001849,0.002137,0.001942,0.020399,0.002244,0.026277,0.002347,0.002442,0.020410,0.026395,0.027189,0.002244,0.002119,0.002027,0.027333,0.002124,0.002160,0.020006,0.002238,0.002035,0.002124,0.002081,0.001997,0.002249,0.002338,0.001963,0.002612,0.002163,0.002055,0.027067,0.002392,0.002199,0.002314,0.002270,0.025419,0.002322,0.002137,0.002209,0.002148,0.001529,0.002130,0.002030,0.020762,0.001679,0.002213,0.004957,-0.005375,0.006361,-0.005034,-0.006283,-0.005613,0.005649,-0.005492,-0.005802,-0.005508,-0.005456,-0.162475,-0.144350,-0.199933,0.005845,-0.005766,-0.005559,-0.005622,0.124434,0.005116,0.005420,0.005580,0.036450,0.006512,0.123569,-0.005451,0.006531,-0.101142,0.249570,-0.381659,-0.005654,0.005262,-0.005349,0.054559,-0.006160,-0.005891,0.136164,0.005742,0.005404,0.006095,-0.005495,0.005787,-0.005373,0.005673,0.005628,-0.005558,0.006124,0.005398,0.361129,0.005645,-0.005604,0.005814,0.006242,0.030309,-0.006046,0.005616,-0.005718,0.005569,0.031492,-0.005588,-0.005186,-0.177611,-0.005962,-0.005575,0.003759,0.003463,0.004241,0.003835,0.004294,0.004387,0.004042,0.004028,0.004196,0.003331,0.004233,-0.028224,-0.000388,0.001889,0.004549,0.004075,0.004219,0.003963,-0.010794,0.003454,0.003765,0.003432,-0.016838,0.003989,-0.025390,0.004141,0.004315,-0.009072,-0.024208,-0.047602,0.004362,0.003987,0.003977,-0.015682,0.003830,0.003866,0.001274,0.004098,0.004201,0.004057,0.004035,0.003993,0.003829,0.004008,0.003970,0.003936,0.004029,0.004031,-0.025222,0.004285,0.004105,0.003966,0.004160,-0.022053,0.004273,0.003839,0.004403,0.004166,0.002246,0.004032,0.003577,-0.021788,0.003236,0.004244,0.004094,0.000901,0.012596,0.005123,0.013298,0.013273,0.007563,0.010122,0.010919,-0.004537,0.010942,0.026804,0.022632,0.022974,0.016682,0.008269,0.012192,0.007728,0.024294,-0.003127,0.007815,-0.001848,0.020806,0.006896,0.026755,0.011941,0.017951,0.021395,0.026372,0.026935,0.013230,0.005472,0.007644,0.028439,0.006061,0.007140,0.021481,0.012162,0.012232,0.007987,0.009856,0.007770,0.008737,0.010514,0.008182,0.009335,0.007944,0.008261,0.026790,0.013467,0.011169,0.006490,0.011328,0.025709,0.012087,0.004274,0.014750,0.009027,0.010817,0.009801,0.006496,0.020838,-0.005101,0.013130
0.000578,0.000518,0.000697,0.000489,0.000862,0.000757,0.000660,0.000785,0.000851,0.000484,0.000757,0.011425,0.009422,0.007195,0.000887,0.000671,0.000896,0.000697,0.008711,0.000381,0.000884,0.000496,0.004855,0.000710,0.011814,0.000951,0.000807,0.006652,0.009358,0.009280,0.000537,0.000521,0.000696,0.011062,0.000599,0.000639,0.006963,0.000904,0.000818,0.000591,0.000692,0.000596,0.000777,0.000627,0.000612,0.000628,0.000636,0.000776,0.010115,0.000863,0.000857,0.000788,0.000654,0.012898,0.000770,0.000797,0.000740,0.001005,0.000609,0.000667,0.000571,0.007206,0.000626,0.000690,0.001522,-0.001854,0.001331,-0.001180,-0.001700,-0.001278,0.001652,-0.002152,-0.001846,-0.001463,-0.001378,-0.052665,-0.001217,-0.126364,0.001533,-0.001396,-0.001816,-0.001561,0.180986,0.001165,0.001730,0.001730,0.226276,0.001974,0.042114,-0.001385,0.001118,0.050512,-0.125931,-0.118964,-0.000755,0.001230,-0.001331,-0.083708,-0.001571,-0.001233,0.122780,0.001937,0.001320,0.001161,-0.001809,0.000801,-0.001793,0.001599,0.001724,-0.001601,0.001686,0.001698,0.314267,0.001914,-0.001658,0.001386,0.001271,-0.249871,-0.001306,0.001567,-0.001539,0.002065,0.008525,-0.001476,-0.001723,0.103741,-0.002502,-0.001643,0.001249,0.001177,0.001224,0.001055,0.001499,0.001365,0.001247,0.001594,0.001327,0.000971,0.001171,-0.008617,-0.004119,0.002983,0.001699,0.001364,0.001767,0.001328,-0.002131,0.000889,0.001314,0.001039,0.006596,0.001472,-0.007204,0.001828,0.001827,-0.002936,-0.005440,-0.018914,0.001069,0.001012,0.001306,-0.003018,0.001238,0.001233,0.003580,0.001679,0.001406,0.001276,0.001355,0.001155,0.001376,0.001683,0.001140,0.001213,0.001341,0.001623,-0.022949,0.001623,0.001400,0.001492,0.001303,-0.016827,0.001560,0.001443,0.001425,0.001592,0.000882,0.001317,0.001596,-0.004873,0.001715,0.001379,0.000681,-0.003512,0.002651,-0.003598,0.006429,0.003657,0.001657,0.006090,0.002809,-0.006118,0.001574,0.011557,0.010093,0.007839,0.008330,0.003088,0.004698,0.002384,0.009523,-0.006499,0.002649,-0.003868,0.005954,0.002609,0.012165,0.008523,0.009211,0.007215,0.009233,0.008568,-0.001769,-0.005984,0.002704,0.010737,-0.000212,0.001689,0.007585,0.011030,0.004221,0.002016,0.002854,-0.000150,0.003104,0.001879,-0.001924,0.000223,0.000766,0.003132,0.010145,0.007699,0.004062,0.003470,0.002670,0.012175,0.007182,0.001981,0.004579,0.004708,0.004169,0.002987,0.001557,0.007136,-0.001613,0.003369
0.006556,0.006638,0.006762,0.006509,0.006774,0.006542,0.006505,0.006243,0.006349,0.006715,0.006347,0.068954,0.070738,0.072199,0.006349,0.006570,0.006311,0.006332,0.069793,0.006617,0.006187,0.006569,0.065185,0.006670,0.066363,0.006661,0.006588,0.067937,0.071010,0.068316,0.006288,0.006458,0.006487,0.071827,0.006649,0.006506,0.070638,0.006303,0.006453,0.006569,0.006391,0.006324,0.006194,0.006356,0.006614,0.006437,0.006564,0.006326,0.073408,0.006615,0.006269,0.006547,0.006513,0.069377,0.006501,0.006592,0.006278,0.006215,0.004153,0.006337,0.006254,0.063270,0.006989,0.006298,0.013823,-0.033205,0.013885,-0.015047,-0.018651,-0.015927,0.017369,-0.016311,-0.017329,-0.014888,-0.016014,0.028539,0.003860,0.024638,0.020069,-0.020298,-0.016649,-0.018589,0.023372,0.015797,0.015561,0.009808,0.009145,0.017198,-0.025429,-0.012796,0.019603,0.037574,-0.048058,-0.019219,-0.031237,0.016376,-0.015002,0.027440,0.000801,-0.026425,0.011619,0.017658,0.017553,0.014434,-0.016039,0.014182,-0.015056,0.016480,0.003737,-0.016587,0.014474,0.016616,-0.041809,0.015468,-0.016819,0.012694,0.002496,-0.001841,-0.012671,0.022916,-0.016173,0.016790,0.093511,-0.021580,-0.016211,0.029148,-0.010907,-0.015346,0.012338,0.012717,0.012523,0.012346,0.012435,0.012362,0.012230,0.012155,0.012250,0.012505,0.012352,-0.049415,-0.050692,-0.050133,0.012268,0.012299,0.012012,0.012220,-0.054962,0.012252,0.011926,0.012391,-0.046283,0.012556,-0.047299,0.012503,0.012390,-0.049019,-0.051750,-0.049181,0.012130,0.012251,0.012257,-0.052288,0.012410,0.012132,-0.047616,0.012200,0.012319,0.012203,0.012125,0.012162,0.012041,0.012330,0.012628,0.012389,0.012314,0.012169,-0.053476,0.012339,0.012075,0.012277,0.012309,-0.051652,0.012361,0.012258,0.012150,0.012165,0.006893,0.012065,0.012015,-0.043729,0.013568,0.012190,0.027934,0.025400,0.027178,0.027635,0.028392,0.028119,0.028427,0.028109,0.028351,0.026230,0.028293,0.071555,0.074111,0.073998,0.027693,0.028061,0.028591,0.028651,0.072761,0.026588,0.028314,0.027442,0.067842,0.029107,0.068743,0.028964,0.027023,0.070019,0.074129,0.071095,0.024937,0.026639,0.028711,0.074571,0.028417,0.028123,0.072149,0.028115,0.028403,0.028590,0.027725,0.028465,0.028517,0.028826,0.026788,0.029032,0.028311,0.028875,0.076525,0.028526,0.028268,0.026451,0.027556,0.071904,0.028477,0.027956,0.027548,0.027864,0.029553,0.028174,0.028594,0.065579,0.012972,0.028624
-0.001965,-0.002109,-0.002061,-0.001600,-0.002119,-0.001698,-0.001819,-0.001879,-0.001651,-0.002430,-0.001707,-0.022329,-0.027007,-0.023367,-0.001479,-0.001932,-0.001938,-0.002147,-0.022491,-0.002298,-0.001371,-0.002324,-0.017895,-0.002356,-0.020737,-0.001754,-0.001580,-0.021003,-0.019958,-0.013068,-0.001395,-0.001486,-0.002153,-0.021828,-0.002068,-0.002150,-0.022873,-0.001829,-0.001749,-0.002129,-0.001732,-0.001833,-0.001891,-0.001996,-0.001983,-0.002144,-0.001913,-0.002151,-0.023842,-0.001662,-0.001974,-0.002043,-0.001874,-0.026893,-0.002015,-0.002203,-0.001485,-0.002154,-0.001283,-0.001843,-0.001464,-0.018740,-0.002244,-0.001669,-0.004994,0.004634,-0.005147,0.004400,0.004962,0.004223,-0.004931,0.004750,0.004358,0.005329,0.004360,-0.225690,-0.203957,-0.405260,-0.003981,0.004596,0.004531,0.004934,-0.020173,-0.005177,-0.004612,-0.005296,-0.127749,-0.005291,0.136270,0.005003,-0.003884,0.008133,0.510700,-0.469641,0.002924,-0.004032,0.005010,-0.030509,0.004914,0.004877,0.320305,-0.005515,-0.004345,-0.005536,0.004494,-0.004390,0.004538,-0.004574,-0.004189,0.004642,-0.004696,-0.005041,0.364421,-0.004934,0.004395,-0.004708,-0.004010,0.124858,0.004629,-0.004993,0.003877,-0.004532,-0.004136,0.004426,0.005066,-0.401717,0.004785,0.004158,-0.004113,-0.004102,-0.003873,-0.003644,-0.003863,-0.003354,-0.003766,-0.003608,-0.003232,-0.004118,-0.003561,0.018340,0.034252,0.034634,-0.003310,-0.003781,-0.003615,-0.004027,0.011261,-0.003968,-0.003663,-0.004243,0.010927,-0.004180,0.021042,-0.004301,-0.002881,0.018152,0.006152,-0.024996,-0.002526,-0.003211,-0.003673,0.018979,-0.003888,-0.003847,0.032917,-0.004122,-0.003290,-0.003809,-0.003651,-0.003576,-0.003435,-0.003546,-0.003611,-0.003643,-0.003667,-0.003726,0.001002,-0.003963,-0.003424,-0.003673,-0.003105,0.029400,-0.003719,-0.004052,-0.002864,-0.003511,-0.001715,-0.003541,-0.003841,0.006146,-0.004352,-0.003203,-0.013257,-0.023102,-0.004592,-0.006618,-0.009621,-0.000275,-0.009386,-0.008332,-0.003093,-0.022306,-0.004139,-0.022670,-0.026957,-0.023604,0.001746,-0.006685,-0.005641,-0.012711,-0.023353,-0.015239,-0.009175,-0.020211,-0.018973,-0.016226,-0.020799,-0.013746,0.005573,-0.021856,-0.020664,-0.014978,0.014721,0.002437,-0.010885,-0.022956,-0.012726,-0.010921,-0.023540,-0.016801,-0.006112,-0.008684,-0.006489,-0.006818,-0.007978,-0.006548,-0.009490,-0.006089,-0.008137,-0.011216,-0.024818,-0.009968,-0.005810,-0.006251,0.000642,-0.027301,-0.006310,-0.013999,0.003166,-0.004366,-0.007967,-0.006691,-0.012746,-0.019488,-0.042746,-0.002627
0.001289,0.001451,0.001649,0.001413,0.001419,0.001456,0.001525,0.001541,0.001645,0.001623,0.001546,0.011894,0.014299,0.014511,0.001429,0.001200,0.001201,0.001510,0.014801,0.001547,0.001188,0.001487,0.016918,0.001452,0.012402,0.001413,0.001210,0.013423,0.014763,0.009037,0.001393,0.001428,0.001243,0.015399,0.001485,0.001490,0.016477,0.001449,0.001563,0.001424,0.000990,0.001215,0.001572,0.001175,0.001414,0.001274,0.001584,0.001604,0.015488,0.001541,0.001375,0.001297,0.001306,0.019138,0.001465,0.001290,0.001363,0.001093,0.001055,0.001163,0.001447,0.012672,0.001085,0.001439,0.003519,-0.003468,0.003716,-0.003601,-0.003656,-0.003299,0.003870,-0.003156,-0.003382,-0.003624,-0.003309,0.222982,-0.243915,-0.028794,0.003055,-0.003203,-0.003289,-0.003486,-0.012750,0.003707,0.003100,0.003577,-0.241614,0.003770,-0.217423,-0.003519,0.002628,0.003484,0.205910,0.001887,-0.002623,0.003375,-0.003873,-0.121434,-0.003760,-0.003403,0.006758,0.003267,0.003313,0.003497,-0.003478,0.003169,-0.003063,0.003528,0.003359,-0.003637,0.003450,0.003591,0.006322,0.003439,-0.003153,0.003333,0.002780,0.162304,-0.003020,0.003290,-0.003359,0.003031,0.000411,-0.003319,-0.003681,-0.190360,-0.003630,-0.003205,0.002368,0.002040,0.002892,0.002551,0.002771,0.002440,0.002732,0.002649,0.002678,0.002552,0.002731,-0.000694,0.014336,-0.001531,0.002396,0.002435,0.002989,0.002265,-0.013328,0.002616,0.002460,0.002459,-0.030457,0.002562,-0.004317,0.002411,0.002334,-0.005620,-0.019676,0.002603,0.002426,0.002515,0.002952,-0.013171,0.002423,0.002472,-0.002616,0.002580,0.002619,0.002643,0.002475,0.002617,0.002354,0.002696,0.002395,0.002608,0.002835,0.002486,-0.004732,0.002730,0.002542,0.002379,0.002364,-0.006314,0.002049,0.002234,0.002437,0.002613,0.001563,0.002938,0.002972,-0.016160,0.001684,0.002523,0.002307,0.004294,0.009711,0.004765,0.006991,0.005534,0.005510,0.005168,0.006639,0.005947,0.004619,0.012250,0.014999,0.015040,0.003640,0.003444,0.004267,0.005430,0.015018,0.005447,0.006192,0.005384,0.015385,0.006826,0.011991,0.001802,0.003447,0.013906,0.014752,0.010229,0.006208,0.007342,0.004217,0.016411,0.004442,0.004469,0.016505,0.002888,0.003049,0.004191,0.005421,0.004361,0.006320,0.003318,0.007007,0.006984,0.008382,0.003587,0.014611,0.004141,0.004466,0.006303,0.003251,0.019705,0.002197,0.002482,0.005620,0.004030,0.004911,0.006024,0.005768,0.012485,0.001654,0.004855
-0.006180,-0.005870,-0.006322,-0.006196,-0.006272,-0.006224,-0.006209,-0.006050,-0.006098,-0.006076,-0.006147,-0.067319,-0.067337,-0.067581,-0.006204,-0.006206,-0.006024,-0.006131,-0.067053,-0.006230,-0.005723,-0.006169,-0.062327,-0.006230,-0.064385,-0.006222,-0.005999,-0.066976,-0.067303,-0.063249,-0.006031,-0.006091,-0.006238,-0.070570,-0.006292,-0.006048,-0.066353,-0.006164,-0.006066,-0.006141,-0.006047,-0.006230,-0.006027,-0.006234,-0.006051,-0.006237,-0.006281,-0.005949,-0.069529,-0.006288,-0.006097,-0.006148,-0.006062,-0.067632,-0.006270,-0.006226,-0.006042,-0.006217,-0.003994,-0.006102,-0.005775,-0.061469,-0.005832,-0.006169,-0.014572,0.013007,-0.013422,0.014520,0.015178,0.014746,-0.014785,0.014876,0.014799,0.014648,0.014569,-0.014245,0.008341,0.005688,-0.014643,0.014389,0.014803,0.014904,-0.001737,-0.014536,-0.014438,-0.014338,-0.010604,-0.015037,0.015957,0.015257,-0.013118,-0.005939,0.017879,-0.020965,0.012402,-0.014499,0.014996,0.006632,0.013243,0.014421,-0.004323,-0.015563,-0.014828,-0.013558,0.014134,-0.013239,0.014377,-0.015102,-0.013513,0.015039,-0.014148,-0.014558,-0.006394,-0.015104,0.014579,-0.014795,-0.013168,0.021021,0.014470,-0.014657,0.014671,-0.015122,-0.000029,0.014488,0.014571,-0.015689,0.012748,0.014533,-0.011870,-0.011205,-0.011558,-0.011892,-0.011546,-0.011849,-0.011847,-0.011753,-0.011759,-0.011363,-0.011902,0.047193,0.045792,0.044851,-0.011771,-0.011870,-0.011870,-0.011862,0.047154,-0.011546,-0.011638,-0.011689,0.041726,-0.011699,0.045106,-0.011832,-0.011171,0.046004,0.046833,0.044060,-0.011615,-0.011932,-0.011838,0.048539,-0.011395,-0.011659,0.043361,-0.011725,-0.011841,-0.011554,-0.011733,-0.011787,-0.011603,-0.011769,-0.011347,-0.012054,-0.011585,-0.011881,0.047979,-0.011831,-0.011713,-0.011585,-0.011581,0.046993,-0.011659,-0.011774,-0.011664,-0.011696,-0.006448,-0.011699,-0.011727,0.041872,-0.011316,-0.011881,-0.028077,-0.025639,-0.027948,-0.028169,-0.028609,-0.027630,-0.027538,-0.027354,-0.027475,-0.026954,-0.027891,-0.069704,-0.069228,-0.069359,-0.027132,-0.027128,-0.028125,-0.027409,-0.069509,-0.028412,-0.027810,-0.028381,-0.064660,-0.028444,-0.066762,-0.028238,-0.027493,-0.068862,-0.068871,-0.065683,-0.028176,-0.028171,-0.027880,-0.072852,-0.028308,-0.027728,-0.068166,-0.028170,-0.027833,-0.028050,-0.027782,-0.028044,-0.027874,-0.028087,-0.026980,-0.028541,-0.027906,-0.028018,-0.071879,-0.027544,-0.027609,-0.027601,-0.028249,-0.069997,-0.027893,-0.028026,-0.026497,-0.027118,-0.028183,-0.027962,-0.028412,-0.063538,-0.020451,-0.027915
