0.033837,-0.003863,-0.018261,-0.022408,-0.035899,-0.019747,-0.030787,-0.094074,-0.053951,-0.011733,0.025893,-0.005398,0.004244,-0.014796,-0.014425,-0.038470,-0.025037,-0.031847,-0.024194,-0.003940,-0.036855,-0.036670,-0.038203,-0.003798,0.035793,-0.027530,-0.062497,-0.018338,-0.026189,-0.003735,-0.031623,-0.008295,-0.096103,-0.009110,-0.026686,0.002591,-0.003689,-0.023052,-0.030219,-0.003628,-0.030999,-0.017888,-0.047664,-0.024307,-0.024529,-0.022073,-0.003640,0.101958,-0.003400,-0.018601,-0.074409,-0.025030,-0.029853,-0.003025,-0.003889,-0.022599,-0.015529,-0.017401,-0.008953,-0.032211,-0.003869,-0.003458,-0.018344,-0.004080,-0.041584,-0.007860,-0.013498,0.118622,0.042950,-0.083726,-0.029927,-0.159227,0.045380,0.009304,0.033537,-0.008529,-0.103102,-0.031399,-0.121653,-0.030487,-0.048340,0.030554,0.047362,0.006754,-0.131648,-0.020869,-0.052785,0.006929,-0.068577,-0.053149,-0.071064,0.169538,0.052131,0.006706,-0.075668,-0.160689,-0.064273,0.176562,-0.131087,-0.049108,-0.006979,-0.048224,0.067483,0.007029,-0.043465,0.106269,0.123760,-0.033418,0.001781,-0.106582,-0.007375,-0.092739,0.006654,-0.104404,0.117615,0.086760,0.016631,0.006066,0.007033,-0.041985,-0.187027,0.032183,-0.075028,-0.010028,-0.006663,-0.007207,-0.023240,0.008720,0.011805,-0.006838,0.027878,0.008912,0.042445,0.011502,0.027919,0.041836,0.009042,0.020565,0.033189,-0.008682,0.000428,0.013873,-0.002328,0.027495,0.015503,0.029084,0.021074,-0.006272,0.025199,0.035136,0.024220,-0.006342,0.023545,0.025277,0.026043,0.003754,0.039178,-0.006150,0.006873,0.011585,0.025506,0.014526,0.013112,0.007610,-0.006318,0.031907,0.016681,-0.006185,0.038083,0.008435,0.033127,0.013636,0.023640,0.035765,-0.006074,-0.001630,-0.005652,0.007253,0.026969,0.048022,0.022528,-0.005192,-0.006084,0.020100,0.020126,0.014305,-0.003472,0.033281,-0.006233,-0.006086,0.019615,-0.006602,0.008430,-0.025949,-0.026581,0.008058,-0.101048,-0.018792,-0.067270,-0.111618,-0.045605,-0.006407,-0.025403,-0.020701,-0.018438,0.015503,0.048524,-0.096823,-0.001692,-0.023189,0.004757,-0.023615,-0.095344,-0.035847,-0.103460,-0.023263,-0.016954,0.002970,-0.026906,0.037217,-0.031913,-0.022579,-0.034263,-0.006730,-0.042890,0.023366,-0.026003,0.051831,-0.023075,-0.042843,-0.034624,-0.021573,-0.079164,-0.011890,-0.043938,-0.001641,-0.012354,-0.015504,-0.023304,-0.017835,-0.022093,-0.006935,-0.038861,-0.064008,-0.029151,0.025182,-0.023085,-0.030727,0.020036,-0.008933,0.046655,-0.047209,-0.023950,-0.022071,-0.018158,-0.021613
-0.005856,0.000220,0.001513,0.005448,0.010071,0.009349,0.006094,-0.006208,-0.002160,0.007088,-0.030541,0.000212,0.020519,0.004937,-0.002761,-0.005062,-0.003530,0.019364,-0.005939,0.000197,-0.001391,0.002615,0.010773,0.000319,-0.005792,0.002037,-0.008828,-0.008107,-0.000524,0.000271,0.004954,0.005614,-0.038326,-0.002619,-0.001186,0.005461,0.000293,0.044585,-0.000940,0.000306,0.000394,0.003134,0.005605,-0.001596,0.008017,0.010295,0.000226,-0.044827,0.000180,0.008349,-0.026934,0.001139,0.008159,0.000082,0.000242,-0.004064,-0.010750,0.007555,-0.008312,0.001037,0.000279,0.000242,0.021698,0.000202,-0.041631,0.000686,0.015418,0.037509,-0.059845,-0.048674,-0.038897,-0.056423,0.064409,-0.002660,-0.072077,0.000408,0.025182,-0.091877,-0.003352,-0.122682,-0.003582,0.000871,-0.026381,-0.000469,-0.073853,0.034613,0.080947,-0.000487,-0.017398,-0.055520,-0.008374,-0.089381,0.039295,-0.000440,-0.053285,-0.055844,-0.069572,0.004990,-0.018683,0.012903,0.000440,-0.013604,0.029271,-0.000487,0.003511,0.067967,-0.016729,0.024336,0.057482,-0.070541,0.000301,-0.052149,-0.000114,0.045876,0.018773,-0.048447,0.081718,-0.000245,-0.000424,0.077417,0.039146,-0.003591,0.079934,-0.027997,0.000413,0.000264,-0.036340,-0.000280,-0.002054,0.000272,-0.009884,-0.003003,-0.010398,-0.006085,-0.005174,0.000535,-0.004168,-0.009509,-0.002207,0.000182,-0.003323,-0.015267,-0.004869,0.005686,0.003106,0.002788,0.002735,0.000296,0.003777,-0.012723,-0.017125,0.000248,-0.002201,-0.008127,-0.006251,0.013434,0.003492,0.000212,0.000102,-0.015390,0.003838,0.001146,-0.005765,0.001109,0.000128,0.008650,0.004301,0.000285,0.003301,-0.005778,-0.008763,-0.005377,-0.004995,-0.026335,0.000238,-0.000540,0.000147,-0.006400,-0.001342,-0.014362,0.000196,0.000054,0.000135,0.005691,0.008060,-0.007137,-0.002257,0.001225,0.000218,0.000193,-0.008336,0.000318,-0.004204,0.003804,0.003384,0.008273,0.047520,0.011145,0.018695,-0.077913,0.002335,0.009907,-0.004377,0.002329,0.005613,0.053371,-0.007461,-0.061038,-0.001705,0.006239,-0.011143,0.001880,-0.021977,0.003242,0.070925,0.001861,0.000077,0.013087,-0.005295,-0.067253,-0.001797,0.001773,0.007961,0.006582,-0.010155,-0.008468,-0.002553,0.002586,0.001531,-0.024759,-0.005644,0.001651,0.010044,0.006656,-0.000556,-0.023771,0.061794,0.040592,0.001479,-0.028634,0.002320,0.018685,-0.002868,0.007955,0.021578,0.025869,0.001051,-0.021803,-0.064465,0.010377,-0.030215,-0.003438,0.002058,0.002159,0.054415,0.001401
0.031680,0.006713,0.060242,0.036000,0.049256,0.037128,0.039994,0.033933,0.034849,0.040936,0.016460,0.009391,0.000402,0.042312,0.057385,0.028171,0.040443,0.019115,0.048673,0.007538,0.050433,0.057901,0.065553,0.007202,0.008501,0.047007,-0.043119,0.033706,0.045465,0.007093,0.059745,0.053298,0.027884,0.035963,0.039511,0.044078,0.007163,-0.024061,0.044440,0.006655,0.047017,0.040870,0.035931,0.051402,0.054334,0.055545,0.006532,-0.018020,0.006281,0.048437,-0.013048,0.044285,0.043078,0.005413,0.006875,0.035426,0.026530,0.024630,0.029578,0.046619,0.007366,0.006455,0.060643,0.006848,0.010851,0.014065,-0.039789,-0.014549,0.027644,0.015961,0.092283,-0.086787,-0.015598,0.004403,-0.095716,0.013858,-0.037934,0.066510,-0.060471,0.046378,0.107894,0.025900,-0.015468,-0.012866,0.213170,0.074463,0.102419,-0.012670,0.013381,-0.014190,0.020839,-0.163497,-0.019636,-0.013489,-0.005150,0.030758,0.125583,0.067192,0.035205,-0.105305,0.012831,-0.049158,0.069193,-0.013559,-0.030093,-0.090534,-0.022033,-0.052394,-0.019202,-0.001895,0.013667,0.031427,-0.016752,-0.019064,0.168538,-0.004453,-0.024674,-0.011003,-0.012067,0.035684,0.070142,-0.057909,0.060847,0.068428,0.012627,0.014010,-0.177698,-0.018078,-0.016210,0.010669,-0.045357,-0.041012,-0.035900,-0.028994,-0.029390,-0.031147,-0.028838,-0.030126,-0.045380,0.014398,-0.019999,-0.028863,-0.069527,-0.028718,-0.013304,-0.055266,-0.050660,0.010897,-0.046143,-0.049302,-0.070121,0.010654,-0.034559,-0.032931,-0.028308,-0.011707,-0.039407,0.010708,-0.052080,-0.042000,-0.039180,-0.035051,-0.024720,-0.033728,0.010700,-0.049930,-0.025435,0.011137,-0.027158,-0.028773,-0.038652,-0.041069,-0.030998,-0.042832,0.010859,-0.033538,0.009501,-0.034997,-0.037401,-0.047441,-0.027626,0.009106,0.010790,-0.026388,-0.027076,-0.021952,-0.021162,-0.038749,0.010828,0.010743,-0.050083,0.011192,0.039058,0.036419,0.085901,0.038656,0.046444,0.035767,-0.035290,-0.021209,0.030385,0.040883,0.057519,0.029949,0.036570,0.000418,0.106987,-0.008883,-0.030898,0.056042,0.057615,0.036688,0.087646,0.077740,0.113233,0.038404,0.051136,0.058162,0.019162,-0.081239,0.051107,0.037792,0.060388,0.055377,0.040733,-0.019005,0.040588,0.038844,0.038124,0.030991,0.039788,0.038332,0.036971,0.039133,0.038183,0.065192,0.133477,0.078019,0.040569,-0.008084,0.035585,0.049656,0.049580,0.049535,0.047240,0.010191,0.037378,0.026753,-0.090973,0.011322,-0.012592,0.043488,0.037378,0.037348,0.088949,0.040674
0.033651,-0.000882,0.023915,0.014813,-0.014710,0.007820,-0.011765,-0.078562,0.020585,0.012252,-0.029979,-0.000688,-0.036051,0.007871,0.021234,-0.010313,-0.011172,-0.068973,0.010338,-0.000903,0.008618,-0.025024,0.000825,-0.001012,0.061251,-0.008455,-0.012644,0.000292,0.003484,-0.000903,-0.015166,-0.000094,-0.059095,0.006998,-0.013036,0.003240,-0.000880,-0.002253,-0.005776,-0.000822,0.011956,0.004836,-0.024414,-0.010861,-0.006886,0.008933,-0.000741,0.143757,-0.000891,0.009070,0.038879,0.007966,-0.009499,-0.000201,-0.000844,-0.006081,-0.022483,0.004902,-0.002027,0.000530,-0.001045,-0.000954,0.017185,-0.000515,0.046038,-0.001623,0.179347,0.221031,0.103300,0.017187,-0.078332,-0.205120,0.039325,0.109816,-0.151643,-0.001054,-0.027378,-0.006219,-0.045280,-0.089063,0.115990,-0.161409,0.090607,0.001732,-0.065274,-0.113144,-0.056879,0.001684,-0.035181,0.108901,-0.011270,-0.032317,0.153800,0.001582,0.088119,-0.176833,0.074243,0.149420,0.087894,0.119706,-0.001547,-0.113248,-0.043901,0.001403,0.008009,0.108230,0.081708,0.130696,-0.183504,-0.121287,-0.001258,-0.112282,0.000267,-0.139772,-0.211277,0.074961,0.047595,0.000431,0.001557,0.032300,-0.020957,-0.052429,0.073749,-0.057457,-0.001663,-0.001364,-0.095402,0.001038,-0.016585,-0.000138,-0.001097,-0.031657,0.038798,-0.001711,0.004279,0.015763,-0.009352,0.006477,-0.002572,-0.000389,0.005037,0.009595,-0.000853,0.023155,0.034642,0.019144,-0.005763,-0.000151,0.001401,-0.021600,-0.004222,-0.000130,-0.010372,-0.001921,-0.001668,0.032404,0.034327,-0.000241,-0.007723,-0.007547,-0.005492,0.003305,-0.008871,0.013646,-0.000111,0.018929,-0.004843,-0.000145,0.015598,-0.006378,0.019238,-0.010705,0.011063,-0.010800,-0.000185,-0.018479,-0.000109,-0.001145,-0.032396,0.012168,-0.012922,0.000124,-0.000063,-0.004628,0.016787,0.006384,0.003934,0.002543,-0.000151,-0.000157,0.000970,-0.000147,0.023348,-0.002012,0.107422,0.063789,-0.076756,0.008536,-0.055028,-0.146229,0.011072,0.021649,0.014138,-0.001897,-0.004796,0.018299,0.098769,-0.066297,-0.108420,-0.005640,0.042672,-0.002710,-0.000812,-0.044407,-0.019460,-0.001391,0.014132,-0.065103,-0.003322,0.016432,0.008243,-0.000561,-0.016804,-0.001205,-0.008092,-0.002997,-0.024350,0.021435,0.001518,0.077441,-0.015754,-0.000774,0.050702,0.016254,-0.015139,-0.078561,-0.019188,0.039940,-0.000797,0.023578,-0.003324,0.020043,-0.000994,0.010190,-0.014402,-0.004152,0.001337,-0.018608,-0.134323,0.027929,-0.008163,0.041047,-0.002308,-0.003137,0.040030,0.000447
-0.051355,-0.003692,-0.023142,-0.014376,-0.020804,-0.012993,-0.012377,0.026988,0.001598,-0.017491,0.065780,-0.004194,-0.028462,-0.029582,-0.021339,-0.013415,-0.021737,-0.015097,-0.034399,-0.003586,-0.016572,-0.022173,-0.023032,-0.003296,0.021408,-0.024532,0.052598,-0.024912,-0.015691,-0.003323,-0.030851,-0.032874,0.022323,-0.033805,-0.021425,-0.044287,-0.003323,-0.069877,-0.022545,-0.003153,-0.007394,-0.022037,0.001992,-0.024127,-0.015329,-0.019491,-0.003333,-0.070079,-0.002892,-0.023607,-0.000149,-0.013411,-0.009187,-0.002543,-0.003573,-0.012304,-0.022435,-0.005083,-0.033280,-0.020824,-0.003373,-0.003001,-0.013725,-0.003508,0.078860,-0.007624,0.038134,0.071440,-0.056538,-0.045373,-0.053684,0.136959,-0.017422,0.014080,0.165836,-0.006841,0.095222,-0.041392,0.008523,-0.081386,-0.123820,0.014060,0.017071,0.006489,-0.097359,0.060470,-0.003065,0.006175,0.037221,-0.001106,0.038564,0.018510,-0.078458,0.006030,-0.080136,0.043767,-0.004735,-0.126573,0.023602,0.043166,-0.006411,-0.080953,-0.039220,0.005942,0.084120,-0.028857,-0.057483,0.053353,-0.005880,-0.063333,-0.006627,0.159509,0.004263,-0.012630,-0.050571,-0.008447,0.020053,0.004651,0.006271,-0.012778,-0.055692,-0.036443,-0.024158,-0.035644,-0.005962,-0.006105,-0.010487,0.009399,0.009393,-0.005296,0.000452,0.016676,0.007810,0.013004,0.001558,0.001700,0.019600,0.004788,0.006629,-0.005864,0.006375,0.018010,0.025496,0.019977,-0.009782,0.020498,0.019355,-0.004435,0.013316,0.026691,0.032193,-0.004900,0.017809,0.019711,0.004882,0.010355,-0.006364,-0.004374,0.034862,0.021803,0.016771,0.027386,0.025874,0.031089,-0.004833,0.011260,0.023372,-0.004453,-0.006061,0.017169,0.011385,0.035502,0.014128,-0.004774,-0.004402,0.030289,-0.004131,0.012639,0.025466,0.006362,0.020287,-0.004068,-0.005197,0.025462,0.010468,0.009221,0.029629,0.012763,-0.004425,-0.004376,0.019425,-0.005203,-0.040729,-0.020091,-0.017098,-0.008628,0.006770,-0.010470,0.060373,0.020882,-0.003012,-0.019513,-0.021087,-0.016496,-0.022778,-0.061447,-0.080113,-0.031923,0.006384,-0.037799,-0.044160,-0.016990,-0.024080,-0.029295,0.001651,-0.017008,-0.021269,-0.045498,-0.006043,-0.036359,-0.015543,-0.017625,-0.031501,-0.034174,-0.009011,-0.039553,-0.017675,-0.078841,-0.017870,-0.022528,-0.018260,-0.015469,0.039025,-0.030458,-0.003522,-0.046252,-0.011223,0.007117,-0.016639,0.041392,-0.016470,-0.037435,-0.020692,0.008489,-0.001346,0.003585,-0.011988,-0.010624,-0.022089,-0.001776,-0.077035,-0.007093,-0.016484,-0.014780,0.004857,-0.015741
-0.059877,0.001738,0.014865,-0.001295,0.007168,0.010877,0.008312,-0.025930,0.033709,0.022125,-0.008238,0.001061,-0.094387,0.026745,-0.007515,0.026455,0.018654,-0.092666,-0.011392,0.001701,-0.010127,0.002318,0.016816,0.001733,0.036621,0.007889,-0.034006,0.002083,0.008918,0.001699,0.015365,0.016910,-0.054840,0.017068,-0.001482,0.016859,0.001828,0.082185,0.002942,0.001558,0.021171,0.024610,-0.003253,-0.011091,0.018220,0.018490,0.001595,0.013698,0.001641,0.007907,-0.087625,0.021774,0.022147,0.000638,0.001698,-0.013320,-0.004433,0.028424,0.013030,0.018428,0.001738,0.001589,0.036324,0.001803,0.009508,0.003443,0.050411,-0.168170,0.289609,0.166248,0.038118,-0.115676,-0.000344,-0.026719,-0.057843,0.002569,0.073309,-0.168254,0.122973,0.102527,-0.086205,-0.084442,-0.238624,-0.003072,-0.013836,0.122757,0.124233,-0.003003,0.013467,-0.088470,-0.009971,-0.106378,0.081653,-0.002891,-0.051161,-0.028154,-0.079418,0.041922,0.207293,-0.074930,0.003013,-0.026995,0.105693,-0.002672,0.047414,0.137312,0.039766,0.218158,-0.064448,-0.024232,0.002996,0.054183,-0.000606,0.079665,0.109501,-0.089357,0.254171,-0.001185,-0.003021,0.239958,0.155509,-0.030921,0.071577,-0.095200,0.003021,0.002265,0.052558,-0.004073,-0.005330,0.001550,0.009168,0.016091,0.017050,0.008299,0.005539,0.013200,-0.012037,-0.007279,0.007076,0.001220,0.000289,-0.057009,0.025667,-0.023607,-0.009606,0.006607,0.037667,0.001403,-0.001365,-0.021287,-0.024295,0.001421,-0.010538,-0.005647,0.003815,0.008611,0.016263,0.001474,-0.007790,-0.027685,0.007503,-0.012395,0.005757,0.001763,0.001529,0.032212,0.012721,0.001558,-0.014004,-0.017185,-0.009165,0.015686,0.006293,-0.024961,0.001616,-0.018295,0.001471,0.006742,-0.009992,-0.019221,-0.047748,0.000647,0.001473,-0.004880,-0.004817,-0.007385,-0.011154,-0.017065,0.001400,0.001474,-0.003316,0.001483,-0.031857,0.004146,0.003570,-0.036830,-0.109569,0.012908,0.036734,-0.094502,0.030006,0.031496,0.011153,0.007742,-0.018178,0.154260,-0.038810,0.096198,0.069682,0.015013,-0.077834,0.005350,-0.076680,-0.008304,0.063764,0.005749,0.011351,-0.008185,-0.009078,-0.063167,0.009417,0.006310,0.014885,0.015818,-0.008883,0.031679,-0.009522,0.028047,0.006700,-0.177595,-0.006099,0.006771,0.080187,0.053300,-0.008224,-0.141496,0.071298,0.035168,0.005280,0.023587,0.004471,0.010835,-0.015354,0.057147,0.072320,-0.003275,0.007673,-0.075707,-0.068424,0.060228,0.006773,0.071905,0.004995,0.004200,0.078672,0.007095
-0.014304,0.000587,-0.008157,0.009288,0.010088,-0.001824,0.000757,-0.026403,-0.006094,-0.005579,-0.129936,0.000328,-0.001625,0.008055,-0.013808,0.018364,0.009568,0.016778,-0.002724,0.000578,-0.011032,0.004755,-0.004690,0.000564,-0.001549,0.008055,0.012263,0.008927,-0.005800,0.000566,-0.004156,-0.003620,0.032710,0.001660,-0.002137,0.004439,0.000513,0.103124,-0.003094,0.000436,-0.008645,0.008659,0.002146,-0.009720,-0.000558,-0.003683,0.000484,0.003574,0.000601,0.007908,-0.025376,-0.003051,0.007031,-0.000147,0.000448,-0.001640,0.011043,0.005766,0.007777,-0.000129,0.000557,0.000573,-0.008931,0.000486,-0.003215,0.001356,0.112491,0.000946,-0.014295,0.183261,0.136767,-0.030118,0.041163,-0.080182,-0.146490,0.000797,-0.014144,-0.129635,0.133595,0.010507,-0.091027,-0.087191,-0.040455,-0.000796,-0.008779,0.114492,-0.042288,-0.000773,0.149071,-0.117573,0.026736,0.068452,0.075710,-0.000777,-0.050925,0.044119,-0.089505,-0.058746,0.121250,0.128264,0.000829,0.126346,-0.037873,-0.000719,-0.022408,0.066940,-0.039601,0.044619,0.004594,0.062127,0.000738,-0.015865,-0.000443,-0.013395,0.069044,-0.093149,0.071278,0.000273,-0.000788,0.030550,-0.051162,0.033040,0.080396,0.071784,0.000772,0.000583,0.051042,-0.000885,0.000503,0.000042,0.001799,0.008567,-0.009370,0.012755,0.014272,0.001249,-0.001907,0.009298,-0.001432,0.000286,-0.007181,-0.019127,0.042599,-0.008969,-0.021930,0.013626,0.015701,-0.000068,-0.005898,-0.012188,0.008076,-0.000085,0.015004,-0.018317,0.007906,-0.017471,0.005143,-0.000049,0.014246,-0.005406,-0.002735,-0.006206,-0.000667,0.009570,-0.000055,0.003808,0.010660,-0.000042,0.002156,-0.011764,-0.007950,-0.009434,-0.007784,0.001882,0.000029,-0.008209,-0.000040,0.004822,-0.003089,-0.011963,-0.018927,-0.000282,-0.000106,-0.011920,-0.003538,0.002615,-0.015705,-0.001831,-0.000045,-0.000146,0.015358,-0.000003,-0.006748,0.001122,-0.054340,0.024114,0.029981,-0.001401,0.003466,-0.007143,-0.005827,-0.005473,-0.013324,0.001608,0.001521,0.080715,-0.123067,0.059636,0.042099,0.000863,-0.022834,0.002294,-0.055029,0.001335,-0.014154,0.000959,-0.000348,0.014056,0.000540,0.041167,-0.007465,0.001525,-0.000227,0.000244,0.007350,-0.007073,-0.007759,0.007419,0.000916,-0.047016,0.001125,0.000625,-0.021298,0.020536,0.004951,-0.055185,-0.033698,-0.017314,0.000934,0.067050,0.002068,0.020093,-0.010003,-0.003294,0.009341,-0.013141,0.000358,-0.008383,0.048431,0.012600,0.025102,-0.034277,0.001545,-0.000010,-0.025962,0.000714
0.046576,0.000687,-0.009695,-0.002490,-0.005313,-0.007473,-0.001250,-0.014811,-0.034367,-0.012220,-0.015881,0.000339,0.043730,-0.004296,-0.000574,0.002621,0.012574,-0.024997,-0.003376,0.000744,-0.009761,0.019429,-0.001077,0.000647,-0.008881,0.010371,-0.012250,-0.000300,-0.001655,0.000643,0.008082,-0.002125,-0.003106,0.006123,0.000704,0.010587,0.000576,-0.028883,0.002443,0.000566,-0.008395,0.001166,0.002667,0.011534,0.008247,-0.011180,0.000536,-0.036528,0.000705,0.000601,0.013995,-0.007410,-0.000494,-0.000034,0.000533,0.008393,0.009257,-0.003175,0.007876,-0.007277,0.000678,0.000661,-0.005325,0.000514,-0.039134,0.001202,-0.030538,-0.009902,0.044534,0.041552,0.043878,0.069613,0.164334,-0.059791,0.101435,0.000196,-0.087660,-0.050005,-0.051043,0.057345,-0.115789,-0.078295,0.061160,-0.001373,0.124040,0.202096,-0.059109,-0.001147,-0.067788,-0.087268,0.055760,-0.037881,-0.085928,-0.001100,0.020574,0.050688,0.040978,-0.110475,0.046044,0.072622,0.000988,-0.060424,-0.057424,-0.000939,-0.012555,-0.037781,0.020172,-0.096840,-0.009610,-0.004323,0.000920,-0.028158,-0.000483,-0.010343,0.038833,0.007009,-0.086175,-0.000121,-0.000967,-0.005283,0.060433,0.079797,-0.005111,0.098644,0.001329,0.000896,-0.054835,-0.000980,-0.001246,0.000037,0.007140,0.005875,0.005572,0.009934,-0.001728,-0.014575,0.004124,0.009822,-0.020451,0.000229,-0.009947,-0.009880,-0.005189,-0.010157,-0.026758,-0.006236,-0.014690,-0.000046,-0.007845,0.005008,0.010605,-0.000019,0.008094,-0.002299,0.006385,-0.005014,-0.031269,-0.000013,-0.009840,0.002543,-0.010391,-0.005275,0.008962,-0.006571,-0.000086,-0.006335,0.003628,0.000039,-0.001068,-0.008155,-0.007298,-0.000334,-0.009087,0.010202,0.000055,0.005764,0.000215,-0.002754,0.016174,-0.007897,0.018611,-0.000192,-0.000069,0.011361,-0.004706,0.008450,-0.013297,0.007342,-0.000027,0.000111,-0.005434,-0.000043,0.022727,0.002965,-0.088268,-0.003647,-0.014392,-0.009544,-0.013492,0.044447,-0.020232,-0.015602,-0.003584,0.002411,0.009165,-0.031151,-0.007095,0.030672,0.028159,-0.009298,-0.026289,0.001803,-0.039928,0.040567,0.011887,0.001572,-0.000081,0.071806,-0.004223,0.001019,-0.006498,0.000952,0.011317,-0.002000,-0.004124,0.025508,0.004066,0.018675,-0.000221,-0.050494,0.005783,0.001083,-0.056019,-0.003950,0.009229,0.095028,0.035763,-0.063636,0.000974,-0.007463,0.002642,0.000641,0.007047,-0.049841,-0.008089,-0.006919,-0.000717,0.033289,0.052390,-0.012280,0.044809,-0.044712,0.001989,0.002999,-0.011656,0.000341
-0.033741,-0.000130,0.004179,0.003790,0.005253,0.004887,0.001881,0.019788,0.038734,0.006953,0.036573,-0.000204,-0.071572,0.002826,-0.004943,0.009229,0.001496,-0.029589,-0.003523,-0.000400,0.000092,-0.004875,0.002641,-0.000099,-0.011582,-0.006025,0.008158,-0.003209,0.005904,-0.000194,-0.000769,-0.000141,-0.019864,-0.004390,-0.001647,-0.014482,-0.000158,0.010134,0.002124,-0.000036,0.012323,0.000101,0.013054,-0.006304,0.005766,0.009114,-0.000052,-0.063055,-0.000301,-0.001051,-0.051060,0.005676,0.007909,-0.000023,-0.000086,-0.007994,-0.006681,0.013938,-0.004036,0.005471,-0.000282,-0.000116,0.012778,-0.000146,0.065300,-0.000220,0.024101,0.071680,-0.058653,0.033321,0.005169,0.016139,-0.026768,0.026981,-0.019385,0.000068,0.075294,0.032344,0.150247,-0.046509,0.017842,-0.117117,-0.074838,0.000426,-0.099964,-0.054023,0.027193,0.000297,0.073418,0.090848,-0.023560,-0.003811,0.028229,0.000391,0.048256,-0.000211,-0.021643,-0.045873,0.052249,-0.025949,-0.000250,-0.059151,0.003432,0.000184,0.129145,-0.021686,-0.126053,0.022288,0.047635,0.015532,-0.000164,0.003241,0.000116,0.068757,0.078722,-0.030466,0.150646,0.000092,0.000198,0.082516,0.009884,-0.044853,0.073626,-0.073964,-0.000372,-0.000265,0.057979,0.000248,-0.000244,0.000215,-0.000542,-0.002206,-0.010548,0.003088,-0.003707,0.003215,0.002828,-0.011020,0.006336,-0.000065,0.003588,0.002035,0.021684,-0.003388,0.009439,0.003435,0.020907,0.000291,0.003686,-0.010320,0.005268,0.000211,-0.003173,0.004419,-0.001563,-0.001734,0.007654,0.000173,0.009718,-0.003087,0.001648,0.006311,0.008245,0.013347,0.000245,0.007866,0.007400,0.000223,-0.013438,0.006363,-0.003044,0.001776,0.002361,-0.010861,0.000178,-0.004068,0.000229,0.005253,-0.003626,0.001730,-0.021806,-0.000003,0.000191,-0.005101,-0.011614,-0.002214,0.004173,-0.009209,0.000277,0.000204,0.005112,0.000309,-0.016676,0.000742,0.037050,0.008647,0.007783,0.006055,0.015847,0.013473,0.029261,0.004556,0.005631,0.000653,-0.015065,0.034632,-0.050447,0.018546,0.012113,-0.008899,-0.011828,0.000499,-0.008152,-0.014855,0.028935,0.000883,-0.001561,-0.064154,0.001607,-0.012953,0.009282,0.000951,-0.002248,-0.000840,-0.000393,-0.016583,-0.002525,-0.034995,0.001298,-0.015581,0.005048,0.001089,0.085188,-0.000679,0.014871,-0.061188,0.029260,0.033773,0.000660,-0.022945,0.000230,-0.003332,-0.012603,0.045880,0.022703,-0.002455,0.002806,-0.036594,-0.045688,0.038311,-0.020013,0.030014,0.000613,0.000087,0.031827,0.001388
-0.026949,-0.001649,-0.010882,-0.006190,-0.016557,-0.002688,-0.009576,-0.015825,0.017639,0.004026,-0.095728,-0.001387,-0.003983,0.000367,-0.004325,0.003324,-0.015466,-0.045829,-0.003026,-0.001649,-0.013763,-0.014638,-0.012974,-0.001527,0.028128,-0.010544,0.041751,0.001250,-0.020288,-0.001548,-0.034626,-0.011521,-0.104160,0.020857,-0.017957,0.007643,-0.001475,0.117414,-0.000944,-0.001359,-0.005276,-0.009567,-0.025511,-0.006600,-0.021088,-0.018171,-0.001283,0.080895,-0.001302,-0.004369,0.042778,-0.016496,-0.017999,-0.000995,-0.001614,-0.002713,-0.006810,0.001179,0.003934,0.003141,-0.001621,-0.001313,-0.010087,-0.001419,-0.014087,-0.003332,0.078589,-0.019580,0.084456,0.006515,-0.174985,-0.054076,-0.008976,-0.023427,-0.104742,-0.002958,0.080119,-0.114907,-0.068968,-0.041178,0.073621,-0.017804,0.075062,0.002999,-0.119658,-0.058513,-0.029005,0.002989,-0.137100,0.062588,0.027335,0.031084,0.160488,0.002640,-0.024178,0.031338,-0.038364,0.024114,0.027339,0.013187,-0.002755,0.114693,0.004445,0.002343,0.081793,0.016118,0.054636,-0.055298,-0.012947,-0.005496,-0.002487,-0.018780,0.000774,0.050429,-0.140561,0.104346,-0.047007,0.001859,0.002824,-0.075998,0.031314,0.042166,-0.090240,-0.123593,-0.002916,-0.002119,0.048885,0.003020,-0.002582,-0.002350,0.014125,-0.002177,0.024468,-0.003494,0.003192,0.008583,-0.010449,0.010450,0.008026,-0.001203,0.001872,-0.008363,-0.007571,0.017420,0.025165,0.009945,0.005137,-0.001795,0.020795,-0.011607,0.009977,-0.001872,0.004340,0.000987,-0.004598,0.013218,0.042046,-0.001800,0.020766,0.019923,0.019006,0.005519,-0.007066,-0.000301,-0.001817,0.032845,-0.012682,-0.001695,-0.002564,0.003573,0.011647,-0.009526,0.012114,0.018819,-0.001652,-0.000717,-0.001691,0.005974,0.000190,0.018000,0.009202,-0.001475,-0.002071,-0.012774,0.013529,0.003539,0.007997,-0.001054,-0.001757,-0.001742,0.008234,-0.001787,-0.014742,-0.010216,-0.007326,-0.009326,-0.071007,-0.001136,0.015926,-0.020335,0.004517,0.014357,-0.011585,-0.010815,-0.006593,0.056872,0.080422,0.018120,-0.051734,-0.003302,0.012772,-0.004605,-0.057210,-0.024965,-0.044010,-0.006888,-0.000694,-0.047323,0.007748,0.029944,-0.025276,-0.005383,-0.030225,-0.005313,-0.029856,0.064250,-0.029490,0.022243,-0.004753,-0.046792,-0.003668,-0.005069,0.012210,-0.013272,-0.024100,0.002044,-0.096298,-0.033563,-0.005890,0.045143,-0.005503,0.005797,-0.007032,-0.043562,-0.034250,-0.014597,-0.007601,0.017073,0.005608,0.015153,0.012244,0.044002,-0.004747,-0.007528,-0.017537,-0.004768
-0.017116,0.002610,0.028272,0.015792,0.021891,0.018415,0.014831,0.054529,0.038519,0.016090,-0.016109,0.003728,-0.028070,0.019659,0.026086,0.018138,0.009690,0.017319,0.027678,0.002507,0.017127,0.029958,0.020798,0.002463,0.084306,0.033401,0.025218,0.020285,0.014618,0.002406,0.017474,0.017880,-0.015376,0.017979,0.027114,0.006280,0.002428,0.021021,0.019976,0.002430,0.024458,0.008965,0.035167,0.015879,0.019653,0.029164,0.002459,-0.104752,0.002202,0.020604,-0.041143,0.019398,0.020881,0.002157,0.002932,0.013745,0.016895,0.015895,0.019778,0.020382,0.002497,0.002377,0.022302,0.002681,0.053969,0.005477,0.005856,0.026574,0.012919,-0.018763,0.006619,0.034926,-0.072516,-0.041542,-0.022352,0.006067,0.053251,0.026378,-0.054418,-0.079640,0.137250,0.005843,-0.014592,-0.004819,0.017680,-0.039901,-0.026908,-0.004945,0.016112,0.028545,-0.014975,0.075650,0.056756,-0.004433,0.027524,0.091137,0.036569,-0.009770,-0.035625,-0.039893,0.004615,0.015425,-0.009949,-0.004698,-0.007367,-0.104581,-0.071307,-0.003954,-0.034978,-0.046201,0.005042,0.029432,-0.003709,0.052414,0.153309,-0.007124,0.014324,-0.004160,-0.004831,0.027600,-0.071918,-0.006143,0.072308,0.094692,0.004536,0.004776,0.029051,-0.007317,0.007024,0.005180,-0.027527,-0.020666,-0.027446,-0.013715,-0.012578,-0.019268,-0.016375,-0.005863,-0.015775,0.005586,-0.003252,-0.012223,-0.040130,-0.007358,0.013497,-0.031662,-0.021514,0.004177,-0.014944,-0.019937,-0.009310,0.004602,-0.009578,-0.011559,-0.015895,-0.028455,-0.012787,0.004093,-0.012798,-0.020116,-0.013689,-0.004867,-0.012162,-0.011635,0.004161,-0.026562,-0.013002,0.004197,-0.018458,-0.003825,-0.019147,-0.013924,-0.004716,-0.022585,0.004159,-0.019948,0.003887,-0.014032,-0.006718,-0.018020,-0.021924,0.003685,0.004965,-0.019330,-0.017659,-0.013247,-0.013482,-0.020328,0.004203,0.004172,-0.010335,0.004671,0.003442,0.006939,0.085454,0.019795,0.010546,0.020669,-0.015851,0.044787,0.028454,0.016834,0.017581,0.016668,0.009910,0.015828,0.072892,-0.011233,-0.046203,0.014995,0.029883,0.016267,0.003265,0.041898,0.003996,0.016974,0.030095,0.011952,0.017931,0.010507,0.010791,0.016122,0.016876,0.020111,0.017181,0.023154,0.036974,-0.017710,0.015685,-0.058752,0.020053,0.014601,0.036804,-0.003086,0.034296,0.006103,0.056801,0.074779,0.015881,0.026523,0.015559,0.019649,0.020380,0.065296,0.023993,0.005856,0.019606,0.009080,-0.012688,0.017585,0.027782,-0.008009,0.015840,0.018800,0.031485,0.014634
-0.017373,-0.000160,-0.001960,0.008929,0.018204,0.000957,0.000742,0.001285,0.018893,0.009096,-0.024994,0.000148,-0.017412,-0.001588,0.000974,-0.001856,-0.006407,0.006111,0.008369,-0.000185,0.004961,0.007994,0.021903,-0.000148,0.031999,0.006822,0.022187,-0.006010,-0.001881,-0.000158,-0.009973,0.007435,-0.034615,-0.002087,-0.011723,-0.003315,-0.000108,0.099449,0.017508,-0.000111,0.002885,-0.007522,-0.008590,0.002167,-0.000872,0.005326,-0.000033,-0.052504,-0.000057,0.006857,-0.000289,-0.019918,-0.006732,0.000211,-0.000077,-0.002091,-0.009754,0.002465,-0.006940,0.008535,-0.000263,-0.000100,0.015960,-0.000095,0.052293,-0.000255,-0.016608,0.092716,-0.279942,-0.112310,0.003768,-0.053486,-0.116392,-0.110524,-0.179985,0.000306,0.145260,0.099004,-0.056391,-0.192932,0.136448,-0.001974,0.012015,0.000470,-0.102868,-0.071699,0.232369,0.000333,-0.030103,-0.049665,-0.069521,-0.083795,0.071637,0.000235,-0.108812,0.139027,-0.011755,0.071900,-0.060828,-0.095387,-0.000172,0.115732,0.069403,0.000026,0.160637,-0.094635,-0.095149,-0.112499,0.157182,0.123854,-0.000063,0.001603,0.000189,0.141528,-0.098558,0.058078,-0.012493,-0.000439,-0.000032,-0.107192,0.057288,-0.030711,0.008631,-0.052549,-0.000428,-0.000244,-0.057921,0.000103,0.002109,0.000238,-0.000110,-0.021700,-0.036260,-0.005952,-0.008981,-0.003558,-0.005389,-0.015447,0.005916,0.000360,0.007426,0.019672,-0.007981,0.014482,0.027166,-0.006330,0.001212,0.000349,0.011584,-0.018862,-0.047905,0.000435,0.001130,-0.007117,-0.021525,0.016176,0.017315,0.000401,0.020634,0.000702,0.014641,-0.001002,0.000861,-0.009248,0.000455,0.008845,-0.008389,0.000551,-0.018066,0.013546,-0.011023,-0.017579,0.004303,0.000821,0.000493,-0.007211,0.000581,-0.002995,-0.009872,0.004724,0.002108,0.000812,0.000307,-0.018220,0.005816,-0.005929,0.017466,-0.010125,0.000440,0.000212,-0.008918,0.000432,-0.004697,0.002158,0.027610,0.021918,0.090101,0.000937,-0.015444,-0.005008,0.015301,0.007905,-0.003418,0.001155,-0.003488,0.039979,0.059513,-0.043422,0.021989,-0.001471,0.056554,0.003761,0.050303,0.006039,0.080341,0.003191,0.006756,-0.007772,0.005318,-0.118440,0.003299,0.003338,-0.006741,0.011144,-0.011491,-0.023571,-0.023561,-0.017986,0.002653,-0.009102,0.016676,0.002062,0.015877,-0.018768,-0.011032,-0.003629,0.009474,0.017155,0.001336,0.003278,0.002662,0.011690,0.001364,-0.047066,-0.016846,0.013676,0.002510,-0.012323,-0.088345,-0.002200,-0.025972,-0.011018,0.002874,0.001788,0.055700,0.002397
0.048324,0.000526,-0.035942,-0.002018,0.009108,0.001376,-0.004201,-0.056086,-0.041999,-0.017703,-0.122157,0.000546,0.107733,0.001162,-0.018937,0.004591,-0.001137,0.094578,-0.003262,0.000450,-0.007640,0.026787,0.003445,0.000546,0.002124,0.026932,0.006973,0.009261,-0.016704,0.000422,0.002245,0.007224,-0.040553,0.035814,0.017419,0.024474,0.000517,0.146124,0.017344,0.000492,-0.028125,0.000260,-0.025084,0.004538,0.001082,-0.018005,0.000485,-0.070447,0.000350,-0.011848,-0.081128,-0.035410,-0.001935,-0.000174,0.000451,-0.009187,0.020301,-0.018818,0.019046,-0.008502,0.000506,0.000419,-0.000377,0.000378,-0.149450,0.000610,-0.204701,-0.070350,-0.027980,-0.202742,-0.130526,-0.018526,0.140855,-0.153071,-0.122578,0.000569,-0.000220,0.035532,0.031333,0.022627,0.078313,0.127365,0.049759,-0.000420,0.043723,0.085287,0.003674,-0.000480,-0.070456,-0.049232,0.034308,-0.044746,0.099507,-0.000512,0.091469,0.054190,0.072035,0.026740,-0.316959,-0.012771,0.000713,0.225497,-0.166272,-0.000577,-0.056568,0.074647,0.107748,-0.123592,0.222435,0.092055,0.000560,-0.260471,-0.000004,0.227684,0.091039,0.043202,0.103497,0.000406,-0.000818,0.076229,0.186359,0.082546,0.054867,0.113220,0.000501,0.000423,0.161410,-0.000493,-0.002348,-0.000317,0.028084,-0.000925,-0.026505,-0.018178,0.004341,-0.016017,0.017346,-0.004151,0.005933,-0.000013,-0.008142,-0.005337,-0.012667,-0.017961,0.012546,-0.002370,-0.011369,-0.000412,0.020895,-0.003899,0.002914,-0.000313,-0.001870,-0.000961,-0.016179,0.015416,0.023337,-0.000232,-0.006435,-0.004903,0.007505,-0.016473,-0.030104,-0.018971,-0.000215,0.007833,-0.040351,-0.000240,0.033965,-0.000847,-0.005764,-0.014291,-0.009898,0.018901,-0.000220,-0.046846,-0.000322,-0.006858,0.007436,0.020410,-0.015231,-0.000474,-0.000216,0.005674,0.004526,0.004918,-0.034787,0.007760,-0.000359,-0.000301,-0.015262,-0.000123,0.029314,0.005209,-0.131369,-0.029985,0.095642,0.000618,-0.074487,0.041361,-0.029265,-0.032798,-0.022250,-0.001657,0.024241,0.041256,0.094901,0.011354,0.086503,0.020851,0.013490,0.002545,0.028084,0.052870,0.024474,0.003032,-0.004865,0.144641,0.010123,0.083129,-0.019019,0.002116,0.013802,0.010585,-0.023438,0.147523,0.024543,0.061298,0.001457,-0.028045,0.017141,0.000580,-0.099653,0.005159,-0.026005,0.048175,0.010743,-0.119061,-0.000344,-0.056892,0.002545,-0.009202,-0.014598,-0.126246,0.001472,0.005650,0.001514,-0.024816,0.116027,-0.044184,0.103004,-0.111276,0.002516,0.003000,-0.019559,-0.000033
0.022736,0.008713,0.065627,0.053543,0.054351,0.055027,0.056511,0.035471,0.049876,0.054526,0.066785,0.011155,-0.010674,0.060169,0.062410,0.053689,0.061413,-0.011187,0.051708,0.009450,0.058003,0.050283,0.058520,0.008881,0.017926,0.050268,0.009087,0.052543,0.054318,0.008781,0.065616,0.055698,0.003926,0.043978,0.044609,0.041581,0.008778,0.004098,0.047553,0.008322,0.061379,0.052567,0.043898,0.059400,0.053589,0.060826,0.008536,0.037432,0.007913,0.048503,0.092720,0.062820,0.055329,0.006548,0.008489,0.050823,0.049155,0.035180,0.047686,0.058518,0.009192,0.008126,0.056520,0.008845,0.036536,0.016981,-0.015597,-0.023099,0.057861,0.004070,0.006700,-0.035743,0.043087,0.023836,0.009764,0.018064,-0.005168,-0.024302,0.005850,0.015085,0.012049,-0.080288,-0.057345,-0.016279,-0.028676,-0.105114,-0.030644,-0.015953,-0.043141,0.065825,0.005712,-0.070286,-0.019544,-0.016633,0.045267,-0.042593,-0.042005,-0.041462,0.051494,0.074344,0.016353,-0.118784,0.040431,-0.016558,0.016398,0.002357,0.052237,0.075388,-0.094475,0.017656,0.016631,-0.021356,-0.021654,-0.022249,-0.033304,0.016444,0.011590,-0.013822,-0.015924,0.011141,0.063691,-0.025196,0.013797,-0.050885,0.015867,0.017425,-0.019692,-0.017489,-0.033605,0.014268,-0.045687,-0.053670,-0.036330,-0.044333,-0.045587,-0.048354,-0.040548,-0.042349,-0.053282,0.016539,-0.036599,-0.050035,-0.048612,-0.052083,-0.044629,-0.057178,-0.041168,0.013663,-0.045332,-0.040879,-0.047605,0.013880,-0.044182,-0.038446,-0.026373,-0.040086,-0.048091,0.013567,-0.046078,-0.048334,-0.041164,-0.036421,-0.039908,-0.036181,0.013742,-0.044902,-0.031739,0.014054,-0.046446,-0.048724,-0.044519,-0.038361,-0.046835,-0.043869,0.013875,-0.029760,0.011615,-0.040746,-0.063309,-0.050044,-0.039643,0.010507,0.013706,-0.035574,-0.043035,-0.026005,-0.029340,-0.054023,0.013654,0.013399,-0.046663,0.014235,0.037432,0.048398,0.044840,0.041666,0.009287,0.055940,0.057770,0.007432,0.052850,0.056826,0.075898,0.035763,0.040410,0.051313,0.027325,0.032989,0.025232,0.056308,0.020099,0.048446,0.030078,0.037127,0.057173,0.047766,0.061500,-0.001503,0.039901,-0.005365,0.060689,0.048335,0.061592,0.055649,0.052352,0.005193,0.043883,0.022185,0.049115,0.027602,0.047301,0.047500,0.062204,0.047770,0.053493,0.026956,0.026597,0.023619,0.049749,0.022731,0.046254,0.042469,0.072909,0.032565,0.060926,-0.000344,0.047079,0.043687,-0.012642,0.034038,0.009746,0.078288,0.048705,0.047757,0.053515,0.048577
0.009926,0.004624,0.039897,0.014788,0.025215,0.017333,0.025300,0.062071,0.067367,0.029730,0.066342,0.005521,-0.072774,0.036599,0.027611,0.030077,0.033561,-0.077782,0.033765,0.004624,0.016274,0.021763,0.022743,0.004267,0.012092,0.020020,-0.016020,0.022615,0.027506,0.004254,0.041443,0.033692,-0.045393,0.019298,0.022467,0.019493,0.004156,-0.002603,0.024928,0.004004,0.032931,0.013135,0.042896,0.027503,0.026155,0.030419,0.004137,-0.052537,0.003787,0.026745,0.054957,0.037072,0.019908,0.003020,0.004305,0.020421,0.025869,0.029904,0.039644,0.032536,0.004375,0.003891,0.019271,0.003992,0.030835,0.008558,0.036482,-0.068224,0.045287,0.057961,0.093318,0.100917,-0.067325,0.002515,0.040453,0.008677,-0.044198,-0.013540,0.016179,0.072633,0.059921,-0.163963,-0.118562,-0.008302,-0.110531,-0.171736,0.002204,-0.007766,-0.032165,0.099356,-0.099697,0.011514,-0.023034,-0.007847,0.069731,-0.030940,-0.077244,-0.018935,0.026409,-0.138744,0.007917,-0.145114,0.071393,-0.007607,0.062229,-0.068091,-0.066836,0.034127,0.025161,0.048175,0.007963,-0.068415,-0.007108,0.047423,-0.042971,0.030175,-0.043364,-0.006195,-0.007895,-0.009615,-0.017084,0.041716,0.050307,-0.036055,0.007617,0.007458,0.030728,-0.011009,-0.006968,0.006669,-0.016023,-0.013929,-0.023944,-0.013242,-0.022957,-0.020386,-0.027104,-0.015771,-0.012147,0.008720,-0.008328,-0.028598,-0.019133,-0.037105,-0.001473,-0.035825,-0.003994,0.006215,-0.018442,-0.009743,-0.026029,0.006573,-0.025462,-0.007417,-0.000642,-0.044251,-0.025771,0.006110,-0.024905,-0.021767,-0.016195,-0.012411,-0.005500,-0.023114,0.006597,-0.015452,-0.004850,0.006280,-0.046026,-0.015430,-0.025889,-0.019747,-0.013092,-0.005674,0.006215,-0.003235,0.005574,-0.013268,-0.024308,-0.020656,-0.019909,0.004802,0.006549,-0.031957,-0.030715,-0.020735,-0.019756,-0.029786,0.006188,0.006175,-0.013480,0.006360,0.018413,0.013148,0.071465,0.002758,-0.068752,0.016136,0.026709,0.083384,0.049162,0.034252,0.040741,0.020665,0.004159,0.072624,0.010433,0.074257,-0.006077,0.007858,-0.006571,0.023387,-0.036622,0.021032,-0.012291,0.021985,0.032658,-0.046566,0.009958,-0.017820,0.027624,0.022630,0.040145,0.033153,0.018628,-0.003436,0.023212,0.001260,0.022923,-0.071856,0.028935,0.021333,0.044655,-0.003813,0.054512,0.026096,0.040503,0.029916,0.023311,-0.041416,0.022133,0.023694,0.039003,0.068979,-0.002598,-0.033090,0.040107,0.012856,0.006700,0.047061,0.079930,0.044967,0.022981,0.021190,0.012295,0.020355
0.046766,0.025523,0.148223,0.150500,0.166607,0.142440,0.154918,0.099580,0.102721,0.127291,0.007477,0.016392,0.055651,0.145219,0.158603,0.144688,0.151631,0.146757,0.150609,0.026598,0.155833,0.143760,0.145384,0.025738,-0.031314,0.146646,0.075957,0.166160,0.127363,0.025759,0.111840,0.128467,0.076386,0.122653,0.133714,0.114057,0.025322,0.125720,0.115974,0.024858,0.135108,0.118976,0.106499,0.157560,0.147088,0.142652,0.024459,0.051291,0.024992,0.126090,0.088531,0.127840,0.142481,0.017778,0.025494,0.138631,0.150111,0.079533,0.126219,0.146462,0.026117,0.025452,0.100626,0.025491,-0.024168,0.046126,-0.010197,-0.054325,-0.028527,0.032624,-0.042960,-0.122679,-0.068722,-0.014709,-0.004022,0.038109,0.049765,0.092952,0.074166,-0.038349,0.065412,0.034407,0.012531,-0.047241,0.035837,-0.045759,0.000540,-0.046623,0.039899,-0.013779,-0.073253,-0.033334,0.054734,-0.046451,-0.040461,0.056902,0.037699,-0.023422,-0.003264,0.045922,0.046278,0.104789,-0.028826,-0.044861,-0.100275,-0.025439,0.057561,0.007702,-0.000964,0.042045,0.044930,0.002627,-0.063558,0.023208,-0.007267,0.034620,-0.047976,-0.041942,-0.045906,0.006473,-0.029711,-0.014478,-0.025577,0.064924,0.047333,0.049324,0.008673,-0.032700,-0.094854,0.039109,-0.122729,-0.118720,-0.116292,-0.127693,-0.124091,-0.114215,-0.108545,-0.105240,-0.133508,0.021093,-0.104328,-0.079495,-0.074185,-0.096831,-0.090228,-0.113492,-0.118299,0.040583,-0.121765,-0.118230,-0.094820,0.040322,-0.104594,-0.120938,-0.096250,-0.113144,-0.080391,0.040371,-0.100493,-0.109742,-0.115211,-0.114283,-0.120497,-0.107038,0.040628,-0.142867,-0.103940,0.038935,-0.085759,-0.107055,-0.117123,-0.104181,-0.135762,-0.091954,0.039080,-0.112924,0.031222,-0.119391,-0.136233,-0.107290,-0.093759,0.028423,0.041073,-0.101250,-0.122922,-0.072485,-0.095135,-0.126371,0.040674,0.037270,-0.113261,0.038585,0.096371,0.111371,0.077618,0.120072,0.164104,0.142360,0.052760,0.082537,0.122944,0.116506,0.178161,0.075921,0.136236,0.033069,0.051031,0.074996,0.065435,0.144127,0.117239,0.125745,0.136614,0.133634,0.090042,0.124008,0.145379,0.110334,0.125103,0.104225,0.126980,0.124153,0.138939,0.144027,0.152287,0.054459,0.128533,0.077246,0.130656,0.128651,0.117741,0.109911,0.069796,0.113525,0.100427,0.085859,0.040919,0.099155,0.119905,0.100916,0.096305,0.113182,0.179253,0.075745,0.097918,-0.023740,0.119282,0.104525,0.055949,0.025284,-0.015312,0.037149,0.126599,0.106588,0.051768,0.118105
-0.022428,0.000466,-0.002599,0.004994,0.002071,-0.000674,-0.004210,-0.064384,0.015043,-0.009848,0.052906,0.000234,-0.082510,0.003171,-0.007008,0.013244,0.016265,-0.018152,-0.006958,0.000806,0.000805,0.003987,0.001481,0.000557,0.002337,0.003369,-0.000853,0.003438,0.011327,0.000425,0.007290,-0.004478,0.015876,0.008827,0.006691,-0.005936,0.000467,-0.036078,0.016826,0.000417,0.012074,0.016855,-0.019066,-0.001565,0.004493,-0.002550,0.000429,-0.024716,0.000462,-0.010130,-0.033643,0.005201,-0.001602,0.000111,0.000422,0.002011,0.014949,0.005269,0.007098,0.000843,0.000527,0.000551,0.006782,0.000405,0.097039,0.000993,-0.132033,0.012519,-0.022251,-0.003035,0.113147,-0.049840,-0.071259,-0.062847,0.058858,0.000370,0.041248,0.019218,0.165777,0.070345,-0.105684,-0.007835,-0.082790,-0.000914,0.003293,0.029534,-0.014787,-0.000757,0.151536,0.093533,-0.062864,0.024273,-0.067649,-0.000838,0.163256,-0.016767,0.038495,-0.031529,0.047887,0.070211,0.000744,-0.012319,-0.099625,-0.000723,0.104737,0.011113,0.120431,-0.046586,-0.105959,0.140955,0.000638,0.058375,-0.000536,0.004248,0.105427,0.067467,0.027864,-0.000374,-0.000744,-0.043056,0.070721,-0.074765,0.116966,-0.016025,0.000927,0.000788,0.018676,-0.000760,-0.001817,0.000629,0.024755,-0.004215,-0.007597,0.008007,0.005076,-0.005732,0.012748,0.003998,0.005658,0.000587,-0.000569,-0.005540,0.038599,-0.010436,-0.027438,-0.004212,0.017950,0.000414,0.004076,0.004626,0.005011,0.000494,-0.000944,0.012466,0.002826,-0.006422,-0.008931,0.000395,-0.008259,0.002650,-0.007263,-0.006913,-0.000051,0.007449,0.000519,0.005202,-0.008692,0.000467,-0.010356,-0.001247,0.005588,-0.002568,-0.003070,0.024226,0.000472,-0.017171,0.000414,0.011072,-0.006300,0.012437,-0.011798,-0.000004,0.000570,-0.013769,-0.021836,0.011798,-0.003885,-0.008310,0.000424,0.000347,-0.002689,0.000501,-0.004744,-0.000026,-0.045053,0.018103,0.003575,0.000224,-0.040739,0.034357,0.013760,-0.020202,0.012709,0.003202,-0.017923,0.027525,-0.079834,0.082709,0.105200,-0.001151,-0.024587,0.000542,0.010229,0.002813,-0.004231,0.000913,-0.000302,-0.019348,0.006677,0.019401,0.017133,0.001270,0.007167,-0.004727,0.007634,0.021689,0.006169,-0.024815,0.001925,0.003997,0.021986,0.001590,0.063876,0.035671,-0.014201,-0.002803,0.006774,-0.067919,0.001648,0.026799,-0.000367,-0.016653,-0.012047,-0.026049,-0.002321,-0.008690,0.002149,0.003345,0.073544,0.019038,0.038549,-0.008492,0.000792,0.000193,0.011680,0.001662
0.011199,-0.000237,-0.000594,0.010828,0.006575,-0.006341,-0.004732,-0.059839,0.005171,0.003304,0.074897,-0.000297,-0.072072,-0.005508,-0.007201,-0.005219,0.010549,0.014205,-0.012189,-0.000323,0.003963,-0.000183,0.004459,-0.000288,-0.088830,0.003430,-0.016630,0.002125,0.012043,-0.000280,-0.001994,0.005694,0.047495,-0.006200,-0.005940,-0.013680,-0.000296,-0.017453,-0.021043,-0.000161,0.010120,0.023741,-0.000881,0.000389,0.006620,0.016500,-0.000248,0.006218,-0.000333,-0.004694,-0.010379,0.019156,-0.005437,-0.000171,-0.000155,0.005377,0.002312,0.000492,-0.015569,-0.007638,-0.000340,-0.000319,0.001949,-0.000180,0.170856,-0.000401,-0.128533,0.203986,-0.181729,0.003011,0.019143,-0.213079,0.071555,-0.023757,0.083631,-0.000387,0.084604,0.086860,0.178533,-0.041425,-0.056495,-0.139014,-0.024479,0.000486,-0.036424,0.071306,0.040112,0.000307,0.108162,-0.029727,-0.129953,0.081021,-0.054797,0.000425,-0.071566,-0.005329,0.044585,0.091004,0.113807,0.082637,-0.000421,0.083474,0.104416,0.000354,0.023067,0.126083,-0.114620,-0.155370,-0.096952,-0.075906,-0.000431,0.069322,0.000093,0.091327,0.123218,-0.110014,-0.091805,0.000383,0.000428,-0.125715,-0.063396,-0.052134,0.072041,0.085258,-0.000452,-0.000402,-0.092245,0.000592,-0.005376,-0.000001,0.017827,-0.025572,-0.009962,0.010630,0.009963,0.017178,0.008996,-0.005838,-0.005189,-0.000682,0.008386,0.012687,0.052724,0.018582,-0.021679,0.009642,0.013984,-0.000172,0.004255,0.001786,0.001221,-0.000163,0.005476,-0.004267,0.001696,-0.008232,-0.011497,-0.000178,-0.014828,-0.015356,-0.009449,-0.000917,0.008451,0.011270,-0.000141,-0.008198,0.023628,-0.000116,-0.006024,-0.002930,-0.012258,-0.005388,-0.006158,-0.016026,-0.000042,0.007449,-0.000246,0.010591,-0.018155,-0.011899,-0.002124,-0.000257,-0.000173,-0.006001,-0.015668,0.005669,-0.001165,0.004458,-0.000178,-0.000235,-0.001313,-0.000151,0.001824,-0.002729,-0.020995,0.035470,0.069035,-0.006981,-0.028701,-0.126137,0.006537,-0.000335,0.007298,-0.002357,-0.017966,-0.010256,-0.114397,-0.041067,0.109051,-0.009092,-0.023915,-0.003776,0.016542,-0.000841,0.031234,-0.002762,-0.013099,0.017141,-0.001327,0.010613,0.021085,-0.002350,-0.003819,0.000503,0.010188,-0.065394,-0.010757,-0.038589,-0.001336,0.040031,-0.026576,-0.002875,0.059920,0.052570,0.001134,0.037086,0.016112,0.039389,-0.001013,0.019448,-0.004137,-0.003199,-0.008970,0.043079,-0.019719,0.002528,-0.001033,0.022177,-0.023578,0.014005,-0.073137,-0.011995,-0.003401,-0.002933,0.014342,-0.000949
-0.067681,0.000141,0.015792,-0.005485,0.003869,0.011045,0.015429,0.043893,0.019351,0.015282,0.000090,0.000168,-0.036484,0.012027,-0.006182,0.000618,-0.005300,-0.049479,-0.017929,0.000306,-0.000899,-0.010441,0.010512,0.000182,0.060316,-0.010914,-0.013763,-0.016138,0.000983,0.000195,0.020355,0.003559,-0.041920,-0.022562,-0.003886,-0.014411,0.000186,0.023465,-0.002849,0.000132,0.012634,0.010198,0.024461,-0.001710,0.002008,0.020391,0.000128,-0.057775,0.000148,0.012524,-0.001651,0.023189,0.008552,0.000313,0.000114,0.004844,-0.011777,0.023488,-0.007816,0.011667,0.000284,0.000276,0.027927,0.000201,0.058713,0.000261,-0.003976,0.004586,0.013713,-0.024123,0.015888,0.075279,0.007836,0.023580,-0.109959,-0.000165,0.092878,-0.266544,-0.040059,0.055478,-0.011243,0.016368,-0.175353,-0.000506,-0.196516,-0.219511,0.130500,-0.000394,0.032965,0.113345,0.003263,-0.089677,-0.005227,-0.000381,-0.079153,-0.098472,-0.159813,-0.079236,0.090331,0.060649,0.000416,-0.076972,0.132250,-0.000397,0.014617,0.041164,-0.131605,0.020431,-0.178180,-0.104648,0.000208,0.133887,-0.000151,0.019753,0.134121,-0.181319,-0.023637,-0.000716,-0.000244,-0.032641,-0.012365,-0.030966,0.042014,-0.078461,0.000401,0.000350,-0.070172,-0.000429,0.020148,0.000389,-0.015208,0.009149,-0.011579,-0.000824,-0.012857,-0.008036,-0.017819,-0.010903,0.002302,0.001062,0.006554,-0.047402,-0.006759,-0.000834,-0.005772,-0.016842,0.028593,0.000532,0.009066,0.013681,-0.022369,0.000585,-0.004703,0.011304,0.001041,-0.007227,-0.004586,0.000539,0.000070,-0.007537,0.009813,0.016529,0.013567,0.016269,0.000366,0.013225,0.013488,0.000482,-0.019092,-0.007128,-0.025165,0.012911,-0.000144,-0.038216,0.000555,0.044691,0.000763,-0.009522,0.026522,-0.042611,0.026436,0.000661,0.000318,-0.006291,-0.000944,-0.020302,0.015946,0.001139,0.000625,0.000403,-0.004872,0.000451,-0.035880,0.000623,0.034556,-0.033002,-0.022698,0.014491,0.099540,-0.078985,0.019924,0.024024,0.003691,0.003962,-0.009314,0.110496,-0.069750,-0.023908,0.000052,-0.013449,-0.079727,0.001788,-0.059791,-0.021043,0.068165,0.001099,0.009256,-0.075870,-0.013370,-0.168611,-0.005648,0.001069,0.022870,0.004096,-0.003582,-0.073111,-0.002542,-0.043511,-0.000502,-0.106686,-0.010926,0.001113,0.055092,0.010460,0.011292,-0.014919,0.011693,0.067938,0.001473,0.025649,0.002038,0.014028,0.001543,0.077078,0.027816,0.018552,-0.000608,0.015394,-0.056480,0.038237,-0.041037,0.090967,0.001838,0.002482,0.070345,0.000836
0.006838,-0.000366,-0.012859,-0.006700,0.006465,0.000791,-0.001257,-0.004311,-0.013374,0.011760,-0.103843,-0.000441,0.026229,0.011783,-0.014635,0.002489,-0.010850,0.017274,-0.007600,-0.000540,-0.007181,-0.005508,-0.003138,-0.000415,0.137807,0.014213,0.010730,0.007865,-0.023966,-0.000313,-0.001173,0.012851,-0.029859,0.015336,0.005855,0.001376,-0.000332,0.162632,-0.005845,-0.000317,-0.016182,0.001603,-0.001720,-0.010449,-0.018955,0.000879,-0.000329,-0.000774,-0.000312,-0.003635,0.007391,-0.006960,-0.005045,-0.000230,-0.000276,-0.006906,0.009995,-0.007590,0.016965,0.000930,-0.000471,-0.000344,-0.010803,-0.000264,-0.005353,-0.000846,-0.165929,-0.023017,-0.005878,-0.090004,-0.097859,-0.028684,0.021041,-0.124180,-0.160282,0.000240,0.092216,-0.049197,0.019417,0.087663,0.186652,0.059219,-0.108324,0.000981,-0.222955,-0.312659,0.079051,0.000895,-0.015963,-0.046714,-0.043257,0.126882,0.162133,0.000659,-0.055276,0.042058,-0.076293,0.088909,-0.175286,-0.058061,-0.000615,0.274309,0.072473,0.000741,-0.171016,0.105587,-0.061605,0.119989,-0.045003,-0.031004,-0.000732,-0.143939,0.000641,0.215176,-0.034357,-0.093606,0.005338,0.000619,0.000682,-0.027599,-0.089868,0.094836,-0.013681,0.151652,-0.001033,-0.000755,0.111871,0.000715,0.015327,-0.000712,0.018657,-0.003841,-0.025945,-0.011069,0.012451,0.000777,-0.007123,-0.003265,0.018552,-0.000605,0.015190,-0.017354,-0.006188,-0.011604,0.043596,0.000385,0.016993,-0.000768,0.022299,0.022577,-0.010515,-0.000617,-0.001801,0.013071,-0.008698,-0.016662,0.043471,-0.000669,0.009160,-0.007609,0.017759,-0.001168,-0.004739,-0.004128,-0.000612,0.006627,-0.006680,-0.000671,0.016135,0.000623,-0.017484,0.017788,0.002290,-0.003409,-0.000584,-0.014719,-0.000656,-0.002325,0.001510,-0.000103,-0.007342,-0.000523,-0.000627,-0.017087,0.007980,-0.012116,-0.016588,0.008775,-0.000622,-0.000702,0.006967,-0.000613,0.004209,-0.004133,-0.017917,-0.040325,-0.011233,0.001704,-0.011643,-0.034511,-0.011487,0.019124,-0.019793,-0.005144,0.004110,0.106758,0.054237,-0.006682,0.068053,-0.000895,-0.019346,-0.003097,-0.021585,-0.009094,-0.048688,-0.003072,0.009416,0.062892,0.000841,0.026760,-0.027282,-0.002906,0.006081,0.014469,-0.012794,0.063079,0.012251,0.011097,-0.002603,-0.144949,-0.013844,-0.003578,-0.075996,0.006510,-0.008614,-0.056719,-0.099817,-0.008335,-0.002902,0.056080,-0.003689,0.000378,-0.003329,0.003327,-0.005249,0.010301,-0.001872,-0.012703,0.040800,-0.022435,0.078933,-0.046988,-0.003065,-0.003633,-0.039837,-0.003354
-0.002750,0.000147,-0.003149,0.002294,0.001820,0.002475,0.001050,-0.012528,-0.005621,-0.001125,-0.022011,0.000171,0.007978,0.001982,-0.001500,0.003323,0.001434,-0.006896,-0.000960,0.000258,-0.002538,0.004233,0.002649,0.000263,0.036857,0.002750,0.006880,-0.001262,-0.002525,0.000221,0.000030,-0.001685,-0.014098,0.003152,-0.000708,0.002936,0.000220,0.022744,0.007008,0.000241,-0.001667,0.000232,-0.006672,-0.000895,-0.000243,-0.003455,0.000166,-0.008270,0.000198,0.001167,0.000208,-0.006416,0.001371,-0.000016,0.000140,0.000337,0.002014,0.000907,0.002641,0.000902,0.000271,0.000182,0.005229,0.000168,-0.013300,0.000219,-0.005027,0.001490,-0.000091,-0.022373,0.002799,0.021763,0.011201,-0.042409,-0.028096,0.000321,0.010474,-0.043515,-0.018329,-0.010733,-0.027100,0.016062,-0.003899,-0.000302,-0.033586,0.006241,0.025376,-0.000270,-0.003573,-0.021065,0.019079,-0.024400,0.011925,-0.000429,-0.010928,0.012235,-0.017563,-0.020413,-0.017588,0.020030,0.000303,0.005330,-0.029975,-0.000321,0.016549,-0.003892,0.034920,0.019617,0.004326,0.028957,0.000287,-0.010354,-0.000260,0.002373,-0.007298,0.032053,0.011993,-0.000106,-0.000266,0.002974,0.022298,0.009076,0.006854,0.001140,0.000312,0.000285,-0.003291,-0.000374,0.000488,-0.000049,0.001650,-0.000066,-0.003386,-0.001539,-0.002263,-0.008335,-0.001640,0.000819,-0.001127,0.000343,-0.003461,-0.008162,-0.002366,-0.003556,-0.002751,-0.003102,0.000546,0.000160,0.001882,-0.000274,-0.005885,0.000057,0.002565,0.000160,-0.002430,0.001547,0.000954,0.000203,0.004993,0.000473,0.002631,-0.000738,-0.002674,-0.002153,0.000118,0.004359,-0.003469,0.000169,-0.001178,-0.003447,-0.001466,0.000193,-0.001327,0.003993,0.000204,-0.004066,0.000197,-0.003008,0.002932,0.000518,0.001453,-0.000082,0.000064,-0.000773,0.002498,0.001030,-0.000280,-0.000740,0.000120,0.000214,-0.001581,0.000154,0.000085,0.004608,-0.022317,0.003840,0.001028,0.003249,-0.000396,0.008636,-0.002226,-0.002972,-0.002440,0.001646,0.002488,0.022871,0.005346,0.005532,0.017918,-0.002885,-0.004211,0.001577,-0.012384,0.006501,0.011313,0.001375,0.004868,0.011920,0.000946,-0.018656,-0.004134,0.000966,0.001456,0.001328,-0.005072,0.017070,-0.001572,0.003733,0.000616,-0.029515,0.008963,0.001213,-0.011699,-0.001159,-0.006169,-0.006344,-0.004100,-0.023845,0.000974,0.021702,0.001702,0.001548,0.000473,-0.031098,0.004517,0.004279,-0.001872,0.000317,0.006795,-0.001924,0.015585,-0.010639,0.001528,0.001204,0.010809,0.000899
0.030850,0.001756,0.024227,0.001145,0.007067,0.006943,0.009468,0.063125,0.009080,0.016930,-0.113538,0.001251,0.052863,0.015537,0.020557,-0.001329,-0.004510,-0.007820,0.025045,0.001492,0.003489,0.013429,0.014725,0.001408,-0.045411,0.002166,-0.041409,0.002310,0.002214,0.001459,0.022901,0.020090,-0.055691,0.009211,0.007501,0.024584,0.001533,0.046690,0.005440,0.001343,0.002275,-0.006128,0.034519,0.013604,0.017941,0.022429,0.001590,-0.013256,0.001340,0.028244,-0.036044,0.006822,0.011082,0.001399,0.001802,-0.000516,-0.010681,0.012682,0.010737,0.014161,0.001455,0.001412,0.021783,0.001825,-0.083587,0.003754,0.169723,-0.048854,0.075877,0.128004,0.064793,-0.034894,0.073000,0.068241,-0.174562,0.004098,-0.081943,-0.012632,-0.154677,-0.037595,0.180669,-0.030141,0.017055,-0.002952,0.159702,0.018094,-0.027979,-0.003017,-0.124665,-0.021499,0.065732,-0.088158,0.102249,-0.002372,0.043916,-0.047965,-0.010332,0.022028,0.056636,-0.038707,0.002838,-0.084239,0.059314,-0.002552,-0.071010,0.004485,-0.102744,-0.047440,0.098004,-0.059715,0.003233,-0.106569,-0.000388,0.033049,0.045235,-0.093123,0.062325,-0.002421,-0.002954,0.126457,0.018456,0.064909,0.016252,-0.008418,0.002766,0.002058,0.009094,-0.004580,-0.000356,0.002684,-0.026215,0.003701,0.004800,-0.003373,-0.007059,0.011834,-0.020599,0.000368,-0.014563,0.001532,-0.001322,-0.012992,-0.056063,0.002552,0.037141,-0.005878,-0.021801,0.002105,-0.021185,-0.033503,-0.022492,0.002483,-0.010418,-0.019360,-0.002658,0.005259,0.004385,0.002046,-0.017631,-0.013667,-0.009757,-0.005544,-0.004684,-0.010785,0.002198,-0.005350,-0.002711,0.002213,0.008272,-0.002358,-0.011254,-0.021005,-0.005394,-0.026389,0.002160,0.001329,0.002161,-0.016267,0.001920,-0.021999,-0.008696,0.002319,0.002369,0.004849,0.007103,-0.014171,-0.015312,-0.003332,0.002210,0.002249,-0.011080,0.002627,0.020798,0.016008,0.078907,-0.000105,-0.024758,0.006994,-0.003561,-0.033843,0.002960,0.028431,0.003358,0.013139,0.022754,0.031059,0.115917,-0.028692,-0.153814,0.018640,0.042259,0.009231,-0.020172,0.022106,0.033177,0.009591,0.011364,0.007378,-0.011135,-0.026489,-0.007759,0.009855,0.019428,0.020295,-0.003890,-0.013063,0.004230,0.056649,0.008396,-0.003191,0.000937,0.008047,-0.016883,-0.024245,0.031300,0.026984,0.093378,0.088413,0.008515,-0.108119,0.009447,0.043737,0.009469,0.069517,0.029565,0.002040,0.000205,-0.030890,-0.098160,0.012224,0.007680,0.036308,0.008491,0.008239,0.028267,0.007947
0.038727,0.010186,0.058174,0.063353,0.063830,0.060190,0.064569,0.036852,0.013179,0.052724,0.031848,0.011904,0.061282,0.059002,0.066073,0.058822,0.066996,0.058554,0.059267,0.010253,0.059445,0.063485,0.053932,0.009678,0.000617,0.055402,0.017598,0.063568,0.055528,0.009578,0.060818,0.057761,0.046164,0.034165,0.053428,0.047728,0.009536,0.020911,0.042601,0.009106,0.053114,0.051838,0.051786,0.066725,0.061997,0.062459,0.009205,0.044315,0.008902,0.050837,-0.019824,0.054844,0.070809,0.006896,0.009996,0.054757,0.062639,0.026546,0.046082,0.055186,0.009996,0.009097,0.049047,0.009474,0.002677,0.018651,0.016276,0.052008,0.024299,0.016051,0.013126,0.003632,0.103258,0.026357,0.037218,0.020527,-0.039680,0.016680,0.017451,0.000828,-0.056809,-0.039164,0.046350,-0.018555,-0.022036,0.029634,-0.066186,-0.018256,-0.025098,0.037494,0.067267,-0.027837,0.005398,-0.018198,-0.060453,-0.052999,-0.042603,-0.012217,-0.040907,0.124486,0.018152,-0.100538,-0.027192,-0.017979,-0.057694,0.087052,0.006733,0.055281,0.020484,-0.025638,0.018026,-0.026227,-0.023121,-0.038144,0.129440,-0.002903,0.038854,-0.015190,-0.017122,0.058251,-0.070027,-0.009385,-0.065230,0.011014,0.017931,0.019245,0.058178,-0.018795,-0.036968,0.015220,-0.062094,-0.056089,-0.044701,-0.050230,-0.048863,-0.055833,-0.041501,-0.047416,-0.059677,0.017216,-0.053797,-0.042333,-0.051470,-0.051753,-0.072476,-0.056332,-0.054225,0.014525,-0.055007,-0.049139,-0.031735,0.015050,-0.033306,-0.055386,-0.026688,-0.059094,-0.049352,0.014575,-0.039506,-0.055488,-0.044553,-0.038987,-0.048140,-0.039630,0.014399,-0.063034,-0.026441,0.015059,-0.030589,-0.053621,-0.049147,-0.041198,-0.060772,-0.061283,0.014918,-0.039181,0.012459,-0.056451,-0.057171,-0.051773,-0.057072,0.010994,0.014731,-0.023142,-0.048612,-0.025246,-0.040820,-0.051744,0.014750,0.014445,-0.045368,0.014993,0.045921,0.057353,-0.002750,0.066660,0.067050,0.063430,0.072315,0.020500,0.031198,0.049679,0.069063,0.038894,0.062539,0.014829,-0.003463,0.001122,0.040574,0.060250,0.039114,0.052298,0.021912,0.066515,0.040225,0.051652,0.061065,0.050555,0.046396,0.054409,0.054620,0.050581,0.057100,0.058736,0.062734,0.000303,0.050358,0.032580,0.052324,0.066998,0.047914,0.049095,0.002028,0.040578,0.064359,0.030664,0.022242,0.020405,0.055787,0.033484,0.049850,0.047964,0.071107,0.007482,0.097179,0.014084,0.047781,0.025731,0.033568,0.005947,-0.005167,0.038104,0.052838,0.054437,0.029447,0.050353
0.022135,0.000780,0.016796,-0.000577,0.004524,0.004553,0.004111,0.018061,0.001423,0.008305,-0.032296,0.000449,0.013184,0.008877,0.014828,-0.003642,-0.004134,-0.052187,0.016539,0.001029,-0.003123,0.000380,0.012808,0.000597,0.079675,-0.001220,-0.044477,-0.008758,0.000701,0.000638,0.013972,0.015213,-0.043604,0.001509,0.004120,0.014802,0.000651,-0.008000,0.025290,0.000523,0.001447,-0.012848,0.005225,0.001778,0.009092,0.005999,0.000617,-0.032555,0.000603,0.012975,-0.093427,-0.012755,0.009356,0.000452,0.000699,-0.012568,-0.009815,0.006725,0.008786,0.008797,0.000626,0.000565,0.021739,0.000538,-0.038118,0.001295,0.042978,0.039925,-0.072192,0.028289,0.150186,0.075460,-0.025280,0.034217,-0.092046,0.000690,-0.104345,0.037324,-0.123117,0.013778,0.077766,-0.079994,0.010971,-0.001236,-0.001085,-0.176380,0.125119,-0.001162,-0.103392,0.056262,-0.020801,-0.108428,0.003015,-0.001103,0.167403,-0.076005,-0.025168,0.037156,-0.082373,-0.089801,0.001117,-0.080131,-0.007733,-0.001056,0.046808,-0.133315,-0.029834,0.032811,0.119939,0.084345,0.001095,-0.153889,-0.000615,-0.044143,0.233595,0.084231,0.201742,-0.001088,-0.000872,0.170819,0.004502,0.006321,0.056486,-0.109972,0.001272,0.000987,0.005453,-0.001413,0.009738,0.000948,-0.016623,0.007708,-0.014021,0.000736,-0.005208,-0.002982,-0.008162,-0.006163,0.002645,0.000633,-0.006295,0.001288,-0.037485,-0.017733,0.027537,-0.014284,-0.002569,0.000760,0.000579,0.002136,-0.033476,0.000816,-0.005868,0.010784,0.004952,0.006372,0.009199,0.000759,-0.006645,-0.008577,0.003659,0.004241,0.005560,-0.005233,0.000821,0.001958,-0.009402,0.000807,0.007725,0.005462,0.004433,0.001111,0.003237,0.010109,0.000653,-0.015134,0.000655,-0.021293,0.030368,0.014752,-0.010466,0.000916,0.000915,0.010132,0.001039,-0.006255,-0.007273,-0.000072,0.000678,0.000702,-0.006492,0.000756,0.020971,0.002472,0.058150,0.009679,-0.021294,0.006590,-0.024203,0.049274,0.000069,0.014171,0.004066,0.006010,0.008664,0.026805,0.108390,-0.008271,-0.064538,-0.018752,0.047055,0.003504,-0.006259,0.005272,0.034143,0.003833,0.019683,-0.027896,-0.009664,-0.093565,-0.003050,0.003092,0.015342,0.014524,-0.009346,-0.025945,0.006466,0.022941,0.002615,-0.010029,0.025543,0.003419,-0.033270,-0.035352,0.009355,-0.018640,0.065298,0.009866,0.002261,-0.091274,0.004435,0.015297,-0.010789,-0.032701,0.036627,0.006789,0.004071,-0.050268,-0.071722,0.004143,0.068537,0.037747,0.003003,0.004453,0.050254,0.003086
0.022935,0.000463,-0.000213,0.000028,0.000581,0.003424,0.007915,0.039438,-0.041562,-0.008081,-0.177723,0.000580,0.096385,0.001045,0.008629,0.005965,-0.005049,0.004178,0.010037,0.000647,-0.004139,0.006374,-0.002957,0.000443,0.102224,-0.000596,-0.004974,-0.002438,-0.013236,0.000448,0.009432,-0.003581,0.021169,-0.013013,0.006947,0.007119,0.000353,0.021180,0.021080,0.000147,-0.013645,-0.011121,0.014602,0.008600,-0.008170,-0.011043,0.000338,0.003947,0.000615,0.014285,-0.015653,-0.019679,0.005829,0.000300,0.000435,0.006737,0.009909,-0.007941,0.011912,0.004205,0.000559,0.000571,-0.006617,0.000617,-0.047246,0.000595,0.056030,0.017844,-0.088768,0.130212,0.147395,0.193353,0.072397,-0.022930,-0.109117,-0.000197,-0.145330,-0.180664,-0.136106,0.097100,-0.035485,-0.007015,0.127477,-0.000887,0.037361,-0.166422,-0.018712,-0.000851,-0.083000,0.067361,0.176255,-0.028483,-0.029161,-0.000559,0.157824,0.022865,-0.045940,-0.142726,0.047266,0.179548,0.000433,0.114442,-0.116021,-0.000550,-0.084458,-0.139422,-0.014888,-0.025201,-0.060126,0.102218,0.000436,-0.043166,-0.000195,-0.115954,0.332868,0.069398,-0.046537,-0.000602,-0.000344,0.025235,-0.111013,0.075965,-0.007521,0.017533,0.000897,0.000830,0.029225,-0.001163,0.020346,0.000708,-0.022752,0.016227,-0.017493,0.005230,-0.002434,-0.023468,-0.008653,0.010232,-0.018575,0.000683,-0.013220,-0.022210,-0.038392,-0.019307,-0.015227,-0.020382,-0.019336,0.000019,-0.009758,0.014101,-0.002110,0.000284,0.015494,0.000492,0.009931,-0.016900,-0.018851,0.000294,0.004480,0.010912,-0.000253,0.008877,0.006139,0.003194,0.000237,-0.014773,-0.009296,0.000204,0.014164,-0.008178,-0.005577,-0.001131,-0.008784,0.016363,0.000310,0.016564,0.000154,-0.024326,0.053593,-0.005162,0.024043,0.000514,0.000241,0.011386,0.002688,-0.001526,-0.007544,0.007493,0.000330,0.000366,0.004193,0.000158,0.018957,0.004141,-0.039838,0.014695,0.024276,0.005729,0.020554,0.114520,-0.034550,-0.006076,-0.013319,0.004537,0.025953,-0.005342,0.012917,0.021320,-0.079657,-0.026412,0.017085,0.004722,-0.035023,0.013905,-0.011070,0.003458,0.017503,-0.004686,-0.001827,-0.030981,-0.027964,0.002919,0.015978,0.001152,0.006315,-0.034100,0.012228,0.008231,-0.000450,0.000568,0.030113,0.002504,-0.107594,-0.043200,0.018521,0.061916,-0.075860,-0.066906,0.001979,0.027285,0.005912,0.019301,0.001184,-0.064318,0.024104,-0.000146,-0.000777,0.034619,0.059301,-0.031177,0.074826,0.026585,0.004224,0.005678,-0.030465,0.000774
-0.023145,-0.011297,-0.065188,-0.070798,-0.082963,-0.070005,-0.077319,-0.066640,-0.050520,-0.060994,0.021371,-0.012376,-0.054618,-0.075735,-0.067419,-0.075207,-0.074846,-0.076606,-0.067450,-0.012500,-0.070085,-0.082180,-0.071910,-0.011785,0.040432,-0.064631,-0.046334,-0.077189,-0.060027,-0.011713,-0.066768,-0.069437,-0.007146,-0.060961,-0.069321,-0.057135,-0.011688,-0.118972,-0.061355,-0.011261,-0.062852,-0.061870,-0.066056,-0.081600,-0.071571,-0.068006,-0.011090,0.017579,-0.010831,-0.063160,-0.058570,-0.063089,-0.071618,-0.008309,-0.011665,-0.069039,-0.075623,-0.041740,-0.064387,-0.073589,-0.012169,-0.011201,-0.051402,-0.011916,0.012246,-0.022368,0.024267,0.008873,0.000245,0.011313,0.031854,-0.015516,-0.058167,0.017075,0.072649,-0.021718,-0.063224,0.081991,-0.102156,0.007985,-0.063842,0.030433,0.041836,0.021698,0.049427,-0.022852,0.006688,0.021872,0.000254,-0.079317,-0.048056,0.056611,-0.043653,0.022057,0.028928,-0.020741,0.043590,0.008066,0.050203,0.012312,-0.021952,0.001445,0.025765,0.021829,0.036260,-0.047767,0.013528,0.000781,-0.073863,-0.058246,-0.021830,0.074442,0.029292,-0.072519,-0.022091,0.014237,0.059462,0.018689,0.020623,-0.001677,-0.014845,-0.022074,-0.029716,-0.046253,-0.021925,-0.023132,-0.055363,0.021115,0.041537,-0.018511,0.057996,0.060378,0.068945,0.064744,0.060330,0.067791,0.053991,0.053647,0.067996,-0.018113,0.051599,0.056846,0.048179,0.058348,0.050986,0.068109,0.060438,-0.017967,0.052269,0.066498,0.049579,-0.018340,0.048667,0.064940,0.046563,0.061183,0.046731,-0.018108,0.047695,0.060355,0.052916,0.053126,0.069151,0.052729,-0.018317,0.062424,0.048435,-0.018533,0.049753,0.056816,0.066765,0.064508,0.070876,0.052448,-0.018495,0.044477,-0.014819,0.057717,0.076768,0.069311,0.053436,-0.013304,-0.018924,0.054014,0.059423,0.039048,0.050240,0.067124,-0.018186,-0.017555,0.058254,-0.018531,-0.045153,-0.064810,-0.016157,-0.037512,-0.101893,-0.070597,-0.074561,-0.049368,-0.062427,-0.055707,-0.078534,-0.043758,-0.068717,-0.076501,-0.020810,-0.043667,-0.049765,-0.082339,-0.041442,-0.064247,-0.039223,-0.079909,-0.065553,-0.062643,-0.069058,-0.058538,-0.060269,-0.043015,-0.064458,-0.062354,-0.077124,-0.070922,-0.064715,-0.043323,-0.066163,-0.039839,-0.064482,-0.032683,-0.062794,-0.058835,-0.030058,-0.058269,-0.058231,-0.074384,-0.026190,-0.029647,-0.065308,-0.016827,-0.057817,-0.063006,-0.088652,-0.035848,-0.063130,-0.018674,-0.061207,-0.063896,-0.046788,-0.020979,-0.011664,-0.032104,-0.064736,-0.057972,-0.020226,-0.061315
0.046187,0.007861,0.064470,0.048845,0.048424,0.044397,0.050295,0.059716,0.027038,0.047878,0.096727,0.008699,0.012797,0.047103,0.067392,0.040039,0.055952,0.024788,0.056123,0.008339,0.054610,0.044138,0.045481,0.007848,-0.016882,0.036276,-0.004018,0.050447,0.052141,0.007761,0.053427,0.052492,0.041550,0.028450,0.040949,0.034392,0.007665,-0.075319,0.035175,0.007319,0.052411,0.032256,0.052340,0.059403,0.049935,0.056355,0.007460,0.068407,0.006904,0.045935,0.058322,0.054367,0.050265,0.005893,0.007384,0.047337,0.046939,0.024876,0.038070,0.047127,0.008115,0.007112,0.031581,0.007439,0.060598,0.015599,-0.016555,0.030779,-0.013369,0.002959,0.068701,0.001480,-0.036649,0.071117,0.084943,0.016895,-0.079078,0.073855,-0.008827,-0.034610,-0.012576,-0.054774,0.007103,-0.014447,-0.013104,-0.066206,-0.071832,-0.014334,-0.045857,0.018149,0.015440,-0.025068,-0.039654,-0.014783,0.035331,-0.057919,0.002825,0.006754,0.060629,-0.044349,0.014698,-0.159250,0.039956,-0.014638,-0.037118,-0.050459,-0.030780,0.028614,-0.008753,0.013921,0.014746,-0.037694,-0.018431,-0.112283,0.074770,0.056809,-0.056712,-0.012678,-0.014435,0.008643,-0.112252,0.011847,-0.046178,-0.053382,0.014495,0.015373,-0.051423,-0.013713,-0.029266,0.012810,-0.058297,-0.054153,-0.032750,-0.039129,-0.041535,-0.038442,-0.034820,-0.037910,-0.049261,0.015085,-0.037967,-0.019220,-0.060005,-0.040086,-0.045995,-0.055129,-0.055102,0.012218,-0.050510,-0.034415,-0.034061,0.012604,-0.034089,-0.038670,-0.016344,-0.054683,-0.052247,0.012044,-0.042476,-0.041530,-0.040807,-0.028608,-0.028150,-0.034687,0.012453,-0.064610,-0.019555,0.012475,-0.035707,-0.036038,-0.034695,-0.042913,-0.043289,-0.034443,0.012322,-0.022282,0.010411,-0.045036,-0.052647,-0.033684,-0.035104,0.009578,0.012964,-0.025354,-0.043077,-0.020831,-0.026231,-0.042997,0.012202,0.011914,-0.036274,0.012566,0.045679,0.047075,0.071684,0.074593,0.018121,0.045022,0.037770,0.044642,0.034340,0.049097,0.069337,0.032933,0.042687,-0.035927,0.023656,-0.004820,-0.015216,0.041453,0.074507,0.042191,0.033347,0.045123,0.012639,0.041759,0.052711,-0.006093,0.034506,0.036683,0.052692,0.041786,0.048619,0.051307,0.056804,-0.040460,0.038287,0.017603,0.042742,0.101570,0.039477,0.039194,0.015890,0.017268,0.064353,0.057032,0.029593,0.044868,0.044171,-0.005194,0.040949,0.035972,0.069525,0.032474,0.036236,-0.013822,0.043667,0.046108,-0.003720,0.009815,-0.005114,0.058840,0.042338,0.042753,0.017474,0.038337
0.001092,0.000968,-0.002369,0.007394,0.013339,0.009001,0.011909,0.049986,0.017423,0.008407,-0.099564,0.001472,0.033587,0.002794,0.001435,0.019572,0.000886,-0.010637,0.004634,0.000949,0.013791,0.020558,0.025877,0.000934,0.088323,0.023512,0.043264,0.002431,0.000492,0.000983,0.012775,0.004882,-0.001021,0.013831,0.010655,-0.003124,0.001066,0.091328,0.018116,0.001071,0.009905,0.005869,0.024594,0.005541,0.005278,0.008231,0.001046,-0.081972,0.001127,0.004137,0.001501,-0.001041,0.014567,0.001070,0.001184,0.000816,-0.005382,0.005016,0.004778,0.017247,0.000911,0.001142,0.019902,0.001476,0.063893,0.002557,-0.125454,-0.007473,-0.002710,0.066689,-0.125874,0.020083,0.115928,-0.053101,-0.098867,0.003558,0.161032,-0.041711,0.044330,0.008912,0.183968,-0.087047,0.036854,-0.001332,0.051202,-0.044602,0.121470,-0.001632,-0.043658,0.020487,0.158691,-0.229022,0.062982,-0.001349,0.117791,0.177698,0.167154,-0.143526,0.087414,0.031197,0.001665,0.127834,-0.062946,-0.001675,-0.032331,-0.082314,-0.124815,0.014951,-0.025543,0.009614,0.002320,0.026541,-0.000059,0.272149,-0.049385,-0.024885,0.100679,-0.002134,-0.001802,0.103802,0.171792,0.037313,0.064915,0.064694,0.001533,0.001466,0.058620,-0.003483,-0.003527,0.002544,0.001031,-0.011758,-0.021576,-0.001588,-0.012217,-0.023544,-0.002052,-0.012985,-0.025022,0.001561,0.013418,-0.010957,-0.010572,-0.008002,0.028174,-0.009656,-0.012025,0.002095,0.000313,-0.021712,-0.014471,0.002138,-0.013466,-0.009865,-0.026271,0.027837,0.000418,0.002258,-0.000663,-0.010711,-0.004688,-0.001248,-0.001523,0.000406,0.002250,-0.000799,-0.015165,0.002323,-0.006249,0.000717,-0.025064,0.010027,-0.005732,-0.036495,0.002285,-0.006868,0.002180,-0.004936,0.002626,-0.024017,-0.018800,0.002115,0.002312,0.006604,0.000619,-0.004803,0.001190,-0.008736,0.002183,0.002276,-0.010403,0.002337,0.004518,0.012425,0.002564,-0.018865,0.053415,0.007777,0.016270,0.037884,0.017001,0.009800,0.000581,0.011714,0.014528,0.001948,0.077752,0.035278,0.005623,-0.003883,0.002844,0.009191,0.051148,0.023835,0.125193,0.009802,0.014977,0.045993,0.013136,-0.052610,-0.001164,0.009092,0.015688,0.005515,0.003699,0.036933,0.012132,-0.025775,0.008657,-0.064478,0.014021,0.007953,0.032734,-0.005141,0.021876,-0.020946,-0.004412,-0.002895,0.007920,0.015086,0.008393,0.000778,0.009176,0.018973,0.036060,-0.000346,0.009454,-0.010773,-0.071600,-0.003633,-0.009864,0.023271,0.009744,0.010738,0.041039,0.007480
-0.020448,0.000189,0.009850,-0.003241,-0.001798,0.003449,-0.002203,-0.022498,0.025305,0.006228,-0.002799,0.000211,-0.046135,0.012570,-0.002820,-0.001981,-0.001428,-0.021986,-0.008642,0.000326,-0.006695,-0.003964,0.002048,0.000159,-0.030017,-0.001647,-0.022355,-0.002887,0.000404,0.000184,0.008428,0.005469,-0.079092,0.008408,0.001756,0.009815,0.000202,0.025385,-0.002647,0.000244,0.006141,0.009010,-0.003891,-0.000531,0.006668,0.008127,0.000185,-0.019358,0.000188,0.006715,-0.007433,0.012422,-0.003908,0.000025,0.000195,-0.001781,-0.005820,0.016012,0.005658,0.003086,0.000215,0.000147,0.016355,0.000195,-0.030974,0.000329,0.019718,-0.045322,0.092768,-0.004276,-0.012353,-0.110747,-0.018103,0.002550,-0.048053,-0.000000,0.027447,-0.130065,0.007907,-0.036632,0.044603,0.025002,-0.104706,-0.000357,-0.033637,0.019790,0.010479,-0.000275,0.007373,0.017506,-0.072195,-0.019623,0.068240,-0.000203,0.057122,-0.102166,-0.056921,0.039826,0.040154,-0.048411,0.000284,-0.042150,0.055876,-0.000256,0.007414,0.077942,0.071130,-0.013210,-0.055928,-0.077122,0.000222,-0.024296,-0.000003,0.038651,-0.024923,-0.017658,0.009235,0.000022,-0.000272,0.006448,0.054760,-0.004998,0.095541,-0.040014,0.000312,0.000138,-0.033807,-0.000237,0.001242,0.000077,0.008245,0.002389,0.007757,-0.001595,0.003220,0.011458,-0.006121,0.001260,0.007722,0.000544,0.005405,-0.023740,0.005030,0.007893,0.012270,0.000423,0.012920,0.000069,0.007786,-0.011802,-0.009725,0.000058,-0.011236,0.004311,0.001172,0.007473,0.013108,0.000165,-0.012283,-0.006922,0.001128,-0.004461,-0.003985,-0.000409,0.000081,0.018277,-0.002126,0.000230,-0.000118,-0.003396,-0.000209,-0.010744,0.004820,-0.006930,0.000129,-0.004257,0.000023,0.005470,-0.006874,-0.006386,0.004406,-0.000168,0.000062,-0.011938,0.002230,-0.006334,-0.008526,-0.000359,0.000095,0.000157,-0.006940,0.000130,-0.010574,-0.001611,0.040702,-0.014891,-0.048566,0.005278,-0.010702,-0.079594,0.016524,0.010116,0.005127,0.000297,-0.011129,0.086145,0.008399,-0.003112,-0.015986,0.010978,-0.031780,-0.000826,-0.048503,-0.006913,0.006292,-0.000644,-0.000479,-0.018644,-0.007683,-0.024484,0.000531,-0.000305,0.009087,0.003832,-0.014676,0.026778,-0.000774,0.014202,0.000314,-0.056478,-0.011047,-0.000194,0.038656,0.025471,-0.006242,-0.005180,0.068151,0.045448,-0.000070,-0.030344,-0.001097,0.015342,-0.004230,0.044258,-0.004372,-0.000175,0.000333,-0.010902,-0.021072,0.039799,0.016279,0.013506,-0.000793,-0.001581,0.041028,0.000532
-0.034983,-0.000077,-0.007428,-0.004268,-0.001529,-0.004002,0.001730,0.030968,0.024014,-0.002910,0.074701,-0.000199,-0.053238,-0.003046,-0.012787,0.016073,0.008452,-0.010866,-0.011334,-0.000381,-0.002215,-0.000824,-0.009546,-0.000066,-0.018752,0.001897,0.023963,0.006677,0.004079,-0.000127,-0.002155,-0.007318,0.040188,-0.001772,0.002459,-0.018008,-0.000148,-0.025513,-0.012352,-0.000100,0.006004,0.003209,0.014514,-0.008606,0.000988,-0.000788,-0.000122,-0.030960,-0.000162,-0.013662,-0.007007,0.012751,0.009154,-0.000312,-0.000092,-0.001924,0.006811,0.003109,-0.001169,-0.001930,-0.000158,-0.000159,-0.012369,-0.000187,0.058942,-0.000047,-0.019531,-0.069638,0.087774,0.055968,-0.036629,0.070508,-0.012543,-0.002678,0.154268,0.000312,0.070043,0.040862,0.153454,0.079147,-0.078010,-0.050017,-0.087711,0.000186,-0.014054,0.060673,-0.071416,0.000160,0.099615,0.003398,-0.000213,0.086584,-0.048777,0.000174,-0.059843,0.078395,0.002759,-0.089866,0.057568,-0.020796,-0.000160,-0.016180,0.023735,0.000175,0.019362,0.019559,-0.077223,0.102040,-0.013515,-0.018585,-0.000298,0.082475,0.000128,0.058944,-0.006920,-0.089998,0.064406,0.000660,0.000083,0.057741,-0.011544,-0.012709,-0.039120,0.039396,-0.000221,-0.000203,0.088312,0.000355,-0.000451,-0.000264,0.006750,0.011360,0.002120,0.007264,0.001581,0.001180,0.006590,-0.003438,0.004731,-0.000398,0.003061,-0.000514,0.032127,-0.010122,-0.015867,0.006425,0.018294,-0.000311,-0.000868,0.009631,0.030204,-0.000268,0.002440,0.003883,0.004834,-0.017900,-0.009134,-0.000217,0.008332,-0.001003,-0.001251,0.001697,0.010866,0.008203,-0.000249,-0.004457,0.013625,-0.000312,-0.014160,0.001344,-0.002196,0.021788,0.000700,-0.007670,-0.000275,0.004073,-0.000370,0.013698,-0.005061,-0.004014,-0.020018,-0.000613,-0.000214,0.001305,-0.014718,0.001823,0.001871,-0.005149,-0.000303,-0.000231,0.012511,-0.000390,-0.024460,-0.001062,-0.025168,-0.027583,-0.029064,-0.004787,0.036169,0.045707,0.019304,-0.005306,0.001806,-0.001346,-0.015386,-0.018360,-0.097804,0.062096,0.063838,-0.001199,-0.048159,-0.001620,-0.011433,-0.007104,-0.024981,-0.001425,-0.009091,-0.008528,0.005023,0.060673,0.005969,-0.001640,-0.007354,-0.008592,0.011595,0.007973,0.007982,-0.039743,-0.000799,-0.045636,-0.010687,-0.001467,0.052873,0.009299,0.014382,-0.053088,-0.018577,0.003525,-0.001190,0.030244,-0.002133,-0.028519,-0.002969,0.053159,0.017648,-0.011958,-0.006706,-0.013054,0.041981,0.013747,-0.024419,-0.002469,-0.001626,-0.001714,-0.030868,-0.001051
0.034998,0.008086,0.054655,0.045414,0.043282,0.045665,0.049415,0.011055,0.038558,0.045730,0.081554,0.010464,0.003666,0.053886,0.055524,0.051477,0.063550,0.006398,0.046361,0.008823,0.055674,0.047043,0.047449,0.008266,-0.098134,0.043199,0.006236,0.057901,0.054793,0.008183,0.059423,0.051011,0.010614,0.052675,0.044029,0.047198,0.008129,-0.019827,0.038481,0.007787,0.055203,0.057723,0.027315,0.066207,0.048293,0.049725,0.007920,0.114406,0.007523,0.038451,0.092073,0.064906,0.041738,0.006151,0.008240,0.054424,0.054484,0.029507,0.047226,0.054500,0.008570,0.007790,0.032315,0.008537,0.026709,0.016050,-0.065371,-0.073356,0.128546,0.027768,-0.067480,-0.087761,0.108350,0.051490,0.024097,0.017498,-0.042096,-0.022724,0.091043,0.103293,-0.008571,0.000613,-0.040140,-0.015835,0.028992,0.034085,-0.083969,-0.015423,-0.062264,0.111651,-0.046945,-0.101047,-0.004173,-0.015660,0.106813,-0.099449,0.004629,0.054012,0.075952,0.015940,0.015551,-0.048529,0.022039,-0.015566,-0.007201,-0.000651,0.090394,-0.053585,-0.116734,0.046704,0.015658,0.025693,-0.020743,-0.021057,-0.017020,0.033357,-0.100589,-0.012984,-0.014445,-0.041094,0.097374,0.020341,-0.053637,-0.073978,0.015379,0.016633,-0.015476,-0.016760,-0.041026,0.013374,-0.028215,-0.049594,-0.012596,-0.041928,-0.038673,-0.036108,-0.035010,-0.037318,-0.049296,0.015600,-0.034477,-0.040634,-0.027982,-0.051999,-0.055006,-0.055617,-0.044209,0.012627,-0.040986,-0.046134,-0.029433,0.013039,-0.044720,-0.034039,-0.022190,-0.034935,-0.045210,0.012589,-0.054324,-0.040848,-0.042855,-0.043945,-0.038476,-0.040443,0.012855,-0.040943,-0.036425,0.013107,-0.036189,-0.046809,-0.033685,-0.060587,-0.047269,-0.027818,0.012925,-0.030099,0.010917,-0.031840,-0.069950,-0.035575,-0.026502,0.009734,0.013348,-0.039207,-0.045634,-0.019003,-0.031839,-0.049287,0.012714,0.012540,-0.047653,0.013339,0.039918,0.045692,0.010431,0.016882,-0.010731,0.043623,0.036669,0.002723,0.044786,0.045785,0.075694,0.032620,0.038945,0.021708,0.018594,0.074289,0.033110,0.076487,0.015298,0.043212,0.043101,0.039046,0.024612,0.042750,0.041904,0.009963,0.041839,0.076811,0.061962,0.043251,0.054431,0.048249,0.052538,0.033949,0.041780,0.045020,0.045826,0.107748,0.034529,0.041558,0.055429,0.067265,0.039296,0.101681,-0.000861,-0.013563,0.047395,-0.010517,0.039601,0.030372,0.067632,0.019511,0.037986,-0.028107,0.047880,0.071058,0.053099,0.027093,0.008585,0.095649,0.043737,0.041738,0.006471,0.043222
-0.000871,-0.001686,-0.011443,-0.008500,-0.016445,-0.013819,-0.020251,-0.075436,0.017137,-0.011804,0.067024,-0.002176,-0.105505,-0.008961,-0.013202,-0.004235,-0.008318,-0.102104,-0.007828,-0.001547,-0.019859,-0.026745,-0.008437,-0.001429,0.037178,-0.018741,-0.027173,-0.014277,0.001267,-0.001431,-0.009099,-0.006005,-0.033552,-0.003426,-0.020938,-0.006478,-0.001459,-0.044495,0.007976,-0.001432,0.000768,-0.003818,-0.030433,-0.013304,-0.006340,-0.022729,-0.001632,-0.014471,-0.001306,-0.016132,-0.077952,-0.011803,-0.019516,-0.001484,-0.001805,-0.015309,-0.005545,0.004730,0.001179,-0.007122,-0.001443,-0.001352,0.005738,-0.001160,0.134787,-0.008840,-0.036366,0.119978,-0.077594,-0.029966,0.123148,0.036078,-0.047454,-0.039583,0.072007,-0.005166,0.012617,0.056705,0.028926,0.052432,-0.084943,-0.138037,-0.050364,0.003011,-0.081718,-0.046037,0.036220,0.003044,0.022588,0.088484,-0.073952,0.006878,-0.071631,0.002568,0.118567,-0.039870,0.018577,0.019450,-0.010484,0.008857,-0.003235,-0.068879,-0.052562,0.002907,0.201431,-0.013965,0.012692,-0.044064,0.004310,0.110285,-0.003743,-0.082606,0.002740,-0.006003,0.058191,0.086821,0.046635,0.002609,0.003386,-0.049220,0.075944,-0.061353,0.082709,-0.103341,-0.002787,-0.003295,-0.023629,0.004312,0.001901,-0.003257,0.029051,-0.001660,0.006220,0.015485,0.007547,-0.000547,0.018085,0.001429,0.019402,-0.002907,0.000579,0.006895,0.043490,-0.006590,-0.006207,0.008978,0.035274,-0.002326,0.018270,0.027108,0.000794,-0.002730,0.006637,0.035370,0.013689,0.007816,-0.003756,-0.002233,0.004237,0.012160,0.012473,0.011554,0.028877,0.018046,-0.002662,0.026711,0.007800,-0.002329,-0.013617,0.005471,0.012954,0.009168,0.016085,0.043707,-0.002320,-0.005557,-0.002185,0.009446,0.018335,0.036236,0.005999,-0.003478,-0.003021,0.002227,-0.006109,0.013624,0.005084,0.002703,-0.002340,-0.002259,0.004752,-0.002928,-0.000119,-0.009812,-0.020822,0.023169,-0.049486,-0.014328,-0.050328,0.040244,0.008968,-0.018072,0.001664,-0.011483,-0.031503,0.018676,-0.030212,0.045572,0.065198,-0.045361,-0.021339,-0.010956,-0.021526,-0.022940,-0.009576,-0.009221,-0.003796,-0.062858,-0.010035,-0.045814,0.005957,-0.010894,-0.007621,-0.008636,-0.018057,-0.013682,-0.028454,-0.030227,-0.009635,-0.027438,0.012029,-0.007785,0.043562,-0.009561,-0.006306,-0.002521,0.013767,-0.076866,-0.008056,-0.006090,-0.010752,-0.021011,-0.031572,-0.074165,-0.038631,-0.016635,-0.029600,-0.031820,0.009696,0.030709,0.061615,0.015120,-0.009949,-0.011855,0.033000,-0.007585
-0.017818,-0.000306,0.004072,-0.017110,-0.015355,-0.018350,-0.012289,0.035650,0.030081,0.004195,0.013395,-0.000156,-0.091773,0.006210,0.003211,0.015210,0.004897,-0.084345,0.005815,-0.000356,-0.022018,0.006490,-0.020539,-0.000335,-0.047173,0.000784,0.012742,0.017786,-0.008575,-0.000352,-0.022150,0.003743,-0.109120,0.021396,-0.006984,0.004387,-0.000312,0.046683,-0.009382,-0.000274,0.005914,-0.010557,0.006485,0.007328,0.000009,-0.006251,-0.000227,0.012198,-0.000185,-0.000780,0.002710,0.005287,-0.017072,-0.000451,-0.000117,0.002995,0.013312,0.013381,0.025795,0.006259,-0.000409,-0.000309,-0.020258,-0.000186,0.042871,-0.000493,0.041837,-0.107685,0.168516,0.177807,-0.027655,-0.064266,-0.082404,-0.073162,0.079387,0.000190,0.056615,0.040902,-0.055024,-0.017337,0.127364,-0.089415,-0.035541,0.000665,0.019615,0.104102,-0.157313,0.000458,-0.107380,-0.013550,-0.085107,0.253082,0.115195,0.000615,-0.030144,0.145582,0.003193,0.034069,0.116165,-0.224796,-0.000496,0.012884,0.180174,0.000502,0.091158,-0.094012,-0.047860,-0.187319,0.047775,-0.011582,-0.000414,0.028753,0.000561,0.135496,0.019388,0.059890,-0.113206,0.000836,0.000480,-0.114621,-0.081877,0.098940,-0.127310,-0.005657,-0.000626,-0.000454,0.107991,0.000486,0.008648,-0.000515,0.023138,0.010690,0.017461,0.009254,0.014487,0.028868,-0.013642,0.015577,0.009448,-0.000682,0.007902,0.002914,-0.001088,0.008920,0.020659,-0.001304,0.008801,-0.000667,0.003691,-0.010711,0.025894,-0.000579,0.000954,0.004206,0.010508,-0.031833,0.017622,-0.000578,0.003745,0.016074,0.010717,-0.002143,0.015913,-0.009368,-0.000544,0.013366,0.007730,-0.000447,-0.024323,0.015856,0.004758,-0.012707,0.019181,0.042046,-0.000410,-0.006142,-0.000255,0.018736,-0.000368,0.022912,-0.004448,-0.000820,-0.000461,-0.027672,-0.018339,0.000561,-0.015189,-0.010540,-0.000567,-0.000272,0.013428,-0.000258,-0.010174,-0.006556,0.052524,-0.029921,-0.173878,-0.020819,-0.028106,0.059741,0.024711,0.011626,0.000958,-0.004547,-0.021641,0.032451,0.076738,0.090408,-0.035672,-0.003062,0.002877,-0.002494,-0.104176,0.009696,-0.147160,-0.003127,-0.001646,-0.026189,0.003860,0.117605,-0.009944,-0.002387,-0.025480,0.003222,-0.019717,0.064882,-0.010121,0.012476,-0.003171,-0.152486,-0.009013,-0.002416,0.021818,-0.016431,0.014060,0.070060,-0.004911,0.032927,-0.003195,-0.000262,-0.003002,0.001846,-0.002686,0.046242,-0.048115,-0.014380,-0.001313,0.008199,0.061560,0.039794,0.068521,0.019474,-0.003795,-0.004467,-0.049128,-0.002131
0.013534,-0.000663,0.001011,0.001065,-0.006442,-0.001050,-0.004367,-0.001229,-0.010429,-0.002758,-0.006511,-0.000561,0.012557,-0.003451,0.000764,-0.009703,-0.010019,-0.004673,-0.008132,-0.000623,-0.004836,-0.007430,-0.005338,-0.000605,0.052548,-0.003193,0.001858,-0.005050,-0.006746,-0.000591,-0.004936,-0.008558,-0.001332,-0.002250,-0.001410,-0.004943,-0.000586,-0.026226,-0.009185,-0.000526,-0.003994,-0.004877,0.005149,-0.010035,-0.000541,-0.001804,-0.000584,-0.024355,-0.000556,0.001022,0.022902,-0.001336,0.001272,-0.000512,-0.000679,-0.002907,-0.009983,-0.000499,-0.005648,-0.009797,-0.000608,-0.000544,0.001559,-0.000688,-0.012291,-0.001857,0.083119,0.075475,0.030902,-0.009254,-0.019912,0.005105,0.043286,0.007966,0.051141,-0.001217,-0.013144,-0.056612,-0.025719,-0.068967,-0.016636,-0.027549,0.025062,0.001231,-0.028108,0.053990,-0.011410,0.001212,0.019275,-0.069823,0.036825,0.030807,0.006902,0.000968,-0.005699,-0.009281,0.002926,-0.026290,0.016887,0.039104,-0.001124,-0.047509,-0.016139,0.000968,-0.058771,-0.009537,0.020500,0.097069,-0.059221,-0.092463,-0.001330,-0.000167,0.000246,-0.049270,-0.073744,-0.009404,0.033928,0.000924,0.001128,0.054597,-0.068313,0.015486,0.047864,0.085971,-0.001123,-0.000859,-0.036087,0.001779,0.001483,-0.001190,-0.005625,-0.000117,0.009460,0.005549,0.002222,0.001650,0.003618,0.006779,-0.007163,-0.000641,0.000075,0.003181,-0.001687,0.010477,0.007584,0.010659,-0.002675,-0.000860,-0.001768,0.002315,0.008087,-0.000940,0.003759,-0.000622,0.000589,0.002367,0.003438,-0.000844,0.004792,0.000980,-0.004479,0.004823,0.003831,0.009816,-0.000860,-0.003073,0.007538,-0.000844,0.008021,-0.000367,0.004345,0.013633,0.000656,-0.010763,-0.000823,-0.000436,-0.000854,-0.000166,0.001142,-0.003586,0.003300,-0.000867,-0.000929,0.009487,0.010019,0.002224,0.001043,0.008340,-0.000846,-0.000857,0.005917,-0.000915,0.004427,-0.003746,0.018271,0.016660,-0.013080,0.001666,-0.006715,-0.027341,-0.006979,-0.001382,-0.005597,-0.003695,0.001225,-0.016982,0.001487,-0.044288,-0.030654,-0.008409,-0.006478,-0.004518,-0.025290,-0.004935,0.003255,-0.003754,0.003369,0.017681,-0.005613,-0.006395,-0.008688,-0.005011,-0.005398,-0.006204,-0.004914,0.002738,0.001904,-0.001947,-0.003415,-0.028447,-0.009817,-0.002890,-0.012270,-0.006114,0.004569,-0.041561,0.027501,0.035468,-0.002709,0.018397,-0.003760,0.003648,-0.000097,0.019449,0.014641,0.002473,-0.009702,-0.007213,-0.036278,-0.001715,-0.004800,-0.037807,-0.003464,-0.002115,0.010682,-0.002819
0.051740,0.000052,0.011718,0.006758,0.000645,-0.000198,-0.003703,-0.010401,-0.017742,0.009187,-0.066603,-0.000110,0.041854,-0.002060,0.017849,-0.005994,-0.008179,-0.044034,0.018176,0.000033,0.004499,-0.001433,0.018397,-0.000020,0.137334,0.007305,-0.027269,-0.005389,-0.001457,-0.000054,-0.004968,0.006856,0.015700,0.002011,-0.008699,0.013086,0.000098,0.003268,0.008545,0.000046,-0.002657,-0.009175,-0.006048,-0.009277,0.000022,0.002411,0.000017,0.046104,-0.000153,0.012436,-0.006287,-0.016973,0.007944,0.000165,0.000119,-0.012725,-0.022482,-0.007253,-0.004418,-0.000050,-0.000047,-0.000014,0.012894,0.000301,-0.009797,0.000262,0.127764,0.092546,-0.016999,0.093362,0.073132,-0.067341,0.025469,-0.004184,-0.069264,0.000121,-0.050785,0.075256,-0.137806,-0.059044,0.078671,-0.105789,0.128606,0.000192,0.104543,-0.003211,0.141440,-0.000039,-0.077777,-0.164965,0.062072,-0.143668,0.035035,0.000049,0.003986,0.063871,0.102434,0.070882,0.058370,-0.009131,0.000268,-0.002220,0.001953,-0.000093,-0.062479,-0.090082,-0.011231,0.192441,-0.001878,0.006105,0.000223,-0.042025,0.000149,-0.041044,-0.067618,0.074240,0.181297,-0.000246,-0.000270,0.170788,-0.004416,0.004224,-0.004404,0.028731,-0.000039,-0.000071,-0.114108,-0.000359,-0.005775,0.000290,-0.015932,-0.007200,0.009919,0.011000,0.001679,0.002327,-0.004425,0.001829,-0.016195,0.000076,0.001725,0.016055,-0.025743,0.001562,0.030483,0.009683,-0.020145,0.000083,-0.013159,-0.014741,-0.031704,0.000219,0.002506,-0.010512,-0.004726,0.029263,0.011239,0.000167,0.004319,-0.005744,-0.004726,-0.001795,0.007444,-0.001216,0.000299,-0.004443,0.003530,0.000047,0.017594,0.000738,0.005069,0.014761,0.004573,-0.012527,0.000049,-0.024352,-0.000057,-0.013079,0.000653,0.004626,-0.015837,0.000586,0.000185,0.017094,0.021656,0.003827,0.005288,0.004109,0.000141,0.000139,0.000909,0.000067,0.030817,0.000799,0.051411,0.043700,-0.010072,-0.000633,-0.045276,-0.027879,-0.015160,0.014720,-0.003326,0.001524,0.013790,-0.037842,0.127671,-0.040195,-0.060313,-0.012549,0.072792,0.000447,0.039565,-0.001909,0.065015,0.000856,0.022101,0.041586,-0.009570,-0.080518,-0.002667,0.001033,-0.003485,0.009710,-0.002521,-0.020372,-0.012651,0.029804,0.001347,-0.004764,0.006995,0.001144,-0.048197,-0.021085,-0.000136,-0.086022,0.018870,0.025862,0.001112,0.014488,0.000461,0.020274,0.000527,-0.032906,0.032962,-0.003455,0.001411,-0.045771,-0.144275,-0.026241,-0.003204,-0.006106,0.000749,0.000618,0.040828,0.001058
-0.060531,-0.005905,-0.013036,-0.018635,-0.041673,-0.016903,-0.034150,0.006186,0.043991,-0.016195,-0.064062,-0.006047,-0.053254,-0.038048,-0.004965,-0.027415,-0.054546,-0.031754,-0.001938,-0.006174,-0.007457,-0.047554,-0.024008,-0.005626,0.073883,-0.041814,0.068943,-0.023421,-0.027305,-0.005632,-0.052460,-0.045799,0.000935,-0.015099,-0.027098,-0.042588,-0.005548,-0.056060,-0.006359,-0.005167,-0.006842,-0.031805,-0.029486,-0.033437,-0.043225,-0.030418,-0.005014,0.035620,-0.005478,-0.020529,-0.011603,-0.027643,-0.038187,-0.002904,-0.005226,-0.023886,-0.042537,-0.013966,-0.034065,-0.014407,-0.005804,-0.005127,-0.019348,-0.004345,0.117528,-0.012210,0.115184,0.119727,-0.017205,-0.032293,-0.071033,0.008544,-0.133636,0.068644,-0.096540,-0.011065,0.112780,0.069407,-0.097824,-0.046624,0.189190,0.093375,0.172701,0.010518,0.077170,-0.089987,0.007553,0.009857,-0.041775,0.214614,0.089435,-0.013656,0.102021,0.010245,0.171252,0.057827,0.189887,0.067815,0.081118,0.054749,-0.010486,0.022754,-0.131362,0.009282,0.071162,-0.164693,0.013833,-0.052723,-0.131603,0.041020,-0.009711,0.191453,0.004875,-0.073010,-0.066049,0.116928,-0.036828,0.006093,0.010193,-0.075535,-0.029328,-0.070944,0.000559,-0.129437,-0.010138,-0.009423,0.005192,0.011492,0.014949,-0.005857,0.001755,0.002687,0.038694,0.015456,0.014738,0.021776,0.020373,0.022532,0.017211,-0.008702,0.027276,0.043041,-0.003554,0.049402,0.079012,0.016563,0.000550,-0.005931,0.020471,0.012649,0.025778,-0.006188,0.012313,0.038849,-0.004453,0.049001,0.043625,-0.006048,0.028282,0.048689,0.017694,0.031916,0.021016,0.034140,-0.006306,0.020289,-0.013365,-0.006165,0.015974,0.036442,0.039307,0.016471,0.036985,0.027035,-0.006200,0.013547,-0.005723,0.019085,0.032266,0.041477,0.030859,-0.004116,-0.006167,0.011128,0.028280,0.018477,0.045244,0.012039,-0.005964,-0.006058,0.022573,-0.006198,-0.035982,-0.028276,0.123524,0.016665,-0.038462,-0.013402,-0.044060,0.025115,0.001718,-0.011696,-0.021884,-0.023631,-0.029841,-0.100657,0.115786,-0.022637,-0.174886,-0.034604,0.053328,-0.025922,0.065621,-0.044837,-0.031750,-0.025031,-0.016602,-0.127752,-0.000473,-0.001774,-0.030704,-0.024013,-0.055725,-0.043363,-0.013838,-0.021914,-0.031985,-0.065028,-0.023351,0.114512,-0.011317,-0.023212,0.066801,-0.045168,-0.025733,-0.034736,-0.091302,0.015203,-0.024697,0.060484,-0.030247,-0.031534,-0.035218,0.009327,-0.037091,-0.028750,-0.016446,0.016542,-0.080876,-0.001749,-0.050154,0.074447,-0.025598,-0.027608,0.000251,-0.021439
0.036742,0.000822,-0.017442,0.002286,0.003763,-0.002206,-0.000125,-0.059371,-0.021057,-0.006832,0.024443,0.000565,0.021292,0.003731,-0.014601,0.008311,0.015131,-0.043913,-0.010226,0.000965,-0.005690,0.008916,0.009947,0.000891,0.045710,0.014093,-0.004466,-0.003676,0.001069,0.000843,0.012300,0.001751,-0.011369,0.015619,-0.002310,0.014767,0.000824,0.034451,0.012938,0.000674,-0.006244,0.006784,-0.020190,-0.005148,0.003040,-0.010024,0.000679,-0.020825,0.000894,-0.009923,0.009055,-0.012146,0.004409,0.000114,0.000658,-0.006292,0.004099,-0.003595,0.006821,-0.005355,0.000912,0.000782,0.007541,0.000344,-0.065198,0.001373,-0.097351,-0.037427,0.055893,-0.097029,-0.019391,0.055317,0.116145,-0.073881,0.003452,0.000749,-0.007777,-0.003237,0.087326,0.104067,-0.122193,-0.055867,-0.087902,-0.001591,-0.024191,0.086032,0.097184,-0.001377,-0.005407,-0.088496,-0.015728,-0.139937,-0.028361,-0.001415,-0.023592,-0.006935,-0.000839,-0.011653,-0.093627,0.014314,0.001362,-0.069882,-0.102338,-0.001228,0.033870,0.074023,0.059495,0.129510,0.070579,0.080083,0.000873,-0.126950,-0.000860,0.043813,-0.203694,0.005375,0.084399,-0.000002,-0.001268,0.099792,0.218672,0.030808,0.044778,0.059474,0.001515,0.000947,-0.014806,-0.000854,-0.015541,0.000157,0.022230,-0.004725,-0.002671,-0.002579,-0.005118,-0.026574,0.009662,-0.005440,0.002087,0.000213,-0.006409,-0.014595,0.011546,-0.023418,-0.011127,0.004041,0.007222,0.000054,0.009263,0.007671,-0.011667,0.000078,-0.004539,0.001992,-0.003649,0.015819,-0.001678,0.000193,0.001476,-0.009009,0.000523,-0.012075,-0.008115,-0.008622,-0.000016,0.015941,-0.002012,0.000107,-0.000733,-0.012484,-0.008056,0.011510,-0.008505,0.001754,0.000100,-0.019924,-0.000094,0.002006,-0.012276,-0.004434,-0.008114,-0.000516,0.000095,0.004153,0.003283,0.005897,-0.008604,0.000662,0.000053,0.000009,-0.009103,0.000096,0.016548,0.003837,-0.115959,-0.016178,-0.005513,-0.004445,-0.012533,0.009491,-0.006380,-0.009867,-0.002110,0.001874,0.002068,0.045741,-0.017953,0.054126,0.130130,-0.003996,-0.039269,0.002867,0.004158,0.015525,0.065892,0.002732,0.002518,0.077862,-0.002828,-0.047659,0.001438,0.002243,0.016519,0.003481,-0.011514,0.062021,-0.005632,0.024769,0.002663,-0.074374,0.011225,0.002478,-0.036785,0.013661,-0.017271,-0.035581,0.014312,-0.110341,0.001573,0.000340,0.002520,-0.011719,0.002979,-0.086735,0.010646,0.008094,0.001999,-0.021992,0.016364,-0.010692,0.058363,-0.060648,0.002224,0.002376,0.012684,0.002190
-0.047075,-0.000657,0.018148,0.004780,0.006921,0.013073,0.001953,0.032535,0.045802,0.006094,0.079491,-0.000371,-0.060273,0.002155,0.002517,-0.013056,-0.012742,0.074836,0.001648,-0.000347,0.016758,-0.021920,-0.006220,-0.000541,-0.041761,-0.014225,0.002182,0.000389,0.006685,-0.000561,0.004123,-0.001398,0.052303,-0.016904,0.014701,-0.022059,-0.000583,-0.072607,-0.013389,-0.000561,0.011975,0.003138,0.018715,-0.010389,-0.000108,0.018123,-0.000530,-0.033892,-0.000754,0.001561,-0.003555,0.025946,0.002515,0.000163,-0.000581,-0.003347,-0.005721,0.005785,-0.011631,0.000210,-0.000671,-0.000587,-0.000469,-0.000536,0.052095,-0.001127,0.057981,0.042093,-0.087649,-0.060191,0.032176,-0.044041,-0.199242,0.116000,0.022491,-0.000769,0.046555,0.081564,0.098049,-0.070604,0.103349,0.102800,-0.078351,0.001192,-0.092340,-0.208291,-0.042992,0.001147,0.194391,0.136805,-0.090794,0.119152,-0.008396,0.000954,0.079571,-0.137363,-0.050817,0.044568,-0.069413,-0.029661,-0.000994,-0.005096,0.020834,0.000888,-0.051636,0.041083,-0.020569,0.089841,-0.066597,-0.068880,-0.000993,0.027387,0.000496,-0.052802,-0.001286,-0.089656,0.032250,-0.000149,0.001065,-0.023942,-0.162923,-0.113475,0.113766,-0.005741,-0.001053,-0.000804,0.037071,0.001142,0.007615,0.000275,-0.016515,-0.002280,-0.013309,-0.004520,0.003819,0.017733,0.004077,-0.005457,0.019056,0.000082,0.013214,0.017681,0.017138,0.012835,0.019973,0.003274,0.013807,0.000269,0.000834,0.007939,0.007752,0.000266,-0.010887,0.010100,0.000335,-0.012802,0.011191,0.000246,-0.005663,-0.005639,-0.006336,0.008471,-0.005804,0.017277,0.000272,-0.016508,-0.000949,0.000234,0.004356,0.009816,0.008487,0.001995,0.005382,-0.020264,0.000150,0.005449,0.000438,0.006301,-0.014924,-0.000902,-0.008866,0.000394,0.000294,-0.008124,-0.003478,-0.010594,0.010718,-0.001167,0.000337,0.000077,0.007756,0.000022,-0.022970,-0.007480,0.128462,0.013994,0.051402,0.016937,0.002548,-0.038426,0.026435,0.009367,0.010290,-0.000840,-0.014813,-0.011485,-0.068654,-0.064441,-0.055630,0.015259,0.009760,-0.003637,0.055185,-0.040286,-0.035117,-0.002267,-0.007036,-0.083667,0.002584,0.036367,0.015027,-0.001797,-0.000167,-0.004983,0.020251,-0.063890,0.024655,-0.044188,-0.000229,0.110274,-0.015997,-0.001778,0.082970,0.014501,0.012196,-0.077076,0.022074,0.119177,-0.001208,-0.021790,-0.004080,-0.001761,-0.002411,0.123363,0.006912,0.001872,0.003580,-0.012389,-0.025678,0.021404,-0.055163,0.011291,-0.003212,-0.003143,0.000235,-0.000911
0.027058,-0.000278,-0.004188,0.017893,0.000367,0.000295,-0.008216,-0.095052,-0.011965,-0.003711,0.009832,-0.000053,-0.019181,-0.005152,0.004436,-0.002302,0.005442,-0.002235,0.000845,-0.000353,0.002649,0.005224,0.004226,-0.000198,0.055207,0.008619,0.004376,0.002050,0.003494,-0.000308,-0.015315,-0.002870,0.005766,0.005458,-0.007853,0.000436,-0.000268,-0.003916,0.001245,-0.000139,0.004683,0.010505,-0.026294,-0.005329,-0.000858,0.000581,-0.000228,0.026706,-0.000219,-0.003365,-0.000579,-0.007045,-0.002174,-0.000272,-0.000234,0.000677,-0.000205,-0.005706,-0.006321,-0.006851,-0.000191,-0.000285,0.010988,-0.000291,0.090565,-0.000456,-0.016151,0.215168,-0.090231,-0.071106,-0.001666,-0.153666,0.067376,-0.075795,-0.002031,-0.000058,0.029775,0.056954,0.005589,-0.117942,-0.096109,-0.066955,0.095862,0.000493,-0.055233,0.104558,0.006189,0.000451,0.042649,-0.071863,-0.022869,0.015562,0.007463,0.000496,-0.063305,-0.000754,0.063663,0.062861,0.002604,0.148431,-0.000376,-0.008106,-0.073566,0.000328,0.058565,0.070497,0.083113,0.006350,-0.078772,-0.011016,-0.000392,-0.001409,0.000213,-0.036518,-0.009060,0.085007,0.001597,0.000430,0.000395,-0.047794,-0.022519,-0.044508,0.040959,0.061957,-0.000540,-0.000393,-0.102298,0.000302,-0.011263,-0.000225,0.008220,-0.028485,0.005289,0.002426,0.002835,-0.004559,0.007118,0.002256,-0.010626,-0.000235,-0.007239,0.009057,0.014295,0.012581,-0.016314,0.007639,-0.007439,-0.000232,-0.000668,-0.008229,0.000037,-0.000350,0.010446,-0.005706,-0.005466,0.010957,-0.000586,-0.000340,0.003983,-0.003481,-0.005211,-0.002697,-0.005521,0.001799,-0.000229,0.000802,-0.000765,-0.000296,0.002907,-0.010219,0.003942,-0.004149,-0.004548,0.000602,-0.000384,-0.019234,-0.000321,-0.000506,-0.018169,0.008326,-0.009490,-0.000414,-0.000269,0.002829,-0.000068,0.014844,-0.000268,0.000576,-0.000196,-0.000311,-0.004067,-0.000158,0.015480,0.000361,-0.042073,0.066271,0.037390,0.000053,-0.049869,-0.077345,-0.009757,-0.007398,0.003029,-0.000276,-0.003506,-0.016475,0.003782,-0.047526,0.058910,-0.001494,0.019176,0.000217,0.012235,0.007378,0.020734,-0.000028,0.006930,0.037998,0.002860,0.004440,0.008617,0.000451,-0.015194,-0.002554,-0.002989,0.009504,-0.013929,-0.000185,0.000941,0.024418,0.001391,-0.000153,0.013798,0.019750,-0.024809,-0.018173,-0.006018,-0.036384,-0.000013,0.058962,-0.000346,-0.001175,-0.004153,-0.070221,-0.006412,0.001635,0.000287,0.007154,-0.026433,-0.006073,-0.016658,-0.051217,0.000442,-0.000595,0.030922,0.000291
0.034936,-0.000645,0.005458,-0.007490,-0.007122,-0.000624,0.004168,0.056291,-0.013201,0.006358,-0.037747,-0.000598,0.094552,-0.008368,0.007260,-0.027354,-0.014399,0.036715,0.000278,-0.000650,0.000859,-0.006522,-0.003137,-0.000674,-0.196421,-0.016423,-0.028601,-0.011480,-0.002390,-0.000743,0.000215,0.004267,-0.048563,-0.020008,-0.010675,0.004785,-0.000720,0.002409,-0.026000,-0.000631,-0.010118,-0.010608,0.024297,0.020217,0.004144,0.006778,-0.000607,0.042342,-0.000697,0.013077,0.039632,0.005165,-0.009653,-0.000213,-0.000672,0.007971,-0.021515,-0.001396,-0.020100,-0.002293,-0.000673,-0.000710,-0.004418,-0.000620,-0.088543,-0.001170,0.039737,0.023117,-0.072441,0.038845,-0.114519,-0.066545,0.177648,0.165177,-0.044006,-0.000840,-0.072072,-0.069595,-0.113057,-0.114038,0.115663,0.003349,0.123443,0.001073,0.070415,0.065523,-0.000680,0.001018,-0.219438,0.025519,0.053605,-0.061523,0.020417,0.001054,-0.035732,-0.095761,-0.045391,0.028301,0.073406,-0.036098,-0.001057,-0.021391,0.142345,0.000910,-0.088769,0.040991,-0.121910,-0.231878,0.087657,-0.190584,-0.000964,-0.023844,-0.000205,-0.000638,-0.051092,-0.079906,-0.155526,0.000297,0.001117,-0.055040,-0.026657,0.085894,-0.055185,-0.097232,-0.001056,-0.000721,-0.078090,0.001411,-0.006165,-0.000810,-0.016011,0.002133,0.014181,-0.007452,-0.006880,0.026517,-0.010568,-0.006659,-0.017161,-0.000669,0.002757,0.008512,-0.029667,0.028960,0.020163,0.008017,-0.022935,-0.000475,-0.003359,-0.017124,-0.004317,-0.000550,-0.004108,-0.016335,-0.001018,0.018729,-0.008459,-0.000715,-0.013680,-0.009529,-0.002482,0.007266,0.000179,-0.004858,-0.000701,-0.000812,0.009862,-0.000620,0.015163,0.005746,-0.006914,-0.028611,-0.007433,-0.026875,-0.000615,0.043326,-0.000573,-0.008202,0.005031,-0.023806,0.038876,0.000150,-0.000672,0.015795,0.015311,-0.010254,0.003818,0.013588,-0.000521,-0.000606,-0.010157,-0.000532,0.008294,-0.000771,0.046384,-0.013606,0.037682,-0.004251,0.047737,-0.107366,-0.015245,0.019527,-0.006221,-0.003644,0.018982,-0.044921,0.040891,-0.114752,-0.131224,0.002096,0.017006,-0.002476,-0.016469,-0.001689,0.034161,-0.002343,-0.022014,-0.011614,-0.012281,-0.023580,-0.006615,-0.002695,-0.000528,0.001614,-0.008966,-0.067168,-0.014740,0.029166,-0.003166,0.102857,-0.034704,-0.002787,-0.023433,-0.017175,0.015207,0.135534,0.038460,0.084040,-0.001636,-0.117125,-0.000974,0.022110,0.010035,0.052475,-0.029492,0.009222,-0.003930,0.028949,-0.082657,-0.005215,-0.091151,0.057902,-0.002043,-0.001785,0.001931,-0.002552
-0.019217,-0.000121,0.004661,-0.001936,-0.011209,0.003320,-0.000261,-0.018521,0.002562,0.006555,0.036638,-0.000082,-0.027239,0.007410,0.001970,0.007973,0.005790,-0.047101,0.000090,-0.000202,-0.003562,-0.015979,-0.011701,-0.000088,0.010258,-0.010366,-0.003182,0.004211,0.002159,-0.000083,-0.006158,0.000134,-0.032447,0.002598,-0.005673,0.004231,-0.000097,-0.014524,-0.002731,-0.000134,0.004182,0.002476,-0.016105,-0.005511,-0.006777,-0.001881,-0.000119,0.111532,-0.000167,-0.006866,-0.007031,0.006596,0.003078,-0.000133,-0.000137,-0.003633,0.003578,0.002567,0.005689,0.003541,-0.000058,-0.000162,0.001422,-0.000090,-0.008902,-0.000109,-0.000287,-0.049174,0.166490,0.049597,-0.064590,-0.011722,-0.003824,0.086896,0.019265,0.000131,-0.041503,-0.067967,0.020583,0.077406,-0.084193,0.014788,-0.028901,0.000050,-0.103161,-0.066793,-0.080466,0.000101,-0.046185,0.092389,0.008243,0.051524,0.025132,0.000034,-0.022691,-0.121891,-0.062543,0.038704,0.010663,-0.000518,-0.000123,-0.114063,0.008075,0.000075,0.020959,0.076303,0.098047,0.132113,-0.032848,-0.001533,-0.000124,0.007291,0.000099,-0.118749,-0.006301,0.071454,0.070124,0.000321,0.000119,0.063515,-0.019777,-0.018166,-0.096552,-0.150874,-0.000059,-0.000210,0.074854,0.000156,-0.007463,-0.000156,0.004546,0.004870,0.025192,-0.005091,-0.000225,0.002470,-0.004836,0.000672,0.010086,-0.000588,-0.009402,-0.013349,0.000276,-0.006110,-0.010755,0.003254,0.010824,-0.000181,0.001933,0.006308,0.013871,-0.000276,-0.001600,0.003728,0.011297,-0.002133,0.012184,-0.000186,0.003320,-0.002386,0.009774,0.003065,-0.007902,0.003019,-0.000225,0.017370,0.003094,-0.000187,0.000132,-0.007424,0.013604,0.007106,0.004280,0.011930,-0.000174,-0.001040,-0.000166,-0.000250,-0.006641,0.010348,-0.017074,-0.000418,-0.000287,0.001322,-0.001690,0.003070,0.002139,-0.003494,-0.000229,-0.000164,0.006397,-0.000248,-0.010887,-0.001221,-0.005452,-0.007775,-0.099894,0.002828,0.034342,-0.008845,0.001282,0.016314,0.006517,-0.001572,-0.007077,0.027348,-0.000446,0.038006,0.002575,0.000582,-0.015678,-0.000470,-0.045142,-0.029646,-0.065867,-0.000577,0.001753,-0.059064,0.001540,0.044227,0.001782,0.000027,-0.011040,-0.004031,-0.002783,0.017814,-0.010780,0.015176,-0.000386,-0.001625,-0.001944,-0.000706,0.017742,0.007482,-0.013483,-0.053985,-0.066452,-0.035086,-0.000489,0.017427,-0.000873,-0.010273,-0.004864,-0.013604,0.010707,-0.001051,0.000112,-0.017294,0.028861,0.011342,0.010680,0.066121,-0.001062,-0.001328,-0.009925,-0.000451
